// Checkpoint: ../PPO/PPO_Quadcopter_335d0_00000_0_2021-08-31_13-04-24/checkpoint_000980/checkpoint-980
#ifndef BRAIN_H
#define BRAIN_H
const int structure[3][2] = {{64, 18}, {64, 64}, {8, 64}};
const float HIDDEN_WEIGHTS_0[64][18] = {{1.33555561e-01,-1.74666300e-01,-1.79957971e-01,-1.87418371e-01,1.34495080e-01,1.21327117e-01,2.32029304e-01,-2.71995574e-01,4.47570309e-02,-3.15714151e-01,-1.72353357e-01,2.77391225e-01,8.14254209e-02,1.27911597e-01,-1.95531085e-01,-3.85667413e-01,4.31859881e-01,2.07553402e-01},{5.06403707e-02,3.26193459e-02,-3.36847425e-01,5.29253006e-01,4.63413224e-02,-3.24887931e-01,2.06580870e-02,2.00805306e-01,-9.43188928e-03,-3.38119537e-01,2.81809598e-01,-2.84391016e-01,2.48297393e-01,-7.60005927e-03,1.13313988e-01,-2.48787075e-01,-2.56519504e-02,1.18204273e-01},{-2.64623076e-01,1.78142458e-01,1.86198413e-01,-4.69446033e-01,-2.15423316e-01,-2.64703389e-02,-2.34508425e-01,-1.67360336e-01,-1.06879570e-01,-1.94576710e-01,-2.67158687e-01,-4.16210264e-01,-4.30952489e-01,-5.40619195e-01,-7.66526833e-02,2.49143969e-02,-5.24725467e-02,1.94723383e-01},{-2.37644315e-01,1.86911121e-01,1.90377787e-01,-1.20581388e-01,7.01984391e-02,1.04697891e-01,-2.27940217e-01,3.08247298e-01,4.31538701e-01,-4.37292099e-01,-3.70321482e-01,-3.37105900e-01,-9.39593762e-02,4.89016175e-01,-1.73508212e-01,1.00429341e-01,-1.34584263e-01,-3.04528087e-01},{3.62336963e-01,2.48742566e-01,-1.16780505e-01,1.70704529e-01,-1.00090010e-02,-1.71169400e-01,-3.02551359e-01,4.71417546e-01,-1.37474816e-02,2.03625858e-01,2.44489089e-01,2.30758086e-01,-7.23654866e-01,4.19230133e-01,2.34687209e-01,1.80009842e-01,-1.38823725e-02,-1.99641790e-02},{-6.27570450e-02,-4.04029727e-01,-9.59830955e-02,-2.63534397e-01,-7.39518330e-02,-5.13757229e-01,-1.15218833e-02,-1.17813684e-01,3.33374679e-01,8.22848827e-03,9.33164582e-02,-4.56091054e-02,2.23868296e-01,-1.98932737e-01,1.98396519e-01,4.66724664e-01,8.71713534e-02,-3.52528065e-01},{4.73209530e-01,2.76122957e-01,-1.13012128e-01,1.34387910e-01,1.19591638e-01,1.06333159e-01,1.93291400e-02,-2.49485657e-01,-2.55296677e-01,6.14270605e-02,2.20416993e-01,3.13197464e-01,1.17858127e-01,6.89400584e-02,2.36508355e-01,3.80286068e-01,-4.76023078e-01,-7.78235272e-02},{-3.43381427e-02,-3.87186669e-02,6.11670353e-02,-2.92498805e-02,1.48624461e-02,-1.89494178e-01,9.10439119e-02,-5.03814220e-01,1.59481503e-02,1.15195602e-01,4.80408043e-01,-4.05388549e-02,4.05503362e-01,4.09794480e-01,2.71029502e-01,-2.97535568e-01,-2.20004916e-01,-2.76852310e-01},{2.69457579e-01,2.79387943e-02,3.79037231e-01,9.87708345e-02,-4.03412193e-01,-3.33683699e-01,5.19825257e-02,-7.10100010e-02,-3.22090834e-01,-1.35183126e-01,4.33271527e-01,1.37639148e-02,-2.17843652e-01,-2.82688618e-01,1.57200828e-01,2.32546300e-01,-3.70763868e-01,7.83310458e-02},{1.11709446e-01,-1.27705052e-01,3.90523404e-01,-1.58352740e-02,-3.35921859e-03,-1.53838858e-01,-3.30778092e-01,-2.29062736e-01,2.01801986e-01,2.64025062e-01,-3.04018557e-01,-1.77261904e-01,1.98056236e-01,7.85273015e-02,-1.81606069e-01,4.17855352e-01,-4.21346605e-01,-1.81427523e-01},{-3.04236799e-01,2.96128869e-01,-2.37397924e-01,6.00141957e-02,4.09138173e-01,2.54073218e-02,5.90607664e-03,-2.53088325e-01,2.08576843e-01,7.59963179e-03,-2.04551563e-01,6.80154800e-01,9.61529836e-02,-3.70470434e-01,3.24947506e-01,-4.92421597e-01,2.59497799e-02,1.39643431e-01},{1.52273148e-01,-1.03041083e-01,-2.74668515e-01,2.62894571e-01,-2.86407545e-02,-4.08545107e-01,-4.25361305e-01,-1.31199673e-01,1.61899075e-01,1.34531230e-01,-4.39234585e-01,9.31388363e-02,2.04130262e-01,3.98417562e-02,-9.30623710e-02,-3.75625640e-01,-1.91166475e-01,2.00895324e-01},{-1.74152508e-01,3.85609299e-01,1.75795346e-01,-2.47416332e-01,-2.03556687e-01,5.01551107e-02,2.73404062e-01,3.46732587e-01,5.87763190e-02,-2.89696567e-02,-7.23920688e-02,1.19973071e-01,-4.21545133e-02,-1.64825380e-01,-8.66102502e-02,3.62277687e-01,4.04136360e-01,3.75375330e-01},{-4.08932678e-02,-3.28839511e-01,-1.54519141e-01,-5.24642229e-01,-1.79215670e-01,2.06091613e-01,-9.61595848e-02,3.15276176e-01,-3.05637240e-01,-8.19519088e-02,1.07912719e-01,1.48172200e-01,-9.13128853e-02,6.78540394e-02,3.18675339e-01,2.42769539e-01,-1.82827920e-01,-2.96526134e-01},{8.42025205e-02,-4.72144514e-01,3.52368653e-02,9.44161341e-02,-2.26614565e-01,3.00128043e-01,-3.34865391e-01,-1.02400549e-01,-1.99114233e-01,3.33941370e-01,-1.56291440e-01,8.47565308e-02,-9.14694071e-02,5.37546635e-01,-4.28089768e-01,-2.13297933e-01,2.53573120e-01,1.93319932e-01},{-2.45588552e-02,1.18387103e-01,2.18409196e-01,-2.04816326e-01,3.14926684e-01,-1.23813316e-01,-1.15834452e-01,-3.48174661e-01,3.98993909e-01,2.69171149e-01,1.24211773e-01,-3.07590514e-01,-3.85780156e-01,4.49135065e-01,-5.58100402e-01,3.90594862e-02,-1.53304696e-01,-1.58949196e-01},{-3.71373482e-02,-5.11767864e-01,2.72710659e-02,-1.32653594e-01,-1.99328780e-01,3.16642880e-01,1.10064186e-01,-3.16973269e-01,-2.58879568e-02,3.12151164e-01,4.38118875e-01,6.95288107e-02,-2.82629609e-01,-4.55937356e-01,1.67740762e-01,-3.14187884e-01,-5.21534234e-02,1.45105988e-01},{6.53822571e-02,1.49218179e-03,-2.72341222e-01,-1.01840407e-01,-2.51355648e-01,-3.81536633e-02,-5.41583411e-02,-3.90050620e-01,-8.42891932e-01,1.85157791e-01,5.85964546e-02,-1.00500755e-01,-1.53361226e-03,6.83144331e-02,-1.67879179e-01,3.14156741e-01,1.12231679e-01,-1.10388547e-01},{2.76829302e-01,-2.38769487e-01,-6.61139131e-01,-1.22697121e-02,-5.08354325e-03,-4.28004749e-02,2.11534619e-01,-6.94225430e-02,-1.60923839e-01,2.80427486e-01,2.38162041e-01,3.21114779e-01,-1.43632710e-01,-7.29889050e-02,1.97638169e-01,7.29098693e-02,-3.51345628e-01,-7.08212331e-02},{-4.30913642e-02,3.74421358e-01,9.26468074e-02,1.11632302e-01,4.40921724e-01,4.01650161e-01,3.16393226e-01,6.62196502e-02,-3.64919573e-01,-3.20899099e-01,2.13807337e-02,2.72582918e-01,1.34585232e-01,-3.01315457e-01,-1.86230447e-02,-2.77441919e-01,-8.18604790e-03,2.77455866e-01},{-1.83214769e-01,-2.75482953e-01,4.21063423e-01,-6.49674423e-03,6.76612929e-03,7.55614102e-01,-3.69165689e-01,1.61525663e-02,-1.38105422e-01,-5.93587905e-02,1.60045132e-01,-1.60701483e-01,2.53052652e-01,-2.38824040e-01,-1.51924849e-01,-3.56706560e-01,1.34855002e-01,1.18467994e-01},{4.01710987e-01,-1.43915966e-01,-7.12755993e-02,3.50666463e-01,-2.59316325e-01,-7.88092706e-03,-1.31635845e-01,7.93893337e-02,3.93340856e-01,4.79419418e-02,-2.25872397e-01,-3.92518193e-01,-2.87324339e-01,-1.69699326e-01,2.92342335e-01,5.67775726e-01,1.28290251e-01,2.70756483e-01},{-3.26876968e-01,-2.71548390e-01,1.37349606e-01,1.81175068e-01,-4.76738326e-02,2.58388296e-02,-4.02270444e-02,-1.24858379e-01,-1.57630816e-01,4.05032068e-01,-3.94711569e-02,-6.18691087e-01,4.94539171e-01,4.06418502e-01,-2.83414692e-01,-2.15915143e-01,-6.36556223e-02,5.13879918e-02},{7.32925013e-02,-7.44247213e-02,-2.89574951e-01,3.08528811e-01,1.71325609e-01,1.26268864e-01,-3.90014887e-01,-3.99414189e-02,-3.13167982e-02,-9.43762958e-02,-4.44973320e-01,3.78510356e-01,-7.67236352e-01,2.94167370e-01,8.63945261e-02,7.12954998e-02,-2.42707822e-02,-1.06268916e-02},{-1.56770498e-01,2.48386949e-01,-1.42713606e-01,1.63365841e-01,3.42203915e-01,-5.04068062e-02,4.13282178e-02,2.49262601e-01,3.68658692e-01,-2.95001868e-04,2.76511312e-01,-2.11180061e-01,-8.67556632e-01,-6.65032804e-01,2.15119094e-01,3.76550443e-02,1.40183195e-01,1.21393204e-01},{-2.49352515e-01,-3.11465085e-01,-2.23392043e-02,3.32126051e-01,-1.14728786e-01,8.69977251e-02,-1.83971852e-01,-1.62363410e-01,1.47905543e-01,4.38230217e-01,-1.89177260e-01,-2.20201388e-01,2.52071172e-01,-7.93826401e-01,-3.82316142e-01,-2.56562799e-01,1.38292700e-01,-4.17470410e-02},{-1.23998255e-01,-1.80689842e-01,9.24018025e-02,2.57641792e-01,1.61944509e-01,-7.32355043e-02,2.27160022e-01,-1.61795393e-01,1.95504963e-01,-1.53750569e-01,3.66567783e-02,-4.76192802e-01,-4.10140604e-01,3.68004680e-01,2.42604956e-01,1.30033746e-01,5.25648654e-01,-1.81078702e-01},{-5.63615188e-02,4.55718897e-02,4.58259806e-02,-9.03093889e-02,1.97772309e-01,-1.05278440e-01,2.62470990e-01,-1.09487943e-01,3.46834399e-02,5.67241728e-01,2.66301155e-01,-5.34745038e-01,-6.16572797e-01,3.66905004e-01,2.12567404e-01,2.26329252e-01,-4.50570509e-03,-1.05759293e-01},{-7.53461793e-02,1.47259519e-01,-3.26935410e-01,3.17201726e-02,-1.99002951e-01,-1.93448067e-01,1.70110300e-01,2.55662054e-01,-3.09333056e-01,2.56462157e-01,-6.17080927e-01,2.33642429e-01,-5.52440668e-03,-1.76762685e-01,1.77457735e-01,1.85073212e-01,-1.02769122e-01,1.65366918e-01},{3.47020566e-01,1.75124720e-01,5.75858057e-02,-4.93091106e-01,2.10529163e-01,2.08214626e-01,3.68700661e-02,-3.13642621e-01,-1.29821345e-01,-2.22191960e-02,7.06317201e-02,1.80216730e-01,5.06541610e-01,-6.61588192e-01,1.74644869e-02,-3.11725169e-01,-3.43586266e-01,-5.80464415e-02},{-7.00715780e-02,-4.65811938e-02,-1.64158028e-02,-1.41307786e-01,-5.03773428e-02,4.45791274e-01,-2.90506929e-01,7.50328377e-02,-1.96143717e-01,3.17350984e-01,-2.50943989e-01,-1.41545208e-02,-3.88428211e-01,-1.96475059e-01,2.21322671e-01,1.27685472e-01,-7.38738030e-02,-4.66797590e-01},{-1.83385968e-01,9.15476382e-02,-9.15862322e-02,3.02275848e-02,5.27969003e-01,4.18445021e-01,-3.38159770e-01,-2.67967910e-01,-3.50892469e-02,3.20283383e-01,2.78646022e-01,3.70120823e-01,-3.90156955e-01,-1.82484955e-01,-2.42851302e-01,-5.25203496e-02,9.16979313e-02,-4.36882116e-02},{-2.11924404e-01,-1.65078193e-01,-3.05970669e-01,-2.26831183e-01,-1.65563032e-01,-5.02708375e-01,-1.65979415e-02,2.77740121e-01,1.94067687e-01,2.22722918e-01,-3.62299353e-01,-3.10875118e-01,1.92734689e-01,2.91761793e-02,3.52536142e-01,8.82331729e-02,-1.52134448e-01,-1.02307968e-01},{3.02222669e-01,-5.49574345e-02,2.10522830e-01,2.72377998e-01,1.19617335e-01,4.34362561e-01,2.44001076e-01,3.62795830e-01,-3.50905567e-01,5.12266569e-02,-1.51205450e-01,-1.06503010e-01,-2.81169504e-01,3.16038668e-01,-2.35741749e-01,-5.42553902e-01,-1.13168508e-01,-2.37810388e-01},{-1.42496735e-01,-5.97429536e-02,-7.18962476e-02,-5.59939146e-02,1.99076114e-03,-1.81797981e-01,3.26399624e-01,3.02003175e-01,-4.15732190e-02,1.23622775e-01,6.05411530e-01,3.64398390e-01,-3.73178571e-01,4.50895607e-01,-3.52710843e-01,1.75947815e-01,-4.04037744e-01,-7.76928365e-02},{-3.43796492e-01,-5.17672785e-02,6.94806427e-02,1.67480871e-01,-2.60618376e-03,4.85348731e-01,-1.89944983e-01,4.03150976e-01,1.82151288e-01,-1.31081074e-01,-2.81531334e-01,-1.11678928e-01,3.80753636e-01,2.79000610e-01,-1.10262714e-01,-8.00930783e-02,9.01383609e-02,-4.39779967e-01},{1.88777521e-01,1.87457055e-02,-7.00062588e-02,-8.95017944e-03,-9.38940421e-02,5.24083301e-02,-4.65653926e-01,-2.37592421e-02,-1.61719657e-02,4.34432179e-01,-1.08947583e-01,3.28411728e-01,3.55914772e-01,4.43608575e-02,-3.19886208e-01,-7.62563199e-02,1.95094168e-01,-5.11624336e-01},{4.67380136e-01,-1.27151012e-01,1.21441096e-01,-2.18651101e-01,4.64967102e-01,1.13343343e-01,2.81098872e-01,-8.04878995e-02,-1.96489409e-01,-1.05474085e-01,6.52531907e-02,1.05529115e-01,3.10726855e-02,1.16914883e-02,4.16390687e-01,-9.62500460e-03,-5.16832843e-02,4.58677292e-01},{8.45146328e-02,6.75838590e-02,-7.50545502e-01,1.98800787e-02,-3.29989195e-02,-1.81496188e-01,-1.66082427e-01,1.60747066e-01,-4.42847274e-02,1.83588281e-01,-1.08585961e-01,2.77182400e-01,-1.66794777e-01,-1.15668755e-02,-2.66442418e-01,1.82280347e-01,-2.28467196e-01,3.24708432e-01},{-9.75305587e-02,-1.91641912e-01,-1.29636541e-01,1.94072410e-01,3.01274240e-01,4.39715892e-01,3.57174426e-01,1.58778280e-01,9.14635975e-03,1.39346361e-01,-2.52070934e-01,-1.76356867e-01,-3.38809252e-01,3.39373857e-01,3.48297119e-01,1.90894634e-01,1.49380267e-01,-1.42805740e-01},{-3.73419821e-02,3.27543259e-01,1.77470237e-01,3.16609114e-01,3.09127159e-02,-1.32134527e-01,4.13849235e-01,2.87444830e-01,-2.06187308e-01,2.88711548e-01,-1.02306560e-01,2.80110210e-01,-5.00753701e-01,3.51944715e-01,-7.09619373e-02,-3.14999670e-02,9.81997326e-02,-1.60412565e-01},{2.23019540e-01,-1.95260569e-01,-1.23619124e-01,-4.57545966e-02,-1.04886599e-01,7.47065023e-02,-2.89173871e-01,-1.53055087e-01,4.19829756e-01,-1.31211951e-01,2.79206187e-01,5.47164539e-03,3.04706305e-01,-2.48169735e-01,9.22653526e-02,-2.84174569e-02,-1.26695663e-01,5.80434322e-01},{3.12138021e-01,1.61235556e-01,-6.53376505e-02,1.01961143e-01,-2.62987554e-01,1.12642877e-01,6.15455471e-02,1.15502022e-01,3.40622962e-01,-4.86628562e-01,-3.37442234e-02,2.13821098e-01,5.17871141e-01,7.38780379e-01,1.72576517e-01,5.68310767e-02,-6.05007000e-02,1.37865871e-01},{-7.89454728e-02,1.50326461e-01,2.11217433e-01,4.18834537e-01,1.77984476e-01,-2.86370426e-01,2.71928459e-01,-1.13454081e-01,9.53753218e-02,2.39985526e-01,-2.66018510e-01,4.95729130e-03,3.25849444e-01,-1.29888251e-01,8.85256290e-01,-2.64705047e-02,-1.75745562e-02,9.28914770e-02},{1.01453057e-04,2.59323061e-01,2.01619878e-01,3.13663721e-01,3.42680246e-01,-2.95856129e-02,-1.21266559e-01,1.40735954e-01,5.78874722e-03,-2.38759518e-02,-2.87034214e-01,5.23572564e-01,6.43776879e-02,7.30319858e-01,-2.58881301e-01,2.75003314e-01,-2.04511970e-01,-1.04550362e-01},{-4.60359976e-02,-5.15734017e-01,4.28119630e-01,-2.56456465e-01,9.32423174e-02,-8.86406377e-02,-4.33259178e-03,-3.20382655e-01,-8.21609125e-02,1.61630765e-01,-6.56739697e-02,4.24788982e-01,-3.21798384e-01,-5.65319896e-01,-1.28155515e-01,-2.00598184e-02,-2.59308010e-01,6.74564242e-02},{-1.02340497e-01,-4.41431925e-02,-3.71892333e-01,7.36310054e-03,-1.79620355e-01,2.81953383e-02,-1.87422410e-01,-7.35896826e-02,-3.76800567e-01,-1.79739863e-01,-1.58050582e-01,2.06402808e-01,6.47720218e-01,5.36513269e-01,-1.72485337e-01,3.90240192e-01,-2.55930841e-01,-1.86147049e-01},{1.66873142e-01,-2.50298847e-02,5.11566317e-03,5.22255182e-01,2.54398197e-01,1.70455053e-02,-3.12625349e-01,1.76394448e-01,-2.90506512e-01,-4.09399793e-02,1.11470424e-01,-2.09970906e-01,2.23236725e-01,-3.15325826e-01,-1.07112445e-01,2.16652732e-02,2.28944257e-01,-4.42607343e-01},{-2.64033288e-01,4.96099181e-02,-6.29076138e-02,2.19780356e-02,-4.27334189e-01,-1.18475601e-01,-4.17972267e-01,2.36304238e-01,-2.92883724e-01,-7.05733299e-02,2.94713452e-02,-7.37403780e-02,-1.01914428e-01,-2.04187393e-01,1.40201403e-02,-5.71882606e-01,-6.50061965e-02,-2.16365084e-02},{3.50423038e-01,1.59788549e-01,-4.68876988e-01,-9.27692503e-02,2.11151585e-01,1.25351086e-01,-9.68250409e-02,-5.39772771e-02,-1.98860958e-01,-3.78163218e-01,-7.92308524e-02,-1.65856495e-01,5.43852389e-01,-8.50763619e-02,-3.88491601e-01,-1.71486706e-01,-6.77845627e-02,-1.09681077e-01},{2.55017132e-01,1.48469359e-01,2.02085823e-01,2.33618960e-01,-2.31604502e-02,-4.45193380e-01,3.21943134e-01,-1.67990863e-01,4.78308946e-01,1.24131374e-01,-1.77194923e-01,-3.18519652e-01,-1.12647012e-01,3.22542489e-01,-1.40384072e-02,-7.89371505e-02,-1.10944726e-01,-2.66851068e-01},{1.74672127e-01,4.32953209e-01,-1.86700195e-01,1.27579227e-01,-2.52531916e-01,1.48631692e-01,2.65689433e-01,5.10805070e-01,-2.56384939e-01,-1.87425762e-01,-1.72399417e-01,1.35616690e-01,-6.48111820e-01,-3.71045053e-01,-1.99490845e-01,-3.72487336e-01,1.18527792e-01,3.83257382e-02},{-6.35836795e-02,3.65250111e-01,-5.81052005e-02,-2.06868738e-01,-3.85838076e-02,1.33212790e-01,2.00383306e-01,-4.06466693e-01,-2.18484119e-01,-6.57549739e-01,1.31693676e-01,1.49999514e-01,-1.76640496e-01,2.97684073e-01,-3.71189505e-01,5.25655225e-02,6.00294471e-02,-2.94874161e-02},{-1.69339657e-01,-2.53885359e-01,2.57520795e-01,4.60177585e-02,-2.75386631e-01,-9.29766744e-02,2.46803924e-01,-2.56391168e-01,-2.50028759e-01,2.13620096e-01,3.32566917e-01,1.48879066e-01,-3.25511247e-01,-4.24572617e-01,6.80323601e-01,-1.73268437e-01,1.49607569e-01,-2.55547487e-03},{1.24000851e-02,-5.22867218e-02,-4.00007218e-01,4.22613993e-02,-5.32314926e-03,-3.48285288e-01,-9.38891023e-02,3.75427902e-01,6.23419620e-02,-6.41877204e-02,-2.71127909e-01,1.59513682e-01,9.69027076e-03,4.91329551e-01,1.24868236e-01,-5.87724671e-02,2.73691863e-02,6.41051829e-01},{-3.56494635e-01,1.88991398e-01,-1.00714877e-01,-4.60061757e-03,3.94459248e-01,-5.14032125e-01,-1.09797679e-01,2.18461066e-01,2.64392197e-01,1.58331230e-01,-9.54771116e-02,-8.05573091e-02,1.23884484e-01,-2.91817993e-01,2.67139256e-01,-4.93595183e-01,1.20451078e-02,-1.88811734e-01},{-6.25234917e-02,-7.73848817e-02,2.51670897e-01,1.83831722e-01,-3.89996059e-02,-2.21940637e-01,3.75046462e-01,3.75938863e-01,3.66558805e-02,-1.51963755e-01,-3.99586797e-01,8.21830763e-04,1.00196630e-01,-1.45617992e-01,3.30368102e-01,-2.30995879e-01,1.47709191e-01,-2.64217079e-01},{4.29550968e-02,-2.32682601e-01,2.49430463e-01,-2.26472005e-01,1.22801341e-01,-3.42100024e-01,-5.92195801e-02,1.36325628e-01,-2.81316340e-01,-3.64025235e-01,4.55273330e-01,-3.25665742e-01,-1.36169717e-02,2.54835516e-01,1.45493865e-01,4.03976142e-02,-1.83313116e-01,-3.39039952e-01},{-7.25703016e-02,-2.77622193e-01,1.16385920e-02,2.00350191e-02,-4.20125306e-01,-6.13865741e-02,-2.38028273e-01,-3.45441550e-02,1.75446272e-01,3.46102148e-01,-4.26216990e-01,-2.88384706e-01,-6.10439301e-01,1.09938066e-02,4.27176833e-01,2.02799082e-01,6.48318827e-02,9.73650515e-02},{1.13325760e-01,1.86135814e-01,2.43875146e-01,1.33380413e-01,1.77217498e-02,-3.82695301e-03,1.16305918e-01,-1.95567176e-01,-2.27722272e-01,-2.98454791e-01,-3.75189364e-01,-1.71065316e-01,-2.27014512e-01,4.22284573e-01,4.10289139e-01,1.47310972e-01,2.79841512e-01,3.99089217e-01},{4.07012314e-01,-2.96801031e-01,8.42155591e-02,3.36206734e-01,-2.33820558e-01,4.57759313e-02,-6.97992966e-02,1.37322813e-01,9.58534926e-02,-3.40582490e-01,2.53290613e-03,5.07181048e-01,3.21936786e-01,-5.47792852e-01,-5.37988424e-01,-7.07733929e-02,-7.92171881e-02,-8.93199518e-02},{4.20152754e-01,-2.95226322e-03,6.83123916e-02,-4.23811004e-03,3.90992492e-01,-3.51718128e-01,3.28930497e-01,8.75615180e-02,-4.08945948e-01,3.41866642e-01,-9.08601210e-02,-8.47679451e-02,-1.97084844e-02,-3.78218055e-01,-9.94571596e-02,9.99078825e-02,-3.15043293e-02,3.26660961e-01},{1.96361572e-01,-3.67279857e-01,-1.56684101e-01,-2.21488982e-01,-8.19723904e-02,3.98280531e-01,1.64869994e-01,-4.89837378e-01,-1.89083382e-01,3.19059759e-01,2.51840413e-01,-7.32296258e-02,-5.73538065e-01,-1.17911793e-01,1.83612511e-01,1.76846847e-01,2.32818261e-01,1.38345718e-01},{-3.74448031e-01,-4.01050240e-01,-3.27817708e-01,-1.71297222e-01,8.14454630e-02,-8.18084925e-02,-1.03276461e-01,-4.92475867e-01,-1.85683802e-01,-2.91923761e-01,-6.91699907e-02,-2.28962779e-01,4.52288926e-01,3.17338645e-01,3.23056161e-01,2.41325945e-01,-5.56506887e-02,-8.80688578e-02}};
const float HIDDEN_BIASES_0[64] = {-0.00670193,-0.00553184,-0.00335694,-0.18165962,0.10856576,0.16649549,-0.14667109,0.04164083,0.16431668,0.03106458,0.13832122,-0.08873688,0.06211166,-0.19904569,-0.174781,0.01785279,0.11333982,-0.05956641,-0.04229517,0.2091077,-0.03992309,0.04238897,0.06734197,-0.1034328,0.02673873,0.00440283,0.10432569,0.12523718,-0.16369969,0.08889162,-0.15133345,-0.26824108,0.20441467,-0.06018779,-0.04535203,-0.13309959,-0.088108,-0.07304673,0.12148505,0.17285709,0.16512465,-0.11085374,0.00349004,0.37707764,-0.05064468,0.02787602,-0.07817804,-0.09284474,-0.10538568,-0.17181768,0.06698503,-0.12333167,-0.27924272,0.29299602,-0.05632257,0.11064937,0.10550267,0.26313093,0.29693285,0.15919475,-0.1812677,-0.00502006,-0.04865544,0.08551692};
const float HIDDEN_WEIGHTS_1[64][64] = {{-6.28846511e-02,-2.00558320e-01,2.61622984e-02,1.20780217e-02,3.95634353e-01,2.28490695e-01,-4.23594639e-02,9.82121751e-02,1.61327899e-01,4.63605151e-02,1.98442247e-02,1.70155033e-01,3.12466472e-01,2.74465587e-02,4.17170525e-02,9.28296708e-03,1.92689672e-01,1.23717353e-01,1.54298186e-01,1.89986289e-01,1.70745417e-01,1.12970442e-01,-1.35528594e-01,5.40068187e-02,-5.92423677e-02,1.60274270e-03,5.39124720e-02,2.00764254e-01,5.65673485e-02,9.94259864e-02,-2.10501909e-01,2.17797817e-03,2.41995752e-02,5.45546263e-02,-1.80253595e-01,4.60200524e-03,-1.67704467e-02,3.18725109e-02,-8.63287300e-02,-3.26002613e-02,2.54459918e-01,-2.72334903e-01,-2.92757154e-02,6.25904351e-02,-3.72697979e-01,2.99782753e-01,-9.72481519e-02,4.57965359e-02,-1.22908585e-01,9.84465331e-02,1.00822732e-01,2.60677505e-02,1.56756826e-02,2.03928538e-02,-1.18028717e-02,3.01532149e-01,-3.07560489e-02,1.37972951e-01,-1.32224681e-02,1.47793397e-01,-1.09992690e-01,-1.21858932e-01,3.26678380e-02,5.48939267e-03},{-6.64288923e-02,-7.71983042e-02,3.58247422e-02,1.07626729e-01,-2.66554236e-01,1.41478002e-01,4.76017557e-02,-7.86892772e-02,2.19305158e-02,-2.56306410e-01,4.70672697e-01,-9.88980830e-02,6.62955940e-02,-1.04107209e-01,-3.11292484e-02,-1.14908636e-01,-6.48895279e-02,-1.67044163e-01,-1.06576197e-01,1.48174435e-01,4.71837446e-02,1.43186077e-01,2.89082131e-03,-1.72189578e-01,1.58887450e-02,8.32563490e-02,1.48668932e-02,-1.96555868e-01,1.84409380e-01,-1.84007771e-02,1.00335717e-01,-1.36100918e-01,1.95193082e-01,-3.99738014e-01,6.26345202e-02,-1.76186904e-01,-1.03206515e-01,1.66079327e-01,5.06276265e-03,3.58096845e-02,-1.46707878e-01,-4.49973010e-02,2.32722554e-02,2.06240416e-01,-4.61293757e-02,6.34527951e-02,1.04866438e-01,-8.96946415e-02,-3.99943963e-02,-5.80677250e-03,-9.62055400e-02,-1.93054840e-01,-3.76103699e-01,-8.37882515e-03,6.02809861e-02,2.63226271e-01,3.19976397e-02,-2.54771948e-01,-8.79342388e-03,-2.13061832e-03,-7.30329230e-02,-2.76189119e-01,1.06602579e-01,-4.09771912e-02},{-6.29477575e-02,-1.86040536e-01,5.07111289e-02,-2.66885236e-02,-2.00557724e-01,-2.16978118e-01,-2.86132041e-02,8.28802958e-02,-1.20515406e-01,2.07960114e-01,-9.96969715e-02,1.81144208e-01,8.76119882e-02,1.76115215e-01,5.60171157e-02,-9.90689769e-02,-7.35469279e-04,2.02267095e-01,-2.02631459e-01,-3.15577500e-02,1.35099903e-01,-2.16547489e-01,2.61497527e-01,2.44632050e-01,-9.14196894e-02,8.60460326e-02,-9.54953674e-03,4.18941863e-02,-3.35564129e-02,-3.20721939e-02,8.65284428e-02,-3.42615359e-02,-3.79335016e-01,5.17602302e-02,8.49023759e-02,4.60260734e-02,2.53211111e-01,1.35876602e-02,1.99544325e-01,-8.26169271e-03,-1.25802662e-02,-1.46272173e-02,1.46179169e-01,-6.12977743e-02,1.14514865e-01,8.16825125e-03,1.71344399e-01,3.71582955e-02,2.33702213e-02,-5.64089417e-02,2.24704645e-03,7.09540630e-03,2.26367489e-01,3.36974204e-01,-3.97426188e-02,-2.64080554e-01,5.00956438e-02,-1.11141197e-01,-1.08242132e-01,1.31004974e-01,1.57654375e-01,-2.26526365e-01,-3.71615857e-01,-5.91839924e-02},{-1.83609147e-02,8.83821696e-02,7.04028457e-02,2.96135366e-01,-1.11755058e-01,-3.49713527e-02,8.82238746e-02,-1.99915141e-01,-2.03281164e-01,8.96350890e-02,-1.51559070e-01,1.52379230e-01,1.45415321e-01,1.03821889e-01,2.99804032e-01,7.31155798e-02,-2.10821480e-01,-9.03904065e-02,2.00416688e-02,-1.95426270e-02,-9.26441848e-02,-3.33186239e-01,-8.86235312e-02,1.31674916e-01,-1.68566257e-01,-5.26928157e-02,-2.18913287e-01,-1.24197677e-02,7.13880211e-02,-1.86868712e-01,1.13031253e-01,1.85794368e-01,-1.49769560e-01,2.90086865e-01,-2.80539811e-01,2.42978372e-02,1.16504937e-01,7.66698122e-02,1.31026536e-01,-3.08739811e-01,-1.30158976e-01,-1.06157258e-01,-8.10119137e-02,-3.17308068e-01,2.35790148e-01,-2.08801567e-03,3.25806476e-02,6.94226995e-02,1.04644261e-02,1.16014004e-01,-2.34158844e-01,8.54570642e-02,4.26324040e-01,-2.11531162e-01,1.79002330e-01,6.29721135e-02,-1.70680612e-01,-1.77229822e-01,-4.47010785e-01,6.40789121e-02,6.70654140e-03,-1.83773506e-02,1.05861209e-01,-5.60900941e-02},{-6.75315782e-02,1.29085243e-01,1.21000439e-01,-1.26845732e-01,1.05643077e-02,-6.51203990e-02,-1.02485366e-01,1.42192259e-01,4.40941378e-03,3.27676795e-02,5.50782084e-02,-3.22883613e-02,-1.56899095e-01,-2.45821383e-02,-1.98207423e-01,-7.41423480e-03,2.18576610e-01,-2.57290423e-01,-2.67661542e-01,3.78507644e-01,1.54925317e-01,1.45944320e-02,4.90445867e-02,-3.32202345e-01,1.39057890e-01,-5.05405031e-02,1.80877253e-01,1.96071919e-02,-1.36945844e-01,-1.78388074e-01,3.45654525e-02,-2.18016773e-01,1.56219140e-01,-2.09393591e-01,5.35808355e-02,5.70534095e-02,-1.77900404e-01,-7.52281584e-03,-3.05784345e-02,-4.30715345e-02,-1.32516190e-01,-1.05483241e-01,4.60992157e-02,-3.52978893e-02,-3.73781919e-02,4.36163172e-02,-8.19046199e-02,-2.19575077e-01,-6.97333813e-02,-2.53945231e-01,1.47200674e-01,8.12925100e-02,-1.69521824e-01,2.51644682e-02,-1.66434958e-03,-5.21313138e-02,-3.13358277e-01,-4.69584167e-02,7.33982846e-02,6.25819638e-02,1.10722266e-01,2.25574560e-02,-2.16739431e-01,-1.78295240e-01},{1.56870589e-01,1.97085403e-02,-3.09595168e-01,-3.22185084e-02,9.19666216e-02,-7.94837065e-03,-4.78744209e-02,6.51113912e-02,-2.30568960e-01,-1.09828353e-01,-1.30176514e-01,-7.28398934e-02,-1.32754996e-01,5.28187342e-02,-2.30806366e-01,-2.29518354e-01,3.22808653e-01,4.65676486e-02,-1.30458008e-02,-1.40245587e-01,6.10356918e-03,1.63069382e-01,6.78705722e-02,-2.04273919e-03,7.63822794e-02,1.70681849e-01,6.81599751e-02,-2.68635750e-01,-5.15616462e-02,-1.85667374e-03,-2.41533324e-01,1.38390973e-01,6.44499138e-02,-8.74024257e-02,-1.67757347e-01,1.42616034e-01,1.84676781e-01,-2.70347208e-01,-9.56789255e-02,5.07873707e-02,-8.23362544e-03,1.08324431e-01,1.00494556e-01,7.75974011e-03,-1.14478283e-01,-6.53710738e-02,-1.23420566e-01,-7.73837566e-02,5.84872402e-02,1.52889729e-01,1.47816181e-01,-5.03873415e-02,7.76785091e-02,-3.08082759e-01,1.46624312e-01,6.92932755e-02,-7.17862621e-02,2.07926948e-02,-1.32258292e-02,8.83816928e-02,-1.08824931e-02,-8.84456560e-03,-7.40008652e-02,1.09368704e-01},{5.41711822e-02,8.05768669e-02,-2.91726857e-01,-3.36034447e-01,8.19889978e-02,2.39547919e-02,-1.07007973e-01,-1.99618652e-01,-8.50016475e-02,1.19856484e-01,1.27567172e-01,3.98270153e-02,1.40099823e-01,8.45494792e-02,-1.57353297e-01,1.46300435e-01,9.76830423e-02,-2.29160767e-02,-3.78973127e-05,8.84720683e-02,7.09055588e-02,1.48079898e-02,-1.11118555e-01,-2.43054226e-01,2.41064485e-02,2.58873612e-01,-1.28209755e-01,-3.17286551e-01,-1.50336161e-01,3.74337398e-02,6.01764545e-02,-3.96784544e-01,1.24752663e-01,-2.13898987e-01,-3.89928408e-02,-1.24124937e-01,4.86283749e-02,-8.50597471e-02,2.66947210e-01,-8.16046894e-02,8.84277672e-02,-7.08092377e-02,-2.47363746e-01,1.36235431e-01,2.08297424e-04,-2.69499235e-02,1.64457172e-01,-5.98571226e-02,4.03647125e-02,-5.12271933e-02,-9.70655456e-02,-6.14580186e-03,-1.93280522e-02,4.25849706e-02,-1.35871902e-01,2.13271737e-01,-1.29325181e-01,2.53491998e-01,1.02377363e-01,-1.23897769e-01,-1.36697004e-02,-4.83033508e-02,-3.88864055e-02,1.69737637e-01},{1.92714974e-01,-1.05496004e-01,1.37103245e-01,9.72035080e-02,-9.64362845e-02,-1.62144393e-01,-1.20161921e-01,2.45083377e-01,-5.59539981e-02,2.06630841e-01,1.50651038e-01,1.10592827e-01,-1.00015864e-01,1.11789756e-01,4.10469137e-02,1.47182077e-01,-1.03360608e-01,-3.80568542e-02,1.73237592e-01,1.33365646e-01,1.18808135e-01,-2.22837165e-01,2.28295233e-02,4.18554060e-02,-9.29991677e-02,5.40212914e-02,-3.86013277e-02,-9.27119106e-02,6.70109019e-02,1.27584860e-01,1.95319504e-01,1.55705074e-02,-1.48835525e-01,-6.79033846e-02,-6.93784431e-02,-1.66209549e-01,4.10197079e-02,-3.63479882e-01,8.13192651e-02,-1.68170854e-01,-3.86856943e-01,1.75044745e-01,-1.08298875e-01,-5.44568598e-02,-3.38133574e-02,-1.50806997e-02,-2.28264809e-01,3.02086979e-01,7.93953836e-02,-1.03573583e-01,-1.14613704e-01,-1.90834939e-01,2.56268203e-01,1.17085673e-01,2.00645298e-01,5.53870909e-02,4.77898605e-02,5.03452448e-03,2.49591190e-02,-2.24852450e-02,1.65558830e-01,2.43346225e-02,6.32379279e-02,-5.98429739e-02},{1.63056359e-01,7.39998147e-02,5.14302291e-02,1.86529979e-01,-2.01271161e-01,1.50253788e-01,1.09106436e-01,-2.16566443e-01,-2.43173823e-01,-1.35102853e-01,-1.89653441e-01,1.72584727e-01,-1.39791191e-01,-1.17951758e-01,6.01504222e-02,1.59906626e-01,-5.68463132e-02,5.84289171e-02,1.12968929e-01,-1.19654849e-01,-1.35009691e-01,2.21879959e-01,-8.09186045e-03,1.59128696e-01,1.72298148e-01,-3.21421474e-01,1.08727306e-01,3.58912162e-02,3.34219914e-03,7.10003972e-02,2.31536217e-02,2.01412439e-01,-2.24591023e-03,1.06058650e-01,2.48181392e-02,1.62588537e-01,3.31562967e-03,-5.77286296e-02,1.57101631e-01,5.92279434e-02,5.64317033e-02,-2.48476401e-01,7.90909231e-02,-1.01303764e-01,2.61653900e-01,-1.20696336e-01,-1.52889534e-03,-1.43759638e-01,2.56431133e-01,-4.91550239e-03,1.07439891e-01,2.57154629e-02,9.03401244e-03,6.39338940e-02,2.41410926e-01,-2.39732601e-02,-1.89877793e-01,-7.65175447e-02,2.19491288e-01,-1.65656537e-01,3.33105028e-02,-1.48703232e-01,1.02856234e-01,-1.57653138e-01},{-7.21825063e-02,7.63380304e-02,6.41787872e-02,-2.52162665e-01,3.32024023e-02,3.86293754e-02,1.73435938e-02,1.43732131e-01,1.54910386e-01,1.21676242e-02,6.33423254e-02,-1.42224520e-01,2.81237215e-02,-2.05126613e-01,1.16044832e-02,8.50484595e-02,1.27204254e-01,-3.11105954e-03,2.46696085e-01,1.58188447e-01,-2.61216052e-02,-7.11577013e-03,1.01574734e-01,7.45224506e-02,1.73489124e-01,-2.87075162e-01,1.47697218e-02,1.13683589e-01,1.89653151e-02,-2.85904706e-02,-1.79192469e-01,1.05845317e-01,2.80453295e-01,-1.51739150e-01,2.75054246e-01,1.22719295e-01,-6.58989549e-02,-3.20839226e-01,-4.25278991e-02,1.67619243e-01,8.88312906e-02,5.04663363e-02,1.72644272e-01,1.25588283e-01,-9.86032486e-02,7.82158375e-02,-1.99066967e-01,-2.47164905e-01,6.27517328e-02,-1.91569611e-01,1.51553936e-02,8.89790803e-02,-3.18472296e-01,2.26332694e-01,-3.77950460e-01,-1.86981857e-01,6.89056143e-02,1.67308554e-01,3.77764851e-02,1.07605822e-01,1.12543087e-02,-5.87874837e-02,1.92554638e-01,4.74516489e-02},{6.21330105e-02,-1.05967037e-01,-1.47355840e-01,-1.03632808e-01,-1.48222828e-02,9.38266516e-02,-1.26827896e-01,3.86270657e-02,-2.23387390e-01,1.72589526e-01,1.61376923e-01,9.60033461e-02,-3.75240967e-02,1.94781095e-01,1.87122002e-01,1.99657515e-01,5.87750226e-02,-4.50292304e-02,2.52863001e-02,1.18894741e-01,-9.07842070e-02,1.15054054e-02,1.22312084e-01,1.65866926e-01,1.03527326e-02,-2.93348078e-02,-2.77078331e-01,1.62363891e-02,1.91834513e-02,-3.29361781e-02,2.51904160e-01,-2.79789567e-01,-6.65623695e-02,-1.29362404e-01,1.53989922e-02,1.72160730e-01,4.27820347e-02,2.60744631e-01,1.51757926e-01,9.44092348e-02,-5.33267856e-02,1.70446172e-01,2.56055295e-01,-3.07185352e-02,-6.60890341e-02,-1.94809243e-01,-3.80691327e-02,-4.64150980e-02,1.63999212e-03,1.08346559e-01,2.02777147e-01,-1.75860226e-02,2.15385601e-01,-6.58415034e-02,4.23899665e-02,8.75687972e-02,1.16890902e-02,1.43698128e-02,7.13737532e-02,2.39306912e-01,-2.37677217e-01,-1.05888788e-02,1.09379247e-01,2.19639152e-01},{1.58744212e-03,3.02309357e-02,-2.59161204e-01,2.44784262e-03,3.04300815e-01,-1.06735572e-01,1.14032524e-02,1.12688407e-01,9.04620811e-02,1.38868103e-02,1.81423407e-03,-9.58943740e-03,1.13291651e-01,6.88727722e-02,1.62634701e-01,-5.37229292e-02,2.13326160e-02,7.86405578e-02,-1.59041867e-01,-1.72476560e-01,1.34819329e-01,7.29428753e-02,2.23524243e-01,7.14362506e-03,2.02385381e-01,2.02279761e-02,-1.68145642e-01,1.76852793e-01,-9.34203267e-02,1.74634427e-01,5.53359510e-03,-1.13272786e-01,6.99276030e-02,-3.77749316e-02,1.58183614e-03,5.97460270e-02,-1.84644740e-02,8.39971751e-02,-1.23066634e-01,1.13461226e-01,-3.32836471e-02,1.62180305e-01,2.24823833e-01,-1.71339869e-01,-1.59319773e-01,8.07920024e-02,2.42151320e-01,-5.24069816e-02,2.58109868e-01,1.17473833e-01,-2.06408188e-01,-6.85672909e-02,2.02552363e-01,4.69781049e-02,1.22938819e-01,-1.16061740e-01,-3.54930073e-01,9.31685567e-02,1.11817591e-01,1.84697241e-01,-1.09418452e-01,-1.35488331e-01,-6.48887902e-02,1.00704901e-01},{-1.29483938e-01,3.64984348e-02,2.58413572e-02,-1.37192393e-02,-4.88264635e-02,-9.84940901e-02,-1.73056964e-02,-2.20504314e-01,2.13444438e-02,1.31913990e-01,-2.61314422e-01,8.84737521e-02,3.51329222e-02,2.48607039e-01,4.40928154e-02,-1.60328131e-02,-1.19903356e-01,-5.84720820e-02,-3.60058658e-02,-3.14321876e-01,1.45027101e-01,-2.05002770e-01,6.82648364e-03,1.78003699e-01,-7.22955866e-03,5.01149222e-02,1.25476614e-01,9.55206603e-02,-1.10092923e-01,1.78932905e-01,-6.43174574e-02,4.66309302e-02,1.38413720e-02,-6.71198741e-02,9.40606147e-02,1.79789945e-01,4.15563770e-02,-1.29946187e-01,2.18052119e-02,1.33641765e-01,-1.97622985e-01,-3.49855870e-02,2.22560957e-01,-3.09432775e-01,2.08279490e-01,7.62212351e-02,-1.41862258e-01,1.75652847e-01,2.04867989e-01,7.13379979e-02,-2.54501998e-01,1.71206057e-01,4.37499255e-01,-2.09953770e-01,2.45365396e-01,3.68754230e-02,-2.31556818e-02,-1.88828886e-01,-8.11769292e-02,4.49022166e-02,1.66947827e-01,3.19485478e-02,-1.80995703e-01,-1.46346092e-01},{-1.28751397e-01,4.07197187e-03,-2.38709286e-01,-7.84194563e-03,8.26056302e-03,-7.86234140e-02,7.00511634e-02,-1.96096972e-02,1.64689243e-01,2.19149530e-01,-6.93373196e-03,-1.06531411e-01,5.26312143e-02,-4.74530831e-02,3.64349157e-01,-1.84630929e-03,-2.62848914e-01,-2.31381372e-01,1.48547441e-01,-1.17027909e-01,7.34466240e-02,6.79158280e-03,-1.67828977e-01,2.17802927e-01,-3.43520164e-01,8.58854726e-02,-1.80028290e-01,-1.41798049e-01,6.59287795e-02,-1.07654102e-01,1.43145293e-01,1.54731706e-01,-4.91306074e-02,-9.50304419e-02,-4.03429605e-02,-1.88620344e-01,-5.47857396e-02,-4.29197960e-02,6.14209138e-02,5.60788363e-02,4.04364429e-03,-1.92979947e-01,3.85805257e-02,4.54303736e-05,3.03663343e-01,2.19675869e-01,-6.97898269e-02,2.48164728e-01,3.84309798e-01,7.17525631e-02,3.33915651e-02,-8.55912175e-03,1.38767743e-02,-2.86664933e-01,2.21146166e-01,1.81823641e-01,-9.39839892e-03,-1.12338856e-01,-2.98413664e-01,3.51901688e-02,3.15652609e-01,7.12214783e-02,-1.42652333e-01,-2.19485447e-01},{-1.13640018e-01,-1.23926595e-01,-9.67743546e-02,-2.10989445e-01,-7.91760802e-04,-1.24107346e-01,1.59232114e-02,3.19566160e-01,2.61806875e-01,1.90788329e-01,7.26870866e-03,1.29776657e-01,-1.63115397e-01,-6.11333624e-02,-3.20119649e-01,-7.57109746e-02,1.08075872e-01,-1.45820603e-01,1.15520075e-01,2.78623819e-01,-1.57422721e-01,1.17006868e-01,-4.31476124e-02,-1.72052756e-01,-6.82962760e-02,1.34568378e-01,1.78652883e-01,-3.79437916e-02,-1.37369826e-01,2.82930046e-01,-1.76342279e-01,-4.60507572e-02,2.47866288e-01,-5.02831787e-02,-1.89920217e-02,-1.27319202e-01,-1.91945001e-01,1.41538188e-01,7.74705491e-04,1.26319937e-04,1.07190542e-01,2.82114893e-01,-3.96036133e-02,4.30575848e-01,-1.63652748e-01,4.32163104e-02,1.29612722e-02,-2.21526310e-01,-6.16202839e-02,3.61964814e-02,2.50811905e-01,-1.96492657e-01,-3.12084645e-01,2.78026253e-01,3.14379297e-02,3.34654562e-02,-4.67005521e-02,1.06488198e-01,1.41005099e-01,-7.49500915e-02,-1.17444806e-01,6.92219436e-02,1.92886278e-01,-4.58374768e-02},{1.11475423e-01,-2.19043851e-01,-1.25562906e-01,-3.95860337e-02,-8.74620155e-02,-1.69595275e-02,1.35850340e-01,3.45445797e-02,7.47901015e-03,-7.08843069e-03,-1.24440454e-02,1.23833872e-01,1.64768621e-01,2.15076670e-01,-1.32595822e-01,1.06629655e-01,-3.41283642e-02,1.44699022e-01,-2.83435360e-02,-1.16240546e-01,-3.64728123e-02,-2.62983739e-01,-8.23613703e-02,1.98449731e-01,1.60877071e-02,1.91087902e-01,1.04877427e-01,2.37514287e-01,4.12123144e-01,5.59413619e-02,-3.63518558e-02,6.02395125e-02,-2.31007725e-01,3.75789218e-03,1.35968685e-01,3.36289443e-02,1.90437973e-01,1.42693922e-01,-7.24058151e-02,-2.00234503e-01,3.37162204e-02,1.26630843e-01,-8.67747702e-03,-1.54426321e-01,-3.55070606e-02,-1.00674428e-01,2.07576364e-01,4.81744409e-02,-1.08731106e-01,1.29426807e-01,-2.65925676e-01,5.34313135e-02,9.56547409e-02,-2.67748609e-02,-2.17213277e-02,1.17003933e-01,-1.44344032e-01,-3.65714133e-01,-2.72252768e-01,-5.41287214e-02,1.64779395e-01,-9.40412357e-02,6.27819598e-02,-1.93050299e-02},{-1.56330451e-01,-5.43670030e-03,-2.36568183e-01,-2.21856758e-01,-8.11019167e-02,1.43098593e-01,2.11453304e-01,1.09258547e-01,4.96940836e-02,-8.99644047e-02,2.52327800e-01,-1.63715482e-01,-1.27075845e-02,6.89320341e-02,-7.31059760e-02,-8.59254375e-02,2.96427488e-01,6.15787171e-02,9.11680460e-02,-5.01664504e-02,-5.76123595e-03,3.33573334e-02,-3.03851273e-02,-8.36011842e-02,2.09948525e-01,2.94528842e-01,3.61258872e-02,-1.95376977e-01,-7.82135427e-02,2.36400068e-02,-1.66867018e-01,-4.09024775e-01,2.23845780e-01,-2.77126282e-01,3.34459186e-01,-2.76437998e-01,-7.06072003e-02,-5.34627102e-02,2.41436347e-01,1.63879707e-01,-1.20789185e-01,1.52230933e-02,8.04955587e-02,1.54321745e-01,-2.67011195e-01,2.23973691e-02,-2.11366396e-02,2.76434958e-01,7.96198398e-02,1.28391072e-01,-1.86282992e-01,1.60151869e-01,6.83269203e-02,1.96330681e-01,-7.16539696e-02,-1.77361339e-01,2.19716713e-01,2.40248982e-02,-1.37451068e-01,-2.97300387e-02,1.18446477e-01,1.74196772e-02,-3.27883214e-02,-1.62037590e-03},{3.14034410e-02,-6.00139126e-02,-4.95571643e-02,-1.10262401e-01,7.80269653e-02,-8.43971372e-02,-2.07388073e-01,7.57631660e-02,-5.28510893e-03,-1.25575915e-01,7.23914709e-03,-1.41129658e-01,-8.29608552e-03,-2.37909496e-01,-7.31671005e-02,2.71395594e-01,2.80699641e-01,8.75634141e-03,1.05946548e-01,-2.22830102e-01,7.29995687e-03,1.39544353e-01,9.06492770e-02,-1.03145028e-02,3.01653206e-01,1.07614107e-01,-2.51420110e-01,-1.44697875e-01,2.06058756e-01,8.32181722e-02,-2.07841098e-01,-1.30970687e-01,4.18308191e-03,-2.80801505e-02,4.12991866e-02,1.38212312e-02,-6.72728196e-02,2.50565223e-02,3.84161264e-01,-1.53634816e-01,-7.01248795e-02,2.08361030e-01,-9.78869796e-02,2.18689263e-01,-7.94800594e-02,-1.35225826e-03,9.20850039e-02,-2.94820160e-01,1.35730520e-01,-1.83000550e-01,3.23729873e-01,-1.00861177e-01,-8.85770097e-02,1.25525624e-01,5.78520959e-03,1.33121893e-01,3.62649001e-02,7.90351480e-02,-1.60022631e-01,1.57491297e-01,-1.49127379e-01,1.02856733e-01,3.66463006e-01,-4.48728427e-02},{1.87699348e-01,5.06115593e-02,6.33869693e-02,1.83211669e-01,1.45436570e-01,-9.80926678e-02,-2.67148763e-01,2.08383836e-02,1.26446396e-01,-6.96887150e-02,-2.00290933e-01,1.85466581e-03,-1.58972472e-01,5.33511996e-01,1.39661580e-01,6.19678870e-02,-7.79560814e-03,1.58481613e-01,-1.16416281e-02,-1.44979239e-01,-8.46830830e-02,-9.28175896e-02,-1.33656681e-01,1.36275649e-01,3.98180634e-03,-2.37697482e-01,7.82708898e-02,3.52212265e-02,-2.86002964e-01,-7.75943622e-02,-5.79129942e-02,-1.41431436e-01,-1.43923357e-01,2.37436935e-01,2.28055082e-02,-7.29451999e-02,-1.04518399e-01,9.75692924e-03,-1.29636839e-01,-1.72473654e-01,6.58891425e-02,1.03144526e-01,-1.54496610e-01,-1.47684842e-01,-6.33921400e-02,-1.01720048e-02,9.15519707e-03,6.96143061e-02,8.69964343e-03,5.17738946e-02,8.61494243e-03,-5.81641197e-02,-1.53517751e-02,-7.07680583e-02,6.06241226e-02,-2.22525522e-01,1.23784140e-01,-9.12407041e-02,1.69095203e-01,1.29477724e-01,-6.92729950e-02,7.19883889e-02,-8.18535984e-02,-1.56096473e-01},{-1.12685345e-01,-5.40625528e-02,9.00871307e-02,1.51776060e-01,4.06087190e-01,-8.94105658e-02,-9.38494429e-02,-1.34774908e-01,4.06854153e-02,-1.48809925e-01,2.30233595e-01,5.02481349e-02,4.28098366e-02,-1.60298854e-01,-5.57300895e-02,3.03727333e-02,-2.04339668e-01,1.79523863e-02,2.27456063e-01,2.58537471e-01,-2.58615822e-01,1.20343074e-01,-1.57171965e-01,2.26105615e-01,2.00770780e-01,-2.29569860e-02,1.61419407e-01,-1.12720355e-01,-2.10658431e-01,2.41784766e-01,-6.44093379e-02,-1.61019444e-01,1.05805457e-01,-1.41444445e-01,-3.00355583e-01,1.50889665e-01,-1.18985459e-01,-2.22594682e-02,1.43308625e-01,-6.86404407e-02,2.33799919e-01,-2.90588737e-02,-4.96972390e-02,1.27917334e-01,-1.39530897e-01,-4.71188203e-02,6.80161715e-02,-1.09603247e-02,-7.20933825e-02,-5.11862859e-02,1.80568025e-01,1.84403792e-01,-2.90873528e-01,2.97791814e-03,1.47486046e-01,6.60192370e-02,2.83670664e-01,5.00820279e-02,1.49740547e-01,1.01105750e-01,-9.94062051e-02,-1.01742014e-01,-2.62150038e-02,-1.58500895e-01},{5.12852743e-02,-1.30246535e-01,-4.88979407e-02,-2.52233624e-01,-2.57363647e-01,1.50244474e-01,2.15697840e-01,1.19778924e-01,-2.58765727e-01,-3.05589363e-02,-1.55327290e-01,-8.39606375e-02,-3.48216712e-01,-8.37838203e-02,-8.44886526e-02,7.92014077e-02,5.20087034e-02,1.49516426e-02,-1.49858266e-01,1.93860486e-01,-9.41116065e-02,8.52164850e-02,1.23581141e-01,-4.83855382e-02,-9.52235535e-02,-7.30505493e-03,-8.35055709e-02,1.27031013e-01,6.74454421e-02,2.25870758e-02,-1.34632096e-01,-9.12080556e-02,9.84557122e-02,-1.84231028e-01,2.07967803e-01,1.21006265e-01,-1.78187564e-02,8.85672718e-02,6.82210252e-02,5.48485741e-02,1.47421345e-01,7.21231103e-02,1.65630832e-01,1.64352760e-01,1.14839129e-01,-2.21652895e-01,8.34622979e-02,-2.02221557e-01,1.73330069e-01,1.18406452e-01,1.37441056e-02,-3.06433409e-01,1.13824785e-01,-2.72734463e-01,-1.53758585e-01,-1.49256796e-01,-8.88763443e-02,-7.16677606e-02,7.81875104e-02,-1.02575660e-01,-1.23757191e-01,-4.49122787e-02,9.24035683e-02,6.97507244e-03},{1.09828115e-01,9.17426404e-03,-1.91611703e-02,-1.51174098e-01,2.13772938e-01,1.86853796e-01,1.02493852e-01,-1.03089862e-01,-4.21756595e-01,2.02143062e-02,-1.14410229e-01,1.16574459e-01,1.99148227e-02,1.75457802e-02,2.05987349e-01,3.83009613e-02,-8.46135244e-02,1.18289646e-02,-4.43957634e-02,-1.55125454e-01,1.20003566e-01,-5.64872548e-02,-1.14089726e-02,3.68154570e-02,1.50764361e-01,-1.34947777e-01,1.02098994e-01,5.53295761e-02,2.95464128e-01,1.93289053e-02,1.43727794e-01,-6.51675276e-03,9.45178866e-02,8.04873109e-02,-9.18025523e-02,6.01909310e-02,1.90569162e-01,-1.01705283e-01,8.24384205e-03,1.86614040e-02,-1.46556273e-01,-1.11541465e-01,1.49516785e-03,-1.81153208e-01,-2.20920090e-02,-2.53086925e-01,-2.05234632e-01,1.45642608e-01,-4.22279276e-02,-2.34891027e-01,-2.11132616e-01,7.18613118e-02,-7.94333369e-02,1.11209162e-01,-1.29871517e-01,-2.11644724e-01,-1.44528732e-01,5.11826016e-02,2.69442677e-01,-1.94486052e-01,-5.03632426e-03,2.33347312e-01,3.44197154e-02,-1.29387259e-01},{-2.31585845e-01,-2.73715913e-01,1.38478294e-01,-8.68092328e-02,-2.60610342e-01,3.62036228e-02,5.53842597e-02,8.83483365e-02,4.62497259e-03,2.31826097e-01,1.08407937e-01,5.55538870e-02,-2.44533527e-03,1.06929861e-01,2.87726015e-01,1.59065783e-01,5.65017760e-02,4.03182149e-01,3.19867693e-02,2.56589264e-01,1.99224595e-02,-1.25213295e-01,2.74593234e-01,-2.20743790e-01,-1.85891032e-01,2.30548680e-01,-1.37500003e-01,-8.82481262e-02,1.48349032e-01,-7.05224723e-02,1.65971309e-01,1.88208356e-01,1.02645300e-01,-1.81173101e-01,-8.72758403e-02,1.02921523e-01,2.00852349e-01,1.01165377e-01,-1.91034451e-01,-2.60690421e-01,-1.96367949e-01,1.69017781e-02,6.96647838e-02,-2.17284292e-01,-2.83906996e-01,1.01374999e-01,1.49279267e-01,3.11619211e-02,1.13754548e-01,9.37033147e-02,-5.13725169e-02,-6.73492998e-02,7.88674876e-02,-2.27799967e-01,5.66856824e-02,-2.56701466e-02,2.13072281e-02,-2.11977243e-01,1.01988457e-01,-5.66568151e-02,1.90692008e-01,5.63955568e-02,4.64523286e-02,-7.58021250e-02},{-9.98333022e-02,-7.28720799e-02,2.16585845e-01,-2.52618879e-01,-2.23358888e-02,1.34326294e-01,8.34063143e-02,-1.95181489e-01,-2.37152111e-02,-9.03154835e-02,1.76686868e-01,-3.36525261e-01,1.75573409e-01,1.59683868e-01,-8.47231522e-02,1.15665339e-01,1.45469559e-02,-1.83126107e-01,1.10448055e-01,-2.47777719e-02,1.82792395e-01,8.57621133e-02,-6.87343553e-02,-7.32454136e-02,3.52674574e-01,-3.26133706e-02,2.02795640e-01,5.20532532e-03,-1.27835900e-01,-6.59243343e-03,6.88400194e-02,-5.53148016e-02,-1.22587569e-01,1.02110505e-01,1.63733467e-01,-1.06390566e-01,-2.64461547e-01,-1.45578474e-01,-7.70069379e-03,-1.92025691e-01,-9.28350016e-02,2.65909303e-02,5.43433912e-02,4.25217777e-01,-2.52730906e-01,3.08215916e-01,-8.01917166e-02,-1.74162075e-01,-5.61629832e-02,-2.60922611e-01,2.48885304e-01,1.56277850e-01,5.75897321e-02,1.46030560e-01,-1.69730097e-01,3.59244011e-02,3.36560793e-02,1.59879606e-02,-1.27918078e-02,4.42615338e-02,-2.46422905e-02,-1.58310130e-01,9.69423801e-02,8.39744210e-02},{-9.66423303e-02,1.26538858e-01,1.84282139e-01,5.88116981e-02,-2.45024245e-02,1.57758087e-01,-1.74084142e-01,-6.05836324e-02,1.75553430e-02,1.94988534e-01,3.36096406e-01,3.55452974e-03,-2.55221445e-02,-1.55854821e-01,3.81481112e-03,-6.70940876e-02,1.32480916e-02,7.68515002e-03,5.45622669e-02,1.16128743e-01,6.95879087e-02,-1.66205376e-01,1.48043633e-01,-4.08921778e-01,2.86388304e-02,-1.19279735e-01,3.41238588e-01,6.56477734e-02,-7.92617649e-02,-2.51273751e-01,8.96877199e-02,-2.47870192e-01,2.49032285e-02,2.49305353e-01,1.63633794e-01,3.81958410e-02,1.51010007e-01,-1.15675427e-01,-1.32294610e-01,3.55747007e-02,1.32339105e-01,-1.45454645e-01,5.43580353e-02,2.26881579e-02,-4.78375368e-02,4.69430387e-02,1.21557467e-01,2.05093756e-01,-1.51056990e-01,1.70074433e-01,-5.72016612e-02,-1.44988239e-01,7.39753097e-02,9.82400402e-02,-2.58216131e-02,1.76680218e-02,6.89823255e-02,1.34853497e-01,-6.77651390e-02,1.13371722e-01,-1.22008823e-01,6.98911175e-02,-6.54546767e-02,1.47830427e-03},{-2.04045504e-01,2.40373388e-01,-1.98035091e-01,1.59400865e-01,-1.01270959e-01,-1.12175094e-02,5.32284901e-02,-4.08567190e-02,-6.34527802e-02,-7.85210878e-02,-1.97120264e-01,-1.80978939e-01,2.61296891e-02,1.84795618e-01,-1.82170525e-01,-2.06330761e-01,-1.18291706e-01,2.07094505e-01,-1.24631055e-01,-7.89553917e-04,2.01525129e-02,-1.69206634e-01,-1.22674793e-01,-1.32171782e-02,-1.67518593e-02,-1.24842785e-01,-3.88998259e-03,4.27456088e-02,-1.01091787e-01,-1.14122137e-01,1.02636650e-01,-1.43675879e-01,-5.73653216e-03,1.57625437e-01,5.81841767e-02,-1.05034858e-02,-1.13540731e-01,-7.16739967e-02,-2.38764793e-01,-1.02517404e-01,1.99465081e-02,-3.05890113e-01,-1.88485067e-02,-5.14397800e-01,6.41076863e-02,-1.63249783e-02,-2.65317094e-02,9.67840478e-02,-7.56938159e-02,3.04740686e-02,-2.69729584e-01,1.88469410e-01,1.78759247e-01,-1.47157997e-01,1.74645111e-02,-1.97327390e-01,-1.45331118e-02,4.98371944e-02,-2.02219903e-01,-1.05188124e-01,-7.31790513e-02,-1.99293509e-01,-6.20465865e-03,8.68955106e-02},{-2.58059502e-01,2.41047908e-02,-1.10763468e-01,-1.36064161e-02,-1.06599927e-01,-3.21516305e-01,4.88383882e-02,-9.77689251e-02,-1.45557657e-01,-1.33995503e-01,7.46605173e-02,3.10421109e-01,-8.08899626e-02,2.49776021e-01,8.68651494e-02,4.55732942e-02,1.03362329e-01,8.85860398e-02,-8.14398825e-02,-2.58811891e-01,-6.41423836e-02,-4.22888659e-02,7.15891868e-02,9.25745666e-02,-6.26619831e-02,1.69874638e-01,-2.85235941e-01,-2.05921561e-01,2.55115092e-01,9.83781815e-02,1.40291825e-02,3.48077230e-02,-2.00382750e-02,-1.80127934e-01,-1.31060019e-01,-6.13895953e-02,1.22044876e-01,1.07353017e-01,-4.65263650e-02,-1.74988117e-02,-3.25096965e-01,9.41712335e-02,1.44334853e-01,-2.09942311e-01,-7.93868601e-02,-3.39392107e-03,1.57939225e-01,1.52668893e-01,-1.33841470e-01,-1.16568096e-01,-3.16429660e-02,-1.35199904e-01,2.27680326e-01,-2.41624769e-02,-4.25222330e-02,-1.21765412e-01,-9.66866910e-02,-1.58909276e-01,-1.64713576e-01,-3.19937617e-01,2.28310823e-01,2.27788031e-01,1.70292839e-01,-8.47961754e-02},{1.94748491e-01,1.63440600e-01,-7.55855963e-02,1.72516495e-01,4.02930081e-02,9.10331532e-02,-1.74194783e-01,9.19042975e-02,-6.02545738e-02,-6.41980767e-02,-1.76335145e-02,2.47446857e-02,-3.51781510e-02,-1.63015738e-01,-1.31665498e-01,-9.95846242e-02,5.90420850e-02,-9.24243927e-02,-4.22471799e-02,-4.53153588e-02,1.13020673e-01,-9.26650763e-02,1.94870561e-01,-1.60450302e-02,-2.73683965e-01,-7.16449544e-02,3.20317671e-02,2.02649623e-01,-5.12557514e-02,-2.10452944e-01,2.12043852e-01,-2.24742308e-01,4.10187840e-02,-1.78616010e-02,2.45399877e-01,2.32480895e-02,-2.68098056e-01,-1.20250387e-02,-1.18958302e-01,2.14554638e-01,-2.29639530e-01,-2.48446316e-01,1.52070537e-01,7.48191327e-02,1.11005425e-01,8.31374452e-02,-9.67982858e-02,3.13014351e-02,-6.60304204e-02,6.02138489e-02,-6.21928573e-02,1.71259314e-01,9.15123075e-02,-1.94987074e-01,-6.73240870e-02,-2.96645433e-01,-1.06603101e-01,9.99813080e-02,-7.37378523e-02,-1.21492937e-01,-2.47475073e-01,-9.54382867e-03,1.14412904e-01,4.12192307e-02},{-8.86408538e-02,-1.46235898e-01,1.24915943e-01,-2.43037976e-02,-8.41476768e-02,-8.42253268e-02,-1.25297472e-01,-5.36564663e-02,1.17588364e-01,-2.33101666e-01,-1.30659893e-01,-9.14181322e-02,-2.39053115e-01,-1.17410012e-01,1.62600219e-01,2.04260796e-01,1.29773393e-01,2.40928262e-01,2.64177471e-02,2.09108800e-01,-8.77326280e-02,-1.91613972e-01,1.47808746e-01,3.48502435e-02,2.18943372e-01,-1.07025519e-01,-9.09591913e-02,-2.50061661e-01,8.11267942e-02,1.20233275e-01,1.68749616e-01,1.60982221e-01,-1.11029118e-01,1.07543446e-01,-8.90238956e-03,-3.42791587e-01,-1.24217063e-01,-8.94431621e-02,8.69594961e-02,-1.69427082e-01,-8.97720307e-02,1.11549988e-01,-6.57993332e-02,-1.48213968e-01,2.01990865e-02,-9.57465079e-03,-1.35625288e-01,7.36714900e-02,2.73316383e-01,-4.36211824e-02,-1.98435038e-02,-3.73195820e-02,7.56613985e-02,-2.12781563e-01,1.66157752e-01,-6.34884760e-02,2.34182060e-01,-1.58826068e-01,-2.85477817e-01,6.41517118e-02,6.36259392e-02,1.62643760e-01,-1.08882867e-01,-1.94496483e-01},{-2.94128209e-01,-1.98692046e-02,-1.96219385e-01,-5.76053234e-03,-1.60315678e-01,-2.85763294e-02,1.12819269e-01,2.04117689e-03,2.52769012e-02,-8.40560719e-02,-3.31682980e-01,4.26977165e-02,-6.99228495e-02,1.98632315e-01,1.20522060e-01,-5.21201640e-02,5.38631640e-02,2.20664218e-01,-2.39435658e-01,4.36411658e-03,2.50295103e-01,-2.81848852e-02,1.56293362e-01,3.16871464e-01,4.26200777e-03,-1.19871169e-01,1.85040966e-01,-1.12057656e-01,4.10825238e-02,-2.53983706e-01,-1.36777041e-02,2.71336781e-03,-8.19915012e-02,2.18708232e-01,-1.69128412e-04,-1.90491498e-01,8.92635956e-02,3.70388925e-02,7.89991990e-02,-1.20029941e-01,-6.90986812e-02,-1.62239999e-01,3.03533468e-02,-4.28374857e-01,-6.85632154e-02,1.09426305e-01,-2.10900724e-01,3.19114864e-01,1.93910897e-01,5.70400581e-02,1.10040540e-02,-5.19991256e-02,2.48221532e-01,-6.93763793e-02,-6.39656745e-03,-1.63778886e-01,-1.80709362e-01,-8.80610477e-03,-2.30615407e-01,8.49653035e-02,-6.45455113e-03,-1.20020941e-01,9.69319940e-02,-1.48087651e-01},{-2.51844525e-01,1.20949991e-01,-2.67290562e-01,1.46265954e-01,-1.14916757e-01,-1.74071509e-02,1.13759734e-01,1.68678701e-01,2.37839773e-01,-2.17202026e-03,-8.61507282e-02,-9.12212282e-02,-3.70969385e-01,3.15718837e-02,-2.34793574e-01,4.29648235e-02,6.96971416e-02,-9.45692062e-02,-1.77750159e-02,-2.58330047e-01,9.62874517e-02,6.49696263e-03,3.16921286e-02,-6.51016086e-02,-2.02744111e-01,6.13572598e-02,1.12061121e-01,8.17579404e-02,-2.07044557e-01,-1.92693211e-02,-1.94310322e-01,3.58978137e-02,-4.31715436e-02,2.67680623e-02,1.22967243e-01,-2.70737261e-01,4.41832058e-02,-1.07154027e-01,-2.54813790e-01,3.75209865e-03,8.18276927e-02,1.61270872e-01,-1.31416976e-01,5.20010740e-02,8.71088356e-02,-1.50483876e-01,-1.13343097e-01,-3.19383815e-02,-2.85256784e-02,-9.78067741e-02,8.02467614e-02,-3.92066836e-01,-8.28036815e-02,5.13264127e-02,-3.28775309e-02,7.39586428e-02,-8.10841247e-02,6.05311766e-02,1.65168330e-01,5.67290895e-02,-1.53779849e-01,-2.96859533e-01,-1.73084557e-01,1.94886606e-02},{1.46101624e-01,6.21260004e-03,-1.82650182e-02,-5.78015074e-02,-1.93489492e-01,2.77414411e-01,9.89902951e-03,2.33623356e-01,-1.48261920e-01,1.02843508e-01,2.05784589e-01,-2.46130279e-03,6.38872981e-02,-2.51647502e-01,3.92912440e-02,-2.17466220e-01,-3.61567065e-02,-1.87365755e-01,1.23723567e-01,3.20031680e-02,-9.65927839e-02,-1.27058998e-01,-6.90596700e-02,-7.07360953e-02,8.97770077e-02,5.22447936e-03,-1.62337884e-01,-2.09597036e-01,8.83989222e-03,1.48116931e-01,2.69490272e-01,2.56802320e-01,-1.18771441e-01,1.69781387e-01,-1.59117803e-01,-4.09238972e-02,-1.33170769e-01,1.17542088e-01,3.73145975e-02,-2.50640005e-01,2.50276715e-01,-7.20365644e-02,-1.94431141e-01,-6.10227622e-02,-1.22830510e-01,1.23727657e-01,-3.59908678e-03,-5.45030311e-02,1.48851529e-01,5.66014834e-02,-1.88117817e-01,-2.40904279e-02,1.66180044e-01,4.82632443e-02,-1.04323730e-01,6.52191520e-04,-9.58549306e-02,-1.59306213e-01,-2.93699443e-01,-3.86627652e-02,1.56973898e-01,1.31763294e-01,2.25805819e-01,-1.23106651e-01},{6.70610219e-02,2.37572238e-01,-1.46654636e-01,-9.89180803e-02,1.57982167e-02,-4.36478704e-02,1.07257374e-01,-3.20147485e-01,-1.38750955e-01,3.75938579e-03,-1.18696094e-01,-2.84425199e-01,-4.85713184e-02,8.67067203e-02,-2.01265235e-03,2.94667594e-02,-1.22879827e-02,1.82041526e-01,-1.08818740e-01,-1.57314092e-01,-2.77176518e-02,-3.77820581e-01,-1.26591036e-02,1.59009114e-01,-3.20603065e-02,-1.46525383e-01,-2.66346127e-01,-7.57893026e-02,1.58529654e-01,-5.75864911e-02,-1.14189908e-01,-4.29226160e-02,-9.91540700e-02,8.78996477e-02,-9.87024307e-02,2.09049255e-01,6.18253537e-02,1.89202830e-01,1.67767555e-01,-8.29750970e-02,-1.62745006e-02,2.00409405e-02,9.83370245e-02,-3.00018311e-01,4.28991288e-01,-4.58038561e-02,2.47055411e-01,1.33131146e-01,1.85925290e-01,1.47494003e-01,3.39864083e-02,7.41433650e-02,7.01068118e-02,-3.82447064e-01,7.35175088e-02,2.93649971e-01,-3.80631462e-02,-4.93260697e-02,-1.51677385e-01,6.59660473e-02,1.00707382e-01,1.08327884e-02,4.09374200e-02,-5.20485938e-02},{8.99078250e-02,-7.41054043e-02,2.85687774e-01,1.33041531e-01,-8.71679336e-02,-2.39880532e-01,1.67402031e-03,-1.90648902e-02,1.13737397e-01,-5.79045713e-02,8.41992050e-02,7.26642758e-02,1.75422713e-01,-1.93989705e-02,-1.84314221e-01,1.55310020e-01,1.86385738e-03,1.10555477e-01,-1.49819240e-01,1.97548553e-01,-6.63479567e-02,-2.78089553e-01,-1.02416128e-01,1.03325136e-01,1.45969883e-01,-5.52368835e-02,7.39032701e-02,1.85112759e-01,-7.55256414e-02,1.39403746e-01,1.77518070e-01,4.66679752e-01,-1.33716851e-01,1.06419712e-01,-8.47735554e-02,1.70353636e-01,-6.19550934e-03,3.51782590e-02,2.35589817e-02,2.28498392e-02,-1.34740099e-01,6.83978945e-02,-3.82654965e-01,-2.29724824e-01,3.33819613e-02,4.14020091e-01,-1.07784294e-01,-1.56873036e-02,-1.54555459e-02,6.04639538e-02,-1.42614171e-01,-9.70823411e-03,2.68943518e-01,1.42750397e-01,2.16239481e-03,-2.01169983e-01,-4.79736216e-02,-1.34091556e-01,-2.08091885e-02,-1.20763607e-01,2.22974584e-01,1.80014223e-01,7.23807961e-02,-2.48852015e-01},{1.01476815e-02,4.36585061e-02,2.97503799e-01,3.54967892e-01,-4.20881957e-02,-2.49618337e-01,2.58668333e-01,4.47451174e-02,-8.57819468e-02,2.28828013e-01,-1.62773907e-01,1.06791899e-01,-1.21774375e-01,-4.30687778e-02,1.16768114e-01,1.17250375e-01,1.16645686e-01,-9.64133143e-02,-6.37686029e-02,-1.78167801e-02,1.03530571e-01,1.07246088e-02,-6.16227016e-02,4.99449261e-02,-2.51794189e-01,1.12539783e-01,-4.73549329e-02,-3.66453938e-02,4.53583971e-02,7.82323927e-02,-3.87748331e-02,-1.49888426e-01,-1.85124487e-01,7.25774048e-03,-2.81046152e-01,5.94161414e-02,8.65798164e-03,-2.25417823e-01,5.10100350e-02,-3.85760888e-02,1.73926100e-01,9.89514068e-02,-1.35521546e-01,4.70912717e-02,3.58886831e-02,-2.18824297e-02,-1.45910710e-01,2.45796740e-01,2.58368161e-02,1.83051024e-02,-2.32995570e-01,1.07939161e-01,2.66334236e-01,5.53324707e-02,-2.75091231e-02,-1.39551342e-01,-1.20307468e-01,-1.64532259e-01,-1.06497176e-01,-1.26041397e-01,2.25254938e-01,1.07134603e-01,-1.56338975e-01,-3.34454983e-01},{-9.53542888e-02,-5.81761589e-03,-1.92395285e-01,-7.67115727e-02,2.69959588e-02,-1.68912783e-01,1.47878096e-01,-7.61707574e-02,-1.51542677e-02,9.20244865e-03,1.56688660e-01,-8.59009102e-02,-1.62669614e-01,3.15236226e-02,3.92069034e-02,3.40591744e-02,4.66547981e-02,-8.41976106e-02,6.88540936e-02,2.34376155e-02,-1.76108807e-01,2.36636117e-01,1.99217260e-01,2.82697737e-01,-2.41927728e-02,2.02149019e-01,-3.62298042e-01,-1.08682878e-01,4.03706580e-02,4.49633598e-02,-2.23382935e-02,-8.09009671e-02,2.93000609e-01,8.62665102e-02,7.21502975e-02,-3.45225781e-02,-4.08119559e-02,2.53359914e-01,1.08430684e-01,-9.70568731e-02,-1.82975739e-01,-6.26979303e-03,1.85153440e-01,-3.38159949e-01,3.48265231e-01,-7.03214016e-03,3.63074429e-02,2.51223482e-02,-1.73929915e-01,1.62747249e-01,-3.88628454e-03,2.36048661e-02,-1.13701761e-01,-1.73449054e-01,-8.18879604e-02,-3.26765507e-01,-8.98726881e-02,-6.19860180e-02,-2.00371463e-02,-1.36924490e-01,1.85052067e-01,6.99956566e-02,3.86028588e-02,1.16228007e-01},{1.54284881e-02,-6.88983798e-02,2.79161811e-01,1.89944372e-01,-3.65386367e-01,-2.92694028e-02,5.93290590e-02,7.47017935e-02,1.41519353e-01,-1.64184704e-01,-2.24546958e-02,-6.22444637e-02,1.59666076e-01,-5.18994555e-02,-3.34926159e-03,8.88479501e-02,9.87865124e-03,3.26721519e-02,-7.89280236e-02,-5.85093945e-02,1.80833250e-01,6.60311952e-02,1.43310770e-01,-6.18208870e-02,-2.29715537e-02,4.05421704e-01,-2.08034277e-01,-2.17067659e-01,-2.09085699e-02,1.01793118e-01,6.05610609e-02,1.14538826e-01,-2.30574280e-01,-5.26398160e-02,3.94918263e-01,1.09611899e-01,8.36741403e-02,4.93315272e-02,-8.23284835e-02,-2.98385143e-01,2.70182751e-02,4.50584665e-02,2.98491400e-02,-1.93233445e-01,8.39512870e-02,9.94345024e-02,6.53199926e-02,5.87271266e-02,-6.43190145e-02,3.01943067e-02,-1.05587006e-01,-1.04395263e-01,1.51481956e-01,-1.74355153e-02,-3.69153582e-02,1.91286340e-01,-1.39529526e-01,-1.03923216e-01,-2.43250668e-01,-7.33486190e-02,-5.50556630e-02,2.29834206e-03,1.02035373e-01,1.10721298e-01},{-1.79306149e-01,-2.78115626e-02,-3.93392630e-02,1.42782211e-01,1.15233138e-01,2.31766365e-02,7.97945857e-02,2.31285810e-01,7.45394751e-02,1.51666760e-01,-7.39253238e-02,2.02625841e-01,2.75504231e-01,-1.29169136e-01,3.01024020e-01,2.80565500e-01,1.08841518e-02,-1.84651941e-01,-2.44300112e-01,-1.50310740e-01,2.43833676e-01,-3.71178724e-02,1.48501560e-01,7.86879212e-02,-1.06983483e-01,2.00185347e-02,-1.64708808e-01,2.56949723e-01,-1.42771035e-01,1.69710487e-01,-1.43747002e-01,8.07187557e-02,-1.29942790e-01,1.44345999e-01,-3.23616862e-02,2.16232780e-02,-1.88484266e-01,-1.48280054e-01,3.97511572e-02,1.63637951e-01,4.32787426e-02,-7.96481520e-02,5.33619523e-02,-1.20690651e-01,1.73830017e-01,1.37827620e-01,-3.72632861e-01,1.18946530e-01,-2.32911967e-02,-1.48647696e-01,-2.02340439e-01,-1.36194065e-01,1.10182650e-02,5.00924662e-02,-5.22806570e-02,-1.96665451e-02,-2.79613346e-01,-2.16598362e-01,3.95955928e-02,2.24905834e-02,3.74628603e-02,-7.89734796e-02,8.73943940e-02,-1.48660481e-01},{3.55149293e-03,-9.74755064e-02,8.23875070e-02,4.28758226e-02,-1.60846971e-02,1.08774185e-01,-1.66755859e-02,-8.16670880e-02,-1.50414109e-01,-4.06952314e-02,1.00479764e-03,3.98596041e-02,7.33595863e-02,2.41463184e-01,3.18082154e-01,-1.01774246e-01,-3.62328798e-01,-2.04978958e-01,-1.83668405e-01,1.26651466e-01,6.68198988e-02,2.55574398e-02,2.76436180e-01,-2.78724730e-01,-1.68383837e-01,-2.77124643e-01,-9.77976248e-03,3.26658562e-02,-1.97353605e-02,-8.45240727e-02,-8.78427699e-02,-6.46712482e-02,-2.00253010e-01,-1.93483815e-01,1.24016874e-01,2.13969842e-01,-1.21095389e-01,1.26832843e-01,-9.73626822e-02,-1.03273027e-01,-1.42072320e-01,1.52688742e-01,1.79521680e-01,-3.46273780e-02,1.99602261e-01,-1.79838195e-01,9.38252211e-02,-1.00141324e-01,-3.09731811e-02,9.69077572e-02,-4.25535701e-02,-6.29139096e-02,2.22118631e-01,-8.71468857e-02,9.41465795e-02,2.23985258e-02,6.90770522e-02,-3.19540910e-02,-5.14484607e-02,-3.37142766e-01,-2.54142493e-01,1.57834850e-02,-2.54637539e-01,-1.31318271e-01},{1.75060257e-01,5.80957569e-02,-3.56202051e-02,-1.08612284e-01,-1.93201527e-01,-2.19312623e-01,-1.15127474e-01,-2.82190368e-02,1.27410740e-01,2.18056098e-01,2.26032846e-02,9.59509909e-02,-8.55271742e-02,3.31993401e-01,2.38485098e-01,1.39002040e-01,7.84906670e-02,-2.28932574e-02,3.39981839e-02,1.68199148e-02,1.40266433e-01,-5.56824021e-02,-7.58287162e-02,1.60029218e-01,2.74619162e-01,-1.41759561e-02,1.66935474e-01,5.73989227e-02,-1.35387123e-01,2.60921624e-02,6.34743925e-03,3.43011081e-01,-1.24512061e-01,1.35248706e-01,1.08385831e-01,-8.23455602e-02,1.86969265e-02,2.53458709e-01,7.74516985e-02,-1.79714769e-01,1.26081094e-01,-6.20736815e-02,5.88213429e-02,-4.34703410e-01,2.08425373e-01,4.02187333e-02,-7.15801343e-02,-7.30615621e-03,-1.61601260e-01,1.78901345e-01,8.91169235e-02,1.87120646e-01,4.72116061e-02,-1.64478704e-01,1.77547216e-01,-2.42739111e-01,-1.48291960e-01,-6.64358512e-02,8.02244544e-02,-2.45613828e-01,4.57327440e-02,1.85897440e-01,7.43163228e-02,-8.21936280e-02},{-1.33264169e-01,1.47514254e-01,3.83443952e-01,-5.36038876e-02,-5.46040423e-02,-7.95924142e-02,-1.71450436e-01,-1.33175194e-01,7.11934343e-02,1.08105607e-01,2.81143218e-01,-3.19641471e-01,2.60315001e-01,-2.08489120e-01,-7.92148337e-03,3.43053043e-03,7.70614743e-02,-1.70423344e-01,4.41341922e-02,1.31233886e-01,2.64233112e-01,-1.56226099e-01,-2.36128390e-01,-7.76634142e-02,-8.84516612e-02,4.96097542e-02,5.12779020e-02,-7.16005936e-02,-1.26441985e-01,7.17918575e-03,-5.36157228e-02,-1.22830123e-01,2.90021926e-01,-2.11592391e-01,-7.68615007e-02,8.18957463e-02,-2.02451915e-01,-1.08464837e-01,-2.43391488e-02,1.11523472e-01,2.81018065e-03,-1.01975985e-01,-1.95823926e-02,8.43465999e-02,-1.13516688e-01,-1.41347982e-02,6.78440630e-02,-6.59211725e-02,1.46487325e-01,1.44569697e-02,-1.44718081e-01,-6.59656301e-02,-1.12817578e-01,1.48006633e-01,-6.86277896e-02,-1.73437610e-01,8.16973522e-02,2.61811674e-01,1.22444272e-01,1.20703354e-02,3.12556338e-04,1.78016216e-01,-4.08666097e-02,2.20292937e-02},{2.88122129e-02,-7.26712868e-02,-3.63518387e-01,1.10971548e-01,4.51908372e-02,1.61533520e-01,-9.71985210e-05,8.85514244e-02,1.87378958e-01,2.13537768e-01,-6.26136959e-02,-1.02584779e-01,9.32299346e-02,-2.20143005e-01,1.91316791e-02,-5.95840663e-02,1.53749913e-01,-2.97758933e-02,1.31038994e-01,-4.72322367e-02,4.46036272e-02,-1.45310257e-02,-7.66859204e-03,4.20513898e-02,8.45507979e-02,9.23604369e-02,-1.63056955e-01,2.50805885e-01,-8.98400620e-02,4.14844789e-02,-6.15707338e-02,-1.43015403e-02,2.95693278e-01,8.74409825e-02,4.12637293e-02,-4.68059964e-02,4.79261614e-02,-8.98364037e-02,-1.62274748e-01,8.48505795e-02,2.90592730e-01,-5.59342057e-02,-2.34084819e-02,1.13543428e-01,2.39351526e-01,-1.63649395e-01,2.35510692e-02,2.74235040e-01,-2.08836958e-01,-3.72883342e-02,9.71044376e-02,-1.25672445e-01,5.41328155e-02,-2.15157829e-02,2.41247145e-03,1.34567782e-01,4.31533083e-02,4.39594030e-01,9.72417090e-03,-1.68105602e-01,1.39821786e-02,-1.45495813e-02,2.39623357e-02,1.52105331e-01},{1.39561161e-01,-4.29053679e-02,-3.36138211e-04,-1.59632072e-01,1.14338458e-01,3.13613452e-02,-1.39335766e-01,2.14389786e-01,-2.15376560e-02,4.61429507e-02,3.97850126e-02,-1.65892448e-02,1.40018761e-01,4.53960709e-02,-4.84778285e-02,-5.08684199e-03,4.16189224e-01,1.68535709e-01,6.00265227e-02,-1.58272505e-01,-9.61670559e-03,4.49549377e-01,5.35347685e-02,1.28253847e-01,-3.89346853e-02,3.63975093e-02,-5.40209096e-03,2.32085109e-01,-4.31172326e-02,2.38585081e-02,-1.40294179e-01,-7.21137524e-02,1.05567619e-01,-9.84248146e-02,-1.45635679e-02,6.42231628e-02,-6.27468377e-02,-2.13005334e-01,4.80794460e-02,1.96829081e-01,9.81550068e-02,1.12175658e-01,-1.06098011e-01,2.68417478e-01,-3.55605721e-01,2.09456816e-01,-6.02001734e-02,-2.33187377e-01,6.01443388e-02,-1.07690066e-01,2.14223295e-01,-2.15949148e-01,-1.77075580e-01,1.53883696e-01,8.45767856e-02,1.33035600e-01,2.59461850e-01,-1.32149637e-01,5.15598536e-01,-1.12626575e-01,1.77280098e-01,4.63206023e-02,2.41763026e-01,1.49139702e-01},{2.12782212e-02,-9.13916454e-02,-1.63144529e-01,-9.03507322e-02,-3.26219499e-02,1.81145623e-01,3.51597041e-01,-1.54411182e-01,-1.22211389e-01,8.22235197e-02,-2.30692282e-01,3.09994310e-01,-2.76833564e-01,8.41147359e-03,1.30373508e-01,-1.87955350e-01,-1.37066469e-01,8.12564418e-02,-1.60742432e-01,-1.41969383e-01,-4.89716679e-02,4.48245890e-02,8.48663822e-02,7.15347901e-02,8.01385008e-03,3.27636272e-01,-1.90907240e-01,-3.23321939e-01,2.59817630e-01,5.98910339e-02,3.82351130e-02,4.27432843e-02,-5.72032183e-02,1.79689690e-01,-1.91489443e-01,-2.29473338e-01,2.91856468e-01,-1.81890279e-01,1.82413474e-01,-2.56788701e-01,-1.35686487e-01,-1.51640121e-02,-2.97411624e-02,-2.63424486e-01,1.29531085e-01,-1.70603022e-02,9.24793109e-02,2.56551027e-01,8.55968222e-02,1.19103059e-01,-1.12640455e-01,-4.89873886e-02,1.97206944e-01,3.34868021e-02,6.09028116e-02,1.71866357e-01,-3.21112305e-01,1.15366817e-01,2.94465590e-02,-2.55638629e-01,2.70748764e-01,1.17997840e-01,-1.42114550e-01,-4.27796729e-02},{-1.41686752e-01,1.38878167e-01,1.09769329e-01,-2.08357513e-01,-1.03960615e-02,-1.45793810e-01,-1.52348936e-01,2.20451638e-01,1.07415520e-01,5.59006147e-02,-1.57691672e-01,1.37589082e-01,-8.67656097e-02,-1.86183393e-01,2.51752049e-01,-5.43375388e-02,1.10791579e-01,4.70179878e-02,-7.34296739e-02,-2.23527521e-01,1.09908022e-01,1.38337672e-01,1.12916291e-01,1.03805408e-01,-1.40341237e-01,1.51425945e-02,1.64068550e-01,3.02658556e-03,-6.16728924e-02,1.06468070e-02,6.04769364e-02,-1.19589277e-01,-2.11379677e-01,-5.90099171e-02,-1.52471855e-01,4.15739454e-02,-2.30114814e-02,-1.19506173e-01,1.32138640e-01,-1.56351656e-01,1.32871315e-01,9.95112807e-02,-3.79228562e-01,2.43124321e-01,-2.38954037e-01,1.04639433e-01,2.85939649e-02,1.03532886e-02,-2.02662423e-02,-1.24657806e-02,1.85809448e-01,3.83615084e-02,-1.44271180e-01,5.54394908e-02,-1.38910845e-01,-2.91846832e-03,-1.45647883e-01,-1.77581027e-01,6.30830601e-02,1.41270831e-01,-2.13743001e-01,-1.67618915e-02,1.58995062e-01,4.52933311e-02},{-6.04420416e-02,-3.71094644e-02,2.20187917e-01,1.05734177e-01,4.33759615e-02,-1.22410432e-01,-3.17522213e-02,-9.31844935e-02,2.81685032e-02,-1.21840462e-03,-3.60580385e-02,6.16758168e-02,1.05640301e-02,1.90447271e-02,1.19490251e-02,1.52808577e-01,-9.65524316e-02,-1.35376975e-01,1.96613088e-01,1.73430726e-01,-3.78694236e-02,-1.62046060e-01,-1.19125500e-01,-1.02283478e-01,2.66751379e-01,-3.51185575e-02,-1.05658434e-01,-1.29649401e-01,-1.22653574e-01,-1.18042439e-01,2.35278476e-02,-2.40083709e-01,7.06863254e-02,1.03284270e-01,2.68217549e-02,4.67802510e-02,2.88639158e-01,-7.98244104e-02,7.94056132e-02,4.35003899e-02,4.07936782e-01,-8.70230980e-03,7.97618553e-02,2.97326773e-01,-2.66624372e-02,7.43237734e-02,-1.81056838e-02,3.45867686e-02,-1.62662297e-01,-1.37938127e-01,2.11230710e-01,2.04012826e-01,3.21047977e-02,1.80149868e-01,-9.03547630e-02,-1.45239085e-01,1.75350934e-01,1.48859188e-01,-2.31843129e-01,-1.06913552e-01,-2.50505321e-02,-2.69078404e-01,1.52781233e-01,-1.83058474e-02},{8.12363178e-02,2.38282934e-01,-2.45438833e-02,9.00487006e-02,9.64522213e-02,2.58915365e-01,1.70486420e-01,4.52060290e-02,1.01332605e-01,-1.36497766e-01,1.05732299e-01,3.67959961e-02,-1.30378932e-01,1.59852222e-01,-2.56663039e-02,-6.58366457e-02,-4.10085544e-02,5.35252765e-02,1.69160798e-01,2.31364314e-02,-3.50439459e-01,-6.40701130e-02,-5.05123883e-02,1.21277027e-01,3.64947803e-02,-1.02305152e-01,2.14317068e-01,-1.26493260e-01,8.44399408e-02,-4.34821658e-02,-1.62460640e-01,-1.85254678e-01,3.96242738e-01,-1.83727607e-01,7.73857394e-03,2.57171057e-02,-2.29743794e-01,-8.69497061e-02,2.00882882e-01,-1.78539641e-02,1.01197593e-01,-8.07336569e-02,1.28769964e-01,-2.70286143e-01,1.47317469e-01,-8.97283182e-02,-5.40107675e-02,9.95661318e-02,-1.53089508e-01,-5.21579906e-02,2.18076780e-01,5.67092188e-02,-3.53785679e-02,-5.90300150e-02,9.84485671e-02,-1.47376312e-02,2.64693022e-01,3.60667706e-01,-1.20117195e-01,-1.05988815e-01,1.04188465e-01,1.08638033e-01,3.00649971e-01,1.69954568e-01},{-7.12141916e-02,7.23976940e-02,2.81163126e-01,1.38218954e-01,-1.52544871e-01,-5.34818843e-02,-3.32932919e-02,-1.27152875e-01,-1.63457468e-01,-2.70238128e-02,-1.55960932e-01,1.26614586e-01,1.58157796e-01,1.22366235e-01,1.94787696e-01,-2.44019374e-01,-6.65350817e-03,1.32105500e-01,6.97383732e-02,-9.23667662e-03,2.97820687e-01,2.84956813e-01,-1.16835639e-01,-1.04345649e-01,-2.54094362e-01,2.14483347e-02,8.45030025e-02,3.22619766e-01,-1.36471428e-02,-3.89612503e-02,2.55706869e-02,-4.95326659e-03,-2.42415801e-01,-1.46394953e-01,2.37014219e-02,-8.74879118e-03,-4.28454205e-02,1.84525058e-01,-7.34030455e-02,-1.51262492e-01,1.40468135e-01,4.40619998e-02,-6.10911138e-02,2.22377270e-01,-2.25227386e-01,-5.95435351e-02,7.99076036e-02,1.01764478e-01,-1.80525318e-01,5.96330129e-02,-1.54612049e-01,-1.27777502e-01,-8.26881230e-02,2.60542147e-02,2.12572273e-02,1.63481668e-01,1.91416189e-01,1.89002007e-02,7.56410733e-02,3.00468467e-02,-1.60655022e-01,-3.23334187e-02,-6.63422197e-02,-7.61915464e-03},{-1.25712916e-01,-6.61219284e-02,-3.15509923e-02,1.44367680e-01,-2.78073967e-01,-4.67569530e-02,7.89513215e-02,-1.56402856e-01,2.56023481e-02,-3.03871185e-02,3.46341506e-02,-1.49120733e-01,5.09069562e-02,-5.60337268e-02,-1.14392594e-01,-1.22837268e-01,-1.83322340e-01,-4.65783894e-01,-9.28759202e-02,2.73638070e-01,1.42518878e-01,-1.25129223e-01,-6.06673816e-03,8.60514939e-02,-9.46409106e-02,-8.65617171e-02,-7.49058127e-02,2.78596636e-02,-1.03449658e-01,1.61853567e-01,2.59957194e-01,-5.64591326e-02,-1.91345572e-01,1.85595870e-01,-1.96938198e-02,2.01639146e-01,5.92815615e-02,1.80931464e-01,8.72401372e-02,1.65110663e-01,2.17795949e-02,1.34799778e-01,3.40458788e-02,-4.35047299e-02,-8.90606269e-03,5.75711094e-02,-2.08537169e-02,-5.05087934e-02,-1.87888980e-01,2.09450290e-01,-2.72323966e-01,1.18568055e-02,-6.87606782e-02,-3.54522288e-01,-2.50727713e-01,1.10568199e-03,-5.37718683e-02,8.20147980e-04,-2.49306321e-01,-3.31534445e-01,1.73240826e-01,3.12083773e-02,-2.92894185e-01,-3.78644437e-01},{4.78698814e-04,9.10049975e-02,9.10320207e-02,1.39183983e-01,-1.64088905e-02,-1.91236436e-01,-3.01449090e-01,1.57193139e-01,-2.58480944e-02,-4.10352014e-02,7.69527480e-02,-2.64571309e-02,1.41204596e-01,-1.83147080e-02,-1.34388665e-02,-7.51483142e-02,-7.19924718e-02,-1.05152689e-01,-4.43725437e-01,-1.51123017e-01,-1.97928026e-01,1.41423330e-01,5.37371412e-02,-4.29681465e-02,2.89820284e-02,-8.15810412e-02,1.00803427e-01,5.32930978e-02,-8.76771137e-02,-2.76080836e-02,-7.32365325e-02,-9.41174030e-02,1.19214550e-01,3.34710151e-01,9.52594131e-02,-1.02036163e-01,-1.51146591e-01,-3.24306309e-01,9.95449796e-02,-1.67433470e-01,-1.44330978e-01,8.91068950e-02,-9.35143158e-02,-3.13430317e-02,-1.71326071e-01,-6.96075335e-02,-4.83372696e-02,8.22221395e-03,-1.72087163e-01,-1.24665394e-01,1.01625346e-01,-7.83494264e-02,1.07753135e-01,-9.90475342e-02,6.38970435e-02,-9.60490331e-02,6.99519292e-02,1.28998920e-01,1.41524613e-01,1.77831098e-01,1.92047924e-01,5.83723560e-03,1.52451396e-01,5.41548477e-03},{-3.62867191e-02,1.68565288e-01,1.17721129e-02,-2.74874945e-03,-8.83787870e-02,-7.80366287e-02,1.08414382e-01,-1.90364927e-01,-1.62892967e-01,-1.15270540e-01,-3.46056968e-02,-5.13877869e-02,1.46682262e-01,-7.60960355e-02,9.33946893e-02,-2.04801019e-02,7.31791416e-03,-1.05980515e-01,1.39849812e-01,4.58773524e-02,1.01048559e-01,-2.28894860e-01,-1.83775857e-01,1.86731339e-01,-7.98823237e-02,1.10509284e-01,-5.63180894e-02,-2.18650639e-01,9.91001278e-02,-2.07033437e-02,-3.37460861e-02,-2.52823383e-02,3.31821591e-02,2.77400259e-02,-2.51619190e-01,2.51934916e-01,-2.29009435e-01,7.99132958e-02,1.51723564e-01,-1.59978941e-01,-6.44830838e-02,-3.00550386e-02,-4.23663527e-01,-9.15551484e-02,-2.23974168e-01,-4.78893369e-02,1.72039211e-01,-3.95285487e-02,1.17994556e-02,-9.47955623e-02,-2.10621849e-01,5.52073494e-02,3.94755825e-02,1.58979550e-01,-5.18451110e-02,1.48978442e-01,-1.17792740e-01,2.99919508e-02,-8.40247795e-03,-1.34941384e-01,2.63675958e-01,6.10369667e-02,3.24931890e-02,-1.60940513e-01},{-2.07760334e-01,-1.13553509e-01,1.72340855e-01,-2.10560247e-01,1.30551144e-01,-6.91119209e-02,-2.37043470e-01,1.81235448e-01,1.02620885e-01,2.48573661e-01,6.67823255e-02,-1.16539232e-01,7.84597397e-02,-2.17518494e-01,2.66035408e-01,-7.79428631e-02,-4.50868979e-02,2.29790807e-01,-4.94025797e-02,-4.03266214e-02,1.52665496e-01,5.61196776e-03,-3.73058170e-02,-2.08082020e-01,-1.75518408e-01,-2.04219460e-01,-7.75762182e-03,1.68820828e-01,-1.39674589e-01,-1.98253572e-01,7.78840557e-02,1.03671504e-02,-1.82364225e-01,1.48411795e-01,8.87336507e-02,2.67398935e-02,-1.08780399e-01,4.00615223e-02,1.03134267e-01,-2.27137640e-01,-3.67875770e-02,-1.03880599e-01,9.53949317e-02,8.54061097e-02,2.18013883e-01,7.09884316e-02,-7.87786245e-02,1.33086026e-01,6.56324029e-02,7.20773563e-02,-2.78685689e-01,-1.42861009e-01,-1.30290642e-01,-5.77647202e-02,3.10376827e-02,-6.43718839e-02,1.68350801e-01,-1.18616067e-01,1.03008248e-01,1.40158311e-01,-1.39155641e-01,1.32212425e-02,-1.48298934e-01,2.36715063e-01},{-5.79899065e-02,-4.85419594e-02,-8.31526220e-02,-3.68971348e-01,1.38060734e-01,7.33163580e-02,-6.97041005e-02,-1.09203249e-01,1.43330311e-02,-9.52571258e-02,4.44077477e-02,2.08066963e-02,-1.20394178e-01,-6.78608790e-02,-9.48567092e-02,7.20958272e-03,6.83124810e-02,-2.64170319e-02,1.31751318e-02,-2.09703837e-02,-1.27012923e-01,5.58195002e-02,-3.10990900e-01,-1.64383196e-03,3.03092510e-01,1.34628639e-01,-1.89361855e-01,-1.58258900e-01,-9.15918127e-02,2.30658323e-01,8.32227394e-02,1.65036008e-01,-1.39336392e-01,-8.64400566e-02,-1.96415231e-01,1.37887120e-01,-9.92216915e-02,-1.43384054e-01,-2.09890351e-01,-1.13741867e-02,1.10110983e-01,-7.77815729e-02,-3.63037080e-01,-1.53103769e-01,-2.38466233e-01,-1.98854521e-01,3.12851816e-02,3.03260118e-01,9.09401327e-02,-3.05485595e-02,5.15528657e-02,9.89798456e-02,-1.49768099e-01,-6.39433786e-02,2.77285017e-02,8.47063214e-02,-2.70980243e-02,4.07566391e-02,-1.23312637e-01,1.86682001e-01,4.72309217e-02,-1.20044172e-01,1.29877597e-01,-1.04070015e-01},{-1.50867477e-01,-9.39600915e-02,1.03567012e-01,4.84484620e-02,-4.19722348e-01,-2.56691724e-01,-8.19208845e-02,9.71123055e-02,8.90295133e-02,1.42200112e-01,-1.17616102e-01,7.89050683e-02,-9.44318995e-02,1.11259185e-01,3.28738272e-01,-3.01761925e-02,-7.27484226e-02,6.53855130e-02,-1.78687364e-01,-2.12148622e-01,1.07149407e-01,-1.37128877e-02,2.05960184e-01,-6.50896691e-03,-1.44141763e-01,1.48816243e-01,-2.74089545e-01,-1.89901829e-01,3.34496871e-02,6.59868345e-02,1.21784754e-01,5.48357777e-02,-5.34059256e-02,1.61103942e-02,4.76082526e-02,-9.49640274e-02,-2.15292260e-01,1.47257000e-01,1.11792594e-01,-1.30288646e-01,-3.08429778e-01,1.26534700e-01,-2.44475991e-01,-5.30926466e-01,3.70323956e-02,1.28752857e-01,2.02538688e-02,2.21079886e-01,1.87597245e-01,-2.34328091e-01,4.32699695e-02,-1.19306237e-01,8.02147165e-02,8.93374011e-02,-2.66919341e-02,-1.87033176e-01,-1.59937635e-01,-1.74817190e-01,8.74694157e-03,-7.04038888e-03,1.79910526e-01,-3.83104384e-02,-2.59465307e-01,-2.26273417e-01},{1.27242699e-01,5.18670417e-02,-3.96033600e-02,1.17341816e-01,-1.06279455e-01,-8.74937847e-02,-1.45864576e-01,1.95406213e-01,3.50650340e-01,6.94477186e-02,-9.89334658e-02,-6.74891770e-02,1.58569515e-02,2.63632476e-01,2.71219324e-04,-1.38022274e-01,-5.83056137e-02,5.79016143e-03,-7.01600835e-02,-8.70180055e-02,1.06251955e-01,8.97337943e-02,-8.40711743e-02,1.46671772e-01,-6.84767962e-02,-1.34549990e-01,1.28877759e-01,-2.52325758e-02,1.50325462e-01,-1.17290325e-01,-9.04297158e-02,5.69564244e-03,5.66056482e-02,1.34540707e-01,1.30727172e-01,-3.34930653e-03,-2.70125240e-01,-2.32484695e-02,1.02302387e-01,-3.13763767e-01,-1.25113562e-01,-7.01425076e-02,-1.32506609e-01,-2.91711301e-01,-5.99878691e-02,2.46483594e-01,1.13128632e-01,-5.91773465e-02,3.21802408e-01,6.57761469e-02,-5.78929782e-02,2.21271683e-02,1.72442228e-01,-1.12536795e-01,-9.63641889e-03,-1.60743803e-01,6.62884712e-02,-3.23189527e-01,-9.86278802e-02,8.81607383e-02,2.15249851e-01,3.47029507e-01,5.05021513e-02,8.59564021e-02},{1.03056952e-01,-6.35350868e-02,5.04658036e-02,-4.32544909e-02,-2.53781825e-01,1.52198076e-01,2.05648884e-01,-9.69218910e-02,-6.96559399e-02,-7.26571754e-02,5.78786731e-02,-6.12734854e-02,-6.16277792e-02,1.42099366e-01,1.72996029e-01,-2.56118655e-01,-2.80294418e-01,-3.27349126e-01,-1.12432145e-01,8.65851939e-02,3.69373821e-02,-2.25140691e-01,-1.62860468e-01,-2.60542892e-02,-4.03058380e-02,-1.14027351e-01,-1.08619519e-01,-1.07257413e-02,-1.88872710e-01,-1.53323770e-01,2.65451297e-02,1.78653374e-01,-5.23215607e-02,-5.27571840e-03,-1.42031953e-01,-4.06292379e-02,1.08447984e-01,1.67958856e-01,-2.21476793e-01,-2.26735566e-02,-7.13940933e-02,7.50543773e-02,8.61714184e-02,-1.28255501e-01,-2.02035248e-01,6.81858063e-02,7.26603493e-02,1.79830974e-03,-2.25289151e-01,5.74536026e-02,-1.94900215e-01,-9.64718238e-02,2.38434777e-01,6.73983693e-02,2.22986704e-03,-2.26267189e-01,-1.10898182e-01,-2.85840988e-01,-1.26866937e-01,-5.38088605e-02,1.79929242e-01,9.17534307e-02,4.23853993e-02,-6.77214041e-02},{4.36209477e-02,-3.37560624e-01,8.77839923e-02,-2.93761075e-01,1.16632551e-01,1.11032021e-03,-2.77620237e-02,-6.81800693e-02,8.70912299e-02,2.58654624e-01,-2.48535410e-01,-1.39458422e-02,3.35760415e-02,3.83906215e-02,1.09374464e-01,6.78954422e-02,-1.12224981e-01,-1.04547016e-01,-2.56596208e-02,-5.75085320e-02,1.25673190e-01,-1.13248803e-01,-1.81077302e-01,1.27797574e-01,1.36564761e-01,2.83103390e-03,1.87270865e-01,-2.73604542e-01,-5.84346317e-02,-1.59009129e-01,-5.47440425e-02,1.19492859e-01,-9.96465459e-02,1.48098737e-01,4.14076671e-02,3.02406475e-02,-1.91282734e-01,7.93445203e-03,2.65043955e-02,-1.16077051e-01,1.58661038e-01,2.49255635e-03,2.71640103e-02,1.15595043e-01,1.42546967e-01,1.62025154e-01,-1.32166604e-02,3.54723901e-01,1.94902927e-01,5.97503083e-03,-2.17747077e-01,9.96997058e-02,1.29518688e-01,5.81119359e-02,1.96404997e-02,-7.59709552e-02,7.99523219e-02,-1.80213779e-01,-1.24121606e-01,-2.19672695e-01,1.06022403e-01,2.43857279e-01,-1.81409195e-01,-3.46906215e-01},{1.60492271e-01,-1.53902784e-01,-2.25696653e-01,1.52929621e-02,-1.47210181e-01,6.72240369e-03,1.20472021e-01,6.30042627e-02,-2.74905525e-02,1.64233610e-01,-9.75891948e-02,1.81364566e-01,-1.66966245e-01,5.45750782e-02,-1.13030992e-01,-1.45899102e-01,1.18701523e-02,7.81146884e-02,-7.06574097e-02,-4.69663851e-02,2.40400374e-01,-8.85173231e-02,2.43175864e-01,-3.55672017e-02,-1.03378847e-01,2.23694906e-01,-1.34328201e-01,-1.01182237e-01,1.02749437e-01,3.53799723e-02,4.11261283e-02,-3.55535448e-02,4.99386042e-02,1.51067972e-01,5.80506399e-03,-1.25760823e-01,5.81285032e-03,-9.66588706e-02,1.89550072e-01,-1.68760046e-01,2.20162943e-01,-6.99688718e-02,2.94500321e-01,-2.10771695e-01,2.56909072e-01,8.21098220e-03,5.25359698e-02,-4.63759564e-02,-4.18096706e-02,-1.73655912e-01,1.14695944e-01,-1.92046568e-01,-1.08247384e-01,-3.29755902e-01,-1.37539068e-02,-1.24861680e-01,-2.48946980e-01,-4.96761829e-01,8.44145566e-02,-7.71829188e-02,6.25274479e-02,3.28867212e-02,2.30748672e-02,-4.73716296e-02},{2.83021778e-01,-8.16410929e-02,5.93799986e-02,1.00205362e-01,8.03170875e-02,-2.00941842e-02,7.06780031e-02,-7.86378309e-02,-5.21402210e-02,1.47689776e-02,-9.62485820e-02,1.75683379e-01,4.26798277e-02,-2.24142760e-01,1.00479200e-01,3.45010132e-01,1.49735231e-02,7.45516047e-02,8.06259662e-02,-1.62056889e-02,1.06833152e-01,1.07114509e-01,-5.20610698e-02,7.87376314e-02,1.58729523e-01,-6.09599464e-02,7.06039220e-02,3.14347029e-01,3.30293626e-01,-2.88901851e-02,-2.77772815e-05,8.72650221e-02,-1.03724606e-01,1.57680199e-01,1.54836491e-01,9.37556177e-02,2.50652492e-01,1.58298254e-01,9.72976312e-02,1.61493830e-02,6.71454296e-02,1.81136623e-01,-2.26908207e-01,-1.89615816e-01,2.79051572e-01,-3.17240581e-02,-1.96661025e-01,1.25129849e-01,1.10912576e-01,-4.83900420e-02,1.69637635e-01,9.12035331e-02,2.73631901e-01,-1.37235075e-01,-1.16339453e-01,3.95737700e-02,-3.28646272e-01,-9.22414884e-02,1.25536518e-02,-2.11792946e-01,-3.65072973e-02,7.36688972e-02,8.26770514e-02,-2.62780815e-01},{-2.85889655e-01,4.70686331e-02,-6.71741217e-02,-1.59233883e-01,-1.07221246e-01,-6.80815894e-03,2.08506379e-02,4.05735411e-02,-6.29836991e-02,1.71519831e-01,5.37459441e-02,-2.82759275e-02,-4.24189083e-02,-2.03960508e-01,-1.67301625e-01,-1.35332525e-01,-1.36285335e-01,-2.43954971e-01,2.26661637e-01,2.63575464e-01,5.98838665e-02,-4.37754467e-02,-1.71305946e-04,-4.31530803e-01,1.46816462e-01,5.88303618e-02,6.96701109e-02,6.75324025e-03,-2.63241947e-01,-8.23762342e-02,-5.01212152e-03,-1.49905831e-01,2.01418713e-01,1.39389321e-01,3.67355905e-03,1.27168328e-01,-4.61291783e-02,-3.80408093e-02,-1.02998741e-01,1.70639891e-03,5.94953001e-02,6.56251535e-02,-9.28210169e-02,2.26409361e-01,1.49191190e-02,1.74394727e-01,-1.42563269e-01,1.63176894e-01,-3.41181271e-02,-3.12055141e-01,4.09415066e-02,-1.47434548e-01,9.36916191e-03,1.36074677e-01,-1.23328947e-01,9.63433236e-02,-5.77409007e-02,4.64705944e-01,1.58188239e-01,6.45760670e-02,3.13806674e-03,2.98653189e-02,3.59821809e-03,7.57604986e-02},{-1.83601588e-01,-8.88847485e-02,1.66647494e-01,6.26693517e-02,5.36366515e-02,1.04870714e-01,8.18641037e-02,6.77511394e-02,-9.42362025e-02,1.86379164e-01,-4.73830625e-02,-8.87136459e-02,4.19753045e-02,2.59832233e-01,2.01499507e-01,-7.64779141e-03,1.05622679e-01,3.81593630e-02,-2.82678045e-02,1.53244689e-01,-4.69379947e-02,-2.70043492e-01,8.37720484e-02,-6.64361194e-02,-1.95611656e-01,-3.11514772e-02,1.75305028e-02,1.61485896e-01,2.77413011e-01,4.98912074e-02,1.09743021e-01,3.72334510e-01,5.76043203e-02,-7.71907493e-02,-2.24731416e-02,-1.34302244e-01,-9.33080073e-03,1.95110977e-01,3.52346264e-02,-2.15816833e-02,-6.75181672e-02,-1.20619230e-01,-2.69615173e-01,-6.85364604e-02,3.30420136e-02,1.63728779e-04,3.54507938e-02,-1.46172613e-01,-2.21188053e-01,2.13801060e-02,-1.99770406e-01,-5.59828468e-02,-7.71187395e-02,-8.48095119e-02,6.72792122e-02,-3.92264202e-02,-3.23680118e-02,-8.33598839e-04,1.73622055e-03,-1.64114490e-01,-3.60713005e-01,1.50852874e-01,1.54252276e-01,2.20836326e-01},{2.75798172e-01,7.32413679e-02,-1.29066661e-01,-1.71013847e-02,-4.49878387e-02,1.91288158e-01,-2.38390207e-01,-3.55302654e-02,-1.94401052e-02,-4.11074348e-02,-2.15095624e-01,2.11193234e-01,-5.84726445e-02,5.48161082e-02,2.94689462e-02,1.13183171e-01,-5.53819537e-03,1.65528521e-01,1.29147038e-01,-3.45622897e-01,-3.76158655e-02,-2.66560823e-01,-2.19026193e-01,1.00766823e-01,-1.50411427e-01,-9.51515958e-02,1.57850444e-01,8.75727832e-02,-2.82193068e-02,6.38467818e-02,1.50603011e-01,1.86951444e-01,-1.21536337e-01,4.42564003e-02,-4.60161492e-02,-2.66293865e-02,1.87440246e-01,2.35999748e-02,-2.27430478e-01,-2.24975705e-01,-1.95359007e-01,-3.78476270e-03,-1.81371167e-01,-2.39541102e-02,3.21487010e-01,-3.59723158e-02,1.55680448e-01,6.09161332e-02,-5.86101487e-02,2.40373522e-01,-3.63493562e-01,3.17771174e-02,9.71657410e-02,3.50269563e-02,4.07316834e-02,-2.42231041e-02,-1.04703382e-02,1.31488852e-02,-5.66788055e-02,-1.81138977e-01,4.53018434e-02,-2.12269574e-02,1.44220918e-01,1.46236923e-02},{-1.96154803e-01,9.40597430e-02,-7.92343765e-02,-1.29506048e-02,-7.66061246e-02,1.19422518e-01,-9.18064043e-02,1.16336510e-01,1.31573007e-01,8.00674111e-02,-2.50701644e-02,-8.20477083e-02,1.14808261e-01,-1.18011527e-01,3.72155011e-01,-1.69783145e-01,-6.13482147e-02,1.80701628e-01,-2.43286833e-01,5.36503224e-03,-7.71211758e-02,-2.84619361e-01,-7.18919188e-02,7.98444822e-02,-2.40100846e-01,-3.12028192e-02,-2.14338869e-01,-3.38974088e-01,1.12242237e-01,1.07197843e-01,3.02368612e-03,-6.36558905e-02,8.51901993e-02,-1.48604661e-01,-6.14428241e-03,-4.75979112e-02,2.11736634e-02,3.71471196e-01,-1.69079408e-01,-1.63150102e-01,-6.86045885e-02,-4.16161418e-02,1.14384048e-01,2.57385708e-02,1.12483218e-01,-2.60431170e-01,-2.32660305e-03,-4.49313447e-02,-9.77757871e-02,6.84923008e-02,-1.14327207e-01,1.82962138e-03,1.68684751e-01,-1.43651634e-01,-5.70004471e-02,1.27754547e-02,-7.11311237e-04,-1.16603717e-03,-1.31814867e-01,-2.38436013e-01,-1.99356422e-01,6.86966404e-02,-3.37935314e-02,-6.44501001e-02},{-3.01155640e-04,-3.32121313e-01,7.72963464e-02,-4.32733539e-03,3.96391265e-02,2.87240110e-02,-3.39193679e-02,-4.73695584e-02,-2.02891827e-01,-9.62356329e-02,1.28706083e-01,8.07287470e-02,-3.73908766e-02,8.79647583e-02,-7.73087144e-03,2.29689896e-01,1.03214150e-02,2.73766592e-02,9.03327689e-02,5.93116730e-02,4.27569821e-02,-1.08216159e-01,9.81077999e-02,5.26919484e-01,8.06338340e-02,1.37709398e-02,-2.05022380e-01,-2.03967884e-01,1.91134468e-01,3.05395462e-02,1.61754992e-02,1.31631911e-01,3.50801237e-02,-1.20508932e-01,-3.48135680e-02,2.03443110e-01,1.61578789e-01,1.31584004e-01,1.74058706e-01,-2.51941442e-01,-1.21165708e-01,-3.78051102e-02,-5.87980263e-02,-3.44385177e-01,-1.98689044e-01,2.99335700e-02,1.17043637e-01,1.11928191e-02,-1.55581832e-01,1.02232933e-01,-1.30979374e-01,-2.89736062e-01,3.36021215e-01,-2.90476501e-01,7.88939819e-02,6.69758245e-02,-1.53736204e-01,1.66463607e-03,-5.63522205e-02,-6.48176596e-02,2.22963467e-01,1.68241963e-01,1.60676703e-01,-1.79086924e-01}};
const float HIDDEN_BIASES_1[64] = {-0.13313085,-0.03487873,0.01582351,-0.02757289,-0.03034609,0.00540309,0.02858024,0.07802945,0.04044347,-0.1231278,0.00183532,0.08703963,0.088335,-0.00385347,0.03066165,0.03723264,0.14060234,-0.07707957,-0.11189958,-0.1127529,0.07053744,0.11786491,0.00517179,-0.02335552,0.0534116,0.0426611,0.09837196,0.02167518,0.04005455,0.03976417,-0.08391555,-0.00454202,0.04083175,0.02716412,0.08701904,-0.02140857,0.07946517,-0.04001935,0.04934292,0.03606979,-0.01104437,-0.06046524,-0.06032217,0.06289762,-0.02212172,-0.0784644,0.04376936,-0.08685368,0.05931288,-0.0373906,-0.04953237,-0.00942305,-0.01872849,0.0409588,0.06061733,0.12970424,0.08087928,0.03918792,-0.00719122,0.04570768,0.01448026,0.05928369,0.09835231,0.0058955};
const float OUTPUT_WEIGHTS[8][64] = {{6.00642338e-02,-1.24380942e-02,-2.05897372e-02,5.14039658e-02,-2.75359061e-02,3.53877433e-02,-9.27406847e-02,-4.30064090e-02,1.05444074e-01,6.06675807e-04,1.26233697e-01,6.33868575e-02,-2.29025390e-02,-9.32689533e-02,-6.94931224e-02,2.51098480e-02,-1.14439771e-01,9.19286460e-02,1.16343655e-01,1.52243197e-01,4.56840731e-02,-4.04820107e-02,-6.00590035e-02,-8.16190802e-03,-8.33432525e-02,-6.83453530e-02,2.60711294e-02,-1.34695880e-02,1.17843756e-05,2.24344549e-03,-9.14641935e-03,-8.95904303e-02,-6.46620151e-03,-1.11705065e-01,-5.10810427e-02,9.83863696e-02,-4.97216992e-02,6.08453155e-03,9.57991369e-03,6.85621649e-02,-1.07172064e-01,-4.50417735e-02,7.59249032e-02,-1.07361101e-01,3.64711694e-02,-6.46466836e-02,1.13560492e-02,-3.77391651e-03,-1.88140973e-01,2.04162989e-02,-5.44828959e-02,-1.26642985e-02,-6.69148117e-02,-4.94249240e-02,5.21652140e-02,-6.21415302e-02,-1.19753107e-01,-8.96105822e-03,1.32720262e-01,-1.07505061e-01,-2.01443844e-02,-5.03378129e-03,-5.52256666e-02,1.16114356e-01},{-9.50086787e-02,2.70155761e-02,-5.27314730e-02,1.28668931e-03,-3.88286635e-02,3.52952182e-02,7.21702650e-02,-2.92864721e-02,6.38220310e-02,-1.17754899e-02,9.15181339e-02,7.60187209e-02,-1.25894835e-02,2.85778560e-06,-2.82441489e-02,-2.80502834e-03,5.58302589e-02,-5.15815848e-03,-4.71484326e-02,-9.50829983e-02,2.08756015e-01,5.18218391e-02,-2.03805957e-02,-9.36955810e-02,-2.70545203e-02,3.54434736e-02,1.04485087e-01,9.20959711e-02,-7.56913573e-02,-2.81486996e-02,1.23383412e-02,-6.16547279e-02,9.14477259e-02,-1.21878684e-01,-3.92455198e-02,1.15634941e-01,-2.48398110e-02,-7.77816549e-02,8.80644843e-02,-6.02908023e-02,-8.17893520e-02,7.54937455e-02,-3.16744596e-02,7.31793046e-02,-1.10762551e-01,-2.36166976e-02,1.26064613e-01,-5.27562313e-02,-1.42632984e-02,-5.07104537e-03,-4.10734192e-02,-1.06510125e-01,-4.74592000e-02,-1.30355414e-02,-3.25336419e-02,5.28668333e-03,-1.65691093e-01,1.32783145e-01,-2.11314857e-02,4.73047467e-03,2.41722856e-02,1.50094638e-02,4.66757938e-02,1.34130400e-02},{1.28365675e-04,1.25752226e-01,-1.37969842e-02,-1.67554729e-02,-4.19475660e-02,3.03212013e-02,1.05702892e-01,1.28799640e-02,-1.29093722e-01,-3.22691202e-02,6.29223213e-02,1.23158388e-03,-7.61169642e-02,6.94573298e-02,3.96508686e-02,7.32021406e-02,9.87356976e-02,8.70192423e-02,-1.35025248e-01,2.65759695e-03,-1.24545274e-02,-9.83502045e-02,1.89870626e-01,-4.34052646e-02,-5.89694232e-02,-4.75300439e-02,1.26092643e-01,-1.22729160e-01,6.21833727e-02,-5.70537671e-02,-2.87919268e-02,6.84591457e-02,1.61702801e-02,-1.82645638e-02,5.33507019e-03,2.56873090e-02,6.92376271e-02,-1.25950724e-01,-2.29788795e-02,-9.23684165e-02,1.23910867e-02,-4.66532409e-02,-1.22479666e-02,8.91020074e-02,-2.52204221e-02,6.83801668e-03,-1.50052374e-02,-3.35973240e-02,6.73924107e-03,-9.21075717e-02,2.90410109e-02,-6.99463785e-02,9.39077958e-02,8.32790975e-03,-1.69715602e-02,9.20919422e-03,-1.35318059e-02,-4.16736156e-02,-1.14177182e-01,-4.96530011e-02,8.16379767e-03,-1.09226443e-02,1.17933854e-01,7.00991601e-02},{7.80311376e-02,-3.73464786e-02,-1.17414892e-01,2.33247802e-02,-8.77854303e-02,3.23256515e-02,3.34399045e-02,-7.97782280e-03,1.28461689e-01,3.57830748e-02,-3.75939384e-02,-8.31625834e-02,-3.57128568e-02,-4.98708449e-02,-1.11384969e-02,6.98278621e-02,5.75760938e-03,9.89186838e-02,-1.18545014e-02,1.03657566e-01,-1.30115151e-01,1.05120160e-01,-8.10595378e-02,3.31090949e-02,-6.49154857e-02,-3.95007171e-02,-1.25619750e-02,-8.79849941e-02,2.28821412e-02,-2.86324359e-02,-1.36953965e-01,1.20430358e-01,2.83393934e-02,7.54475296e-02,-5.22156730e-02,2.05204785e-02,-1.92098282e-02,-8.55558217e-02,-2.04549745e-01,4.08751182e-02,-4.10612151e-02,-4.42425627e-03,6.85702711e-02,1.60272103e-02,-2.54057404e-02,1.56404283e-02,1.17477410e-01,-9.37941521e-02,-5.87809868e-02,-3.76529917e-02,1.21732973e-01,-1.96224302e-01,1.28245294e-01,-4.68025282e-02,-6.39217300e-03,-1.56217776e-02,3.21149081e-02,-9.26770642e-02,1.03387214e-01,-4.78590764e-02,-2.23054700e-02,5.00350967e-02,-8.66799951e-02,1.39797628e-01},{-1.76960170e-01,-4.83184829e-02,5.82203940e-02,2.93180555e-01,-3.95793170e-02,-3.72091159e-02,-4.67509963e-02,-6.30615726e-02,1.02142461e-01,-1.35516807e-01,-7.72397444e-02,3.48974243e-02,2.32805982e-01,3.33328664e-01,-1.72456756e-01,-7.84402117e-02,5.42287901e-02,1.03397228e-01,6.22880682e-02,-1.26624048e-01,-6.67526200e-02,-1.83224529e-01,7.71930739e-02,-1.26947612e-01,-1.12744525e-01,7.46076107e-02,1.55025601e-01,-2.91752666e-02,2.31573418e-01,1.25351027e-01,-6.52952492e-02,-9.03811082e-02,3.25185955e-01,-8.98850411e-02,1.70225322e-01,1.29765809e-01,9.32865143e-02,2.21204441e-02,1.47738844e-01,1.34092838e-01,-1.17290497e-01,4.26956220e-03,-1.99763775e-01,3.05725336e-01,1.16574066e-02,-2.40080412e-02,6.60792813e-02,-1.25421330e-01,1.71777438e-02,1.86710060e-01,-5.54920174e-02,3.31448913e-02,-1.45398855e-01,3.33199412e-01,3.19672048e-01,-9.72323213e-03,1.90619200e-01,1.54692322e-01,9.49840397e-02,-1.01595692e-01,-1.15923934e-01,-9.64077115e-02,2.23870501e-01,6.20206557e-02},{-1.86528951e-01,2.02275012e-02,9.83234122e-02,1.93231240e-01,4.33781445e-02,7.32185261e-04,-1.16778255e-01,1.98594958e-01,3.11874188e-02,-1.50218338e-01,-2.14610975e-02,-3.19399834e-02,1.59269944e-01,1.09164141e-01,-1.84087247e-01,1.49854332e-01,-3.66235077e-02,-4.55665812e-02,-3.75378989e-02,-1.47200435e-01,-6.16459996e-02,1.02819018e-01,1.29924253e-01,-2.71246340e-02,-1.08672678e-01,-2.67034527e-02,2.48628810e-01,-1.86132252e-01,3.52899075e-01,1.74162000e-01,-2.21795350e-01,1.50455430e-01,9.27930400e-02,1.76187262e-01,1.05744854e-01,8.43165591e-02,9.00630429e-02,3.98323201e-02,1.32659957e-01,2.87186980e-01,-1.31428577e-02,-2.53536791e-01,-1.59672707e-01,1.63917497e-01,-5.62034696e-02,-1.47416770e-01,-5.35558444e-03,2.59972177e-02,1.23978406e-01,1.71141513e-02,1.36884809e-01,6.93487599e-02,-3.59173827e-02,2.08580762e-01,1.74287409e-01,1.88221797e-01,1.80711389e-01,8.63223895e-02,1.21463679e-01,-1.35250881e-01,7.50568211e-02,3.16119380e-02,9.39618498e-02,2.09482938e-01},{3.02037839e-02,-2.41302162e-01,1.19417474e-01,2.71309793e-01,-2.11273551e-01,4.75344844e-02,-4.15314436e-02,1.49635673e-01,2.40986064e-01,-3.16726953e-01,-8.10828507e-02,-1.25487253e-01,1.95951685e-01,1.64058596e-01,-2.16769055e-01,3.80856693e-02,-2.41051242e-01,-2.55824149e-01,2.30114877e-01,-4.06382680e-02,-1.57035813e-01,1.41792282e-01,1.09269038e-01,-3.44756126e-01,1.27056792e-01,2.15060383e-01,3.96375358e-02,-1.39659539e-01,4.58498187e-02,2.12931529e-01,2.45063938e-02,-7.92291090e-02,2.28590488e-01,4.37106900e-02,1.00970581e-01,-5.87455221e-02,1.91614393e-03,-1.62058622e-02,-2.42038872e-02,1.37010381e-01,-1.85726225e-01,8.63452628e-02,-1.31728247e-01,3.59157473e-01,2.94589978e-02,-5.91400778e-03,3.45448516e-02,-6.69699488e-03,-1.00149643e-02,9.63908508e-02,4.56575304e-02,3.56767736e-02,5.85151836e-02,3.52902748e-02,1.38905510e-01,-5.26020750e-02,1.04846328e-01,-4.38692048e-02,1.66547731e-01,-7.81830028e-02,-4.69761342e-03,3.59864324e-01,1.20785400e-01,4.21812236e-02},{-5.64559139e-02,-8.21076334e-03,1.69766650e-01,2.42194444e-01,-7.11503103e-02,-5.43595776e-02,-2.19248161e-01,-3.02034579e-02,-3.80233116e-02,-1.27154678e-01,-1.78894922e-02,2.67768111e-02,2.15871617e-01,1.70595765e-01,-1.80893078e-01,2.04577819e-01,-1.04708754e-01,-1.83530718e-01,1.28528606e-02,-2.04974592e-01,-6.93094172e-03,4.31959368e-02,9.32523459e-02,-1.16103128e-01,3.01788212e-03,1.58226520e-01,8.37300569e-02,1.56175001e-02,7.61592984e-02,2.34359428e-01,-1.06429856e-03,-8.92074332e-02,2.46569961e-01,4.97981198e-02,2.70077717e-02,-1.12668856e-03,1.21007254e-02,4.86717559e-02,1.87572420e-01,1.99998796e-01,-2.03028247e-02,-4.84087095e-02,-2.33873218e-01,8.62617940e-02,-1.21488795e-01,-1.96528673e-01,-2.63459776e-02,4.94350456e-02,9.71987545e-02,-4.15783226e-02,3.60533446e-02,1.28848627e-01,-2.20135540e-01,1.00570187e-01,1.74578831e-01,1.88513786e-01,9.18221176e-02,6.37773424e-02,3.16707604e-02,-1.28878817e-01,1.48501500e-01,8.79218057e-02,2.10929319e-01,2.19636068e-01}};
const float OUTPUT_BIASES[8] = {-0.04934101,0.03161934,0.05066082,0.00174057,-0.03054001,0.07328597,-0.01880022,0.03201826};
#endif
