{'_logits._model.0.weight': array({{ 0.14353615, -0.09991349, -0.009935  ,  0.09484194, -0.09738642,
        -0.06335454, -0.00528429,  0.04109962,  0.00648344,  0.06668615,
         0.04313167,  0.0073258 , -0.04205945,  0.1799347 , -0.02197308,
        -0.02247641,  0.03798331, -0.0798763 ,  0.01462237, -0.0497345 ,
         0.04566045, -0.10301761,  0.08142783, -0.07740317, -0.01253402,
        -0.02560535,  0.09504822, -0.00142454, -0.12764679,  0.04431676,
         0.03928635,  0.01540298, -0.00780551, -0.05353009,  0.00198457,
         0.01929851, -0.14706855, -0.08544353,  0.05046201,  0.0690642 ,
         0.00086857, -0.08966212, -0.03338684,  0.0735367 ,  0.15547799,
        -0.01146997,  0.01727006, -0.09626012,  0.03867674, -0.02827249,
        -0.00837852,  0.0451359 ,  0.03649201,  0.03824414,  0.06026709,
        -0.02933434, -0.13620563,  0.04502927, -0.02659035, -0.1193094 ,
         0.03326505,  0.20246743,  0.13062909,  0.17438444},
       { 0.03691861, -0.05690399,  0.05252695, -0.12861666, -0.12693112,
        -0.16967851, -0.01681799,  0.00220219,  0.00097753,  0.01533802,
         0.11014955,  0.05925152,  0.05423005,  0.01422695,  0.04698672,
        -0.15483582, -0.06245538, -0.04628076,  0.02919672, -0.13335901,
         0.09815757, -0.08678636, -0.0712719 , -0.01929497,  0.03490163,
         0.05863181, -0.02075994, -0.03619885,  0.1398688 ,  0.00519207,
         0.09567571, -0.03116295, -0.02335885, -0.04665708,  0.02109839,
        -0.04731068,  0.05339954,  0.00553152,  0.03651347, -0.08188688,
         0.05479595, -0.15078527,  0.17581813, -0.05777973,  0.09149455,
        -0.10319921,  0.01261315, -0.06700242,  0.0599104 ,  0.0019739 ,
        -0.03201648,  0.09509372,  0.00145865,  0.07197575,  0.00059675,
         0.01609144,  0.01767238, -0.08117218, -0.00938853,  0.04592508,
         0.05563082,  0.00944033,  0.07725038,  0.00284954},
       { 0.04597625,  0.01516539, -0.06573602, -0.13196665, -0.07993308,
         0.01669743, -0.07557365, -0.04123287, -0.05856791,  0.00758751,
         0.00268351, -0.13398811,  0.06527584, -0.06573713, -0.03917251,
         0.00726338,  0.07518097, -0.07058067,  0.05472368,  0.00165133,
         0.08443489,  0.01463675,  0.0106905 , -0.12324183, -0.02600286,
        -0.05062776,  0.02582657, -0.1232098 , -0.01898914, -0.04564418,
        -0.1634364 , -0.05694613,  0.04964677, -0.11317331, -0.0136562 ,
         0.09005691, -0.1548425 , -0.04146503, -0.10434496,  0.09116676,
         0.00349178, -0.05855613, -0.04587442,  0.2238313 , -0.08939456,
        -0.12406094,  0.0581257 , -0.0443657 ,  0.13395429,  0.13485977,
         0.00634671, -0.07694954,  0.11061183,  0.11289495, -0.15580556,
         0.004468  ,  0.00591168, -0.2183034 , -0.00341516,  0.05155191,
        -0.10231473,  0.01885005, -0.14517069,  0.01616321},
       { 0.07932602,  0.08825872,  0.03259396,  0.07820389, -0.02126563,
        -0.0009515 , -0.06558854, -0.09811047,  0.00190224, -0.06982753,
        -0.00672679, -0.04763713, -0.00849561, -0.20124272,  0.19161029,
        -0.11417156, -0.03007568,  0.03811703,  0.04720195, -0.05010189,
         0.08703566, -0.03507804, -0.18337911,  0.10442124, -0.04017791,
         0.00933916,  0.00640763,  0.08024532,  0.10605581, -0.03231675,
        -0.05015385, -0.05176174,  0.04098436,  0.08137687, -0.03828537,
         0.05611169, -0.00235089,  0.01613987, -0.13210836,  0.06543601,
        -0.0943933 , -0.06057132, -0.04627379, -0.02788807, -0.0883554 ,
         0.05944373, -0.12735136,  0.00250771, -0.02784384,  0.06109925,
         0.04542061, -0.11049278,  0.03617098, -0.0164997 , -0.15843552,
         0.02724446, -0.10172191, -0.16639206,  0.0119088 ,  0.06174779,
         0.06781862, -0.00458811,  0.07398445, -0.09786841},
       {-0.07485439,  0.02712329,  0.0709592 ,  0.01421292,  0.07148012,
        -0.08940478,  0.05067633, -0.06554303, -0.04401261,  0.0292894 ,
         0.09136536,  0.0287228 , -0.04884707, -0.04439306, -0.06424034,
        -0.05946177,  0.01481371, -0.05774474, -0.00778506,  0.06251279,
        -0.03219824, -0.0930122 ,  0.02227801, -0.05214318, -0.10515739,
        -0.01197848, -0.00847769, -0.10529634,  0.02161663, -0.00062097,
         0.06783089, -0.05658721,  0.02557946, -0.02988674, -0.0411813 ,
        -0.01434083,  0.04936939, -0.0923408 , -0.09694424,  0.01515419,
         0.00475209,  0.09487427,  0.00718886,  0.13683851, -0.08194979,
        -0.00809476,  0.09725908,  0.02756578,  0.00044489,  0.08617442,
         0.03803017, -0.01272985,  0.02649481, -0.00210541, -0.10873871,
         0.05498382,  0.07635213,  0.02881876, -0.05723746,  0.03134846,
        -0.09446622, -0.02374738, -0.10974565, -0.09176739},
       { 0.04564598,  0.03414927,  0.04984472,  0.0326093 ,  0.07444841,
        -0.16523303, -0.01733762, -0.04633149, -0.12854032, -0.01302558,
        -0.03632431, -0.02627717, -0.06752293, -0.00154303, -0.10407773,
         0.00715797, -0.08472659, -0.13331021, -0.10225189, -0.04315373,
         0.01667978,  0.05501829,  0.00959177, -0.04699812, -0.0585709 ,
         0.04379837, -0.08376147, -0.05159159,  0.08234142,  0.07251031,
        -0.00131036, -0.14523864, -0.05371749, -0.0361446 , -0.07755895,
        -0.11090168,  0.05377465, -0.05457059, -0.07446858, -0.03361553,
         0.10865479, -0.03180507,  0.04433484, -0.00667334, -0.01816316,
        -0.05631313,  0.00022772,  0.0983534 , -0.07692534,  0.08877888,
         0.08531941, -0.04862435, -0.0056838 , -0.0084191 , -0.05983659,
         0.11286233, -0.01171025,  0.01378407, -0.13994314, -0.06495469,
        -0.08430781, -0.02770474,  0.06257993,  0.00377015},
       {-0.04699012,  0.01376475,  0.13764405,  0.09117208,  0.10829644,
         0.03796574,  0.0253461 , -0.09658903, -0.04930815,  0.05337665,
         0.04419054,  0.00043363,  0.0478371 , -0.0189183 , -0.05786739,
        -0.10459521, -0.00496659, -0.00545675, -0.03948654,  0.11500313,
        -0.03082016, -0.07252747,  0.00891766, -0.01334558, -0.05833331,
         0.06152538, -0.04176085, -0.0571221 , -0.00647313, -0.02238405,
        -0.11256535,  0.0181431 ,  0.04092812, -0.02782181, -0.05134001,
         0.04048572,  0.11025885, -0.08534707, -0.07637267, -0.06278972,
         0.0080241 , -0.05071475, -0.06788232,  0.00540007,  0.09141208,
         0.02371341,  0.125061  ,  0.05524267, -0.03578581,  0.08650814,
         0.15139869, -0.03821881,  0.08508468, -0.03617083, -0.01468154,
         0.01188201, -0.02001419, -0.01162787, -0.02016677, -0.06206485,
        -0.01020402, -0.00397524,  0.06842535, -0.02451941},
       {-0.00620877, -0.00738355, -0.01093427, -0.12055784,  0.05833971,
        -0.0180632 ,  0.05760317,  0.03348095, -0.10223214, -0.01350904,
         0.09640518,  0.09166778, -0.02224563,  0.04436569, -0.08385069,
         0.07679049, -0.08111358,  0.14655842, -0.03253045,  0.07046167,
        -0.02168791,  0.04752191,  0.01929054, -0.03237981,  0.03420606,
         0.07842395,  0.10035746, -0.1937459 , -0.03234149,  0.1425906 ,
        -0.00366395,  0.01434395, -0.10154466, -0.06234572, -0.07693551,
        -0.08112731,  0.07720669, -0.0682012 , -0.10011239, -0.03975331,
         0.05460403, -0.02609356, -0.10523073,  0.08300879, -0.08518252,
         0.04095538,  0.17059577,  0.04460673,  0.00102777,  0.07837193,
         0.03795725,  0.03862233, -0.12448683,  0.05327289,  0.11618453,
         0.09698694,  0.10555566,  0.02789518, -0.08391017, -0.0952327 ,
        -0.17482492, -0.03440095, -0.03822758, -0.184476  }},
      dtype=float32), '_logits._model.0.bias': array({-0.00553046, -0.00547715,  0.02165412, -0.03887722, -0.01496561,
        0.00412531, -0.00924998, -0.00752363}, dtype=float32), '_hidden_layers.0._model.0.weight': array({{-1.17727339e-01,  2.59036630e-01, -2.49285042e-01,
        -1.69868693e-01,  4.00654912e-01, -3.79962713e-01,
         7.92826340e-02, -5.24790175e-02,  8.85708630e-02,
         2.99352016e-02,  4.30867821e-02, -4.22847360e-01,
         1.26872724e-03,  2.14801207e-01,  2.47399107e-01,
         4.03146863e-01,  3.91115457e-01,  3.79714757e-01},
       { 1.35037124e-01, -2.72411883e-01,  2.54308581e-02,
        -2.87410259e-01,  1.48500130e-01, -2.45502561e-01,
        -5.76139987e-02,  3.27307880e-01,  3.41887921e-01,
         6.63614348e-02, -2.03284156e-02, -1.04623362e-01,
        -1.31038442e-01, -2.74505485e-02, -2.01807559e-01,
        -2.83206522e-01,  6.11924589e-01,  1.69752702e-01},
       {-3.95560741e-01,  2.89238393e-01,  1.46973908e-01,
        -9.42457560e-03,  2.38053128e-01, -1.96651760e-02,
        -1.81053385e-01, -3.24830681e-01, -3.17588776e-01,
         5.01170382e-02, -2.96710432e-01, -2.02568308e-01,
         1.33771405e-01, -2.56971210e-01,  1.71076939e-01,
        -6.68187365e-02,  5.03587484e-01, -2.16442093e-01},
       { 1.87305659e-01, -2.13204026e-01,  6.32534102e-02,
        -1.05956033e-01,  8.95885155e-02,  1.27275527e-01,
         1.93243131e-01,  3.47005986e-02, -5.27858377e-01,
         6.30880296e-02,  1.46125510e-01, -2.92618304e-01,
         1.78559527e-01,  2.63385117e-01,  8.89279008e-01,
        -8.58403742e-03,  5.28028421e-02, -3.76215488e-01},
       {-2.32498899e-01, -3.10221463e-01, -2.71050662e-01,
        -1.95836485e-03,  1.77767977e-01,  1.17962826e-02,
        -3.22713375e-01,  1.91623688e-01, -1.34185161e-02,
        -4.91813868e-02,  1.02991134e-01, -1.92592680e-01,
        -3.05598658e-02, -3.14627647e-01,  2.82086730e-01,
        -4.18289512e-01, -6.06982172e-01, -1.07771754e-01},
       { 3.26416604e-02,  1.45857155e-01,  2.05285817e-01,
        -8.45418647e-02, -4.23346996e-01,  2.30491966e-01,
        -2.01156199e-01,  5.12216128e-02, -4.88366187e-01,
         3.96389008e-01,  4.50652763e-02,  1.62513033e-01,
        -1.79173782e-01,  3.37665498e-01, -3.43995869e-01,
        -1.75152630e-01,  3.52975160e-01,  3.41615602e-02},
       { 2.73976415e-01,  2.35069141e-01,  2.45623335e-01,
        -1.28764540e-01, -1.43914253e-01,  2.45564178e-01,
         1.46436673e-02, -4.50939983e-01, -1.11518756e-01,
         3.82556431e-02,  1.78358734e-01,  3.10732812e-01,
         7.22005740e-02, -4.00923729e-01, -2.67010510e-01,
         1.47620067e-01,  1.16138808e-01, -1.46113724e-01},
       { 1.70132250e-01,  2.29085907e-01, -2.04346865e-01,
        -1.34384930e-01, -3.23826522e-01, -1.17607690e-01,
        -4.08461504e-02, -4.14539039e-01,  4.07680422e-01,
         7.65217841e-02,  2.48825297e-01, -4.57613543e-02,
         1.99932922e-02,  3.31193358e-01, -6.20317413e-03,
        -1.77156642e-01, -2.10544333e-01, -4.61752325e-01},
       { 2.88748145e-01, -4.46021229e-01,  1.57421798e-01,
        -1.01347670e-01,  8.25733170e-02, -8.62876698e-02,
        -2.57605910e-01,  1.83874995e-01,  2.48325020e-01,
         4.24642444e-01, -1.82374924e-01,  2.37664118e-01,
        -2.62621939e-01,  1.01364009e-01,  2.64585689e-02,
         1.30153790e-01, -2.49126017e-01, -3.80840063e-01},
       {-4.20592636e-01,  1.40013024e-01,  4.24073428e-01,
         2.81681448e-01,  5.35835791e-03,  2.93607473e-01,
        -4.02169153e-02,  2.42606625e-02, -2.02433899e-01,
        -2.28196140e-02, -2.54951924e-01,  9.40605700e-02,
        -7.14702964e-01, -1.79855004e-01, -1.42200157e-01,
        -3.14687818e-01,  5.49229458e-02, -3.69888902e-01},
       { 3.44922811e-01, -1.97699249e-01,  2.33750001e-01,
         4.74874556e-01,  4.37323123e-01, -2.98467219e-01,
        -2.21194938e-01,  1.99012365e-02, -8.15246627e-03,
         3.91784579e-01,  9.95291173e-02, -1.85303614e-02,
         3.33098263e-01, -1.62406445e-01, -2.52700388e-01,
        -2.41202619e-02,  5.34001216e-02,  2.74390876e-01},
       {-2.67760098e-01,  1.29618496e-01, -6.64267689e-02,
         3.77457201e-01,  2.59809326e-02,  4.07201201e-01,
        -2.03335702e-01, -5.96098661e-01,  3.60800534e-01,
        -1.12681054e-01,  1.70544147e-01,  2.82084965e-03,
         2.42464114e-02,  4.08448614e-02,  2.27910995e-01,
         3.10625702e-01,  2.45380420e-02, -3.69219571e-01},
       {-7.88424686e-02,  3.61645460e-01, -2.02815846e-01,
        -1.16876520e-01,  3.94163519e-01, -4.31495517e-01,
        -2.98094183e-01,  3.46773595e-01,  3.57423946e-02,
        -3.75146508e-01,  1.89827546e-01,  8.18985701e-02,
        -9.23288465e-02, -4.70147692e-02,  1.25667363e-01,
        -1.65618494e-01, -4.85437065e-02,  3.19490790e-01},
       {-3.45545232e-01, -2.05326766e-01, -6.90076649e-02,
        -1.48653701e-01,  3.38359848e-02, -3.30602616e-01,
        -1.86271928e-02,  4.16922905e-02, -1.48866877e-01,
        -2.02229843e-01, -9.90147144e-02,  3.79718602e-01,
        -4.22312140e-01, -1.86878350e-03, -4.58327048e-02,
         4.71972704e-01, -3.49515416e-02,  2.76777297e-01},
       {-2.91136175e-01, -1.36940300e-01, -9.32090208e-02,
         2.15427488e-01,  2.68023044e-01, -5.28883226e-02,
         4.52834889e-02, -5.82066737e-03,  1.60934508e-01,
        -2.38637492e-01,  2.06534743e-01, -1.10186443e-01,
         4.79571633e-02, -1.46305919e-01,  3.85584593e-01,
        -1.68758761e-02,  6.60085499e-01,  3.14491600e-01},
       { 1.27271876e-01,  2.39256218e-01,  4.42404188e-02,
         1.37122437e-01,  1.21834455e-02,  1.46639094e-01,
         1.25269875e-01, -8.65161195e-02, -1.45896792e-01,
         4.96846586e-02, -1.13147587e-01,  4.46425736e-01,
         1.52926192e-01, -1.65267259e-01, -4.75538343e-01,
         6.66905701e-01, -1.95935398e-01,  9.26991627e-02},
       {-2.41324708e-01,  3.05428773e-01,  2.88000166e-01,
        -4.91163023e-02,  5.07005453e-01,  3.83746028e-01,
         3.85531001e-02, -6.18037097e-02,  1.02802724e-01,
        -4.62923557e-01, -9.79966745e-02, -1.11557014e-01,
        -1.57301471e-01,  2.86282182e-01, -2.70037472e-01,
         1.21863753e-01, -5.75229287e-01, -2.23920192e-03},
       {-4.96366709e-01,  4.21076128e-03, -1.60268039e-01,
        -3.64139497e-01,  2.15598479e-01, -2.51886584e-02,
         1.20601915e-01,  3.78066339e-02, -7.46224940e-01,
        -6.02194428e-01, -2.70202726e-01,  3.15372795e-01,
         3.68783027e-01, -4.83494878e-01,  5.04004918e-02,
         1.70210302e-01,  2.08285809e-01, -2.21192483e-02},
       {-5.66778064e-01,  2.70544797e-01,  3.19198400e-01,
        -6.50889874e-02, -1.84195284e-02,  3.60093027e-01,
        -3.83070946e-01, -1.87734231e-01, -4.19072658e-02,
        -2.32526455e-02,  3.03607970e-01, -3.59557718e-01,
        -4.49854881e-02,  2.11898595e-01, -3.46686125e-01,
        -1.93382144e-01,  1.11629525e-02,  5.77177629e-02},
       { 2.68390983e-01,  1.31498754e-01,  1.20992795e-01,
         4.00387019e-01,  1.12861380e-01, -3.33777554e-02,
         3.26309234e-01,  3.37182611e-01, -4.72183749e-02,
         8.16520378e-02, -9.37235653e-02, -3.30574274e-01,
         3.71605933e-01,  1.77921385e-01, -1.75230309e-01,
        -5.33050187e-02, -4.60077375e-01, -3.40954334e-01},
       {-9.00505930e-02,  2.32354291e-02,  9.99960955e-03,
         1.46937802e-01, -1.05983891e-01, -2.33219311e-01,
        -3.26524585e-01, -3.39579463e-01,  4.53710228e-01,
        -2.63288081e-01, -5.57765901e-01,  4.90901023e-01,
        -2.74345160e-01,  1.84863925e-01, -1.71448618e-01,
        -1.22424282e-01,  5.08580148e-01,  9.94449183e-02},
       {-6.28465340e-02, -1.93103373e-01, -2.54598260e-01,
        -2.52237856e-01,  8.96467343e-02, -2.06391886e-01,
         4.59008098e-01,  4.80167307e-02, -7.11202174e-02,
        -3.11867535e-01,  1.09486297e-01, -3.28555964e-02,
         2.38710120e-01, -1.66780293e-01, -5.18273413e-01,
        -3.16699892e-01, -4.90204722e-01, -1.44121367e-02},
       { 6.53851032e-02,  4.80401106e-02,  6.49113879e-02,
        -2.55053520e-01,  2.84140378e-01,  6.22850694e-02,
         3.74540389e-01,  3.59695882e-01,  5.98871112e-01,
        -7.76395807e-03, -1.24917194e-01, -2.04837248e-01,
         6.97404742e-02,  8.57288018e-02, -4.90782261e-02,
        -2.24725857e-01, -4.50760365e-01,  4.43053216e-01},
       { 9.42182988e-02,  1.19868210e-02, -8.79068673e-02,
         8.87435079e-02,  4.90772396e-01,  1.36660159e-01,
        -1.39549464e-01,  4.70803410e-01,  7.00485483e-02,
         3.76403093e-01, -2.45719254e-01,  1.08362243e-01,
         4.95668501e-01, -4.59874511e-01,  1.69048056e-01,
        -2.06586912e-01, -1.20811891e-02, -2.43319020e-01},
       {-2.96378471e-02,  1.08620264e-02,  1.26601964e-01,
        -3.90754670e-01,  4.95788939e-02, -2.18087390e-01,
         5.23408055e-01,  2.68956739e-02,  4.07817721e-01,
         3.16272229e-01, -3.36067170e-01, -3.15824598e-02,
         2.26359725e-01, -1.42208457e-01, -1.16294555e-01,
         3.73657942e-02,  1.50206849e-01,  1.98918000e-01},
       {-4.49770063e-01, -1.47300228e-01, -2.97996607e-02,
        -5.18620193e-01, -3.40351850e-01, -1.21268742e-01,
         1.04926147e-01, -1.30557656e-01, -7.84803033e-01,
         2.83767693e-02, -1.51599526e-01, -1.23129345e-01,
         3.22628528e-01,  3.82981032e-01,  1.71611622e-01,
         1.34556010e-01,  1.38630301e-01,  2.46327773e-01},
       {-2.08763152e-01, -4.17713344e-01, -2.40383551e-01,
         2.59379987e-02,  2.09719203e-02, -6.20060787e-02,
        -3.18605341e-02,  3.45970303e-01, -1.68281525e-01,
         8.73123631e-02,  4.07369643e-01,  1.58680066e-01,
         4.22553308e-02,  3.45715433e-01, -3.80094588e-01,
        -1.07273333e-01, -2.33400077e-01, -1.25009701e-01},
       { 2.01539040e-01,  6.90695494e-02,  5.37890494e-01,
         3.44968498e-01,  4.81120981e-02,  4.21805471e-01,
        -2.82238740e-02,  2.02650893e-02,  5.54987311e-01,
         4.21477156e-03, -2.15750292e-01, -1.95053741e-01,
         3.46134156e-02, -4.90124188e-02, -1.67929322e-01,
         4.73746993e-02, -3.62315029e-01,  3.47052589e-02},
       { 1.99412912e-01, -5.78920357e-03, -2.97048867e-01,
         3.15623909e-01,  1.03700116e-01,  5.04162312e-02,
        -2.51270056e-01, -3.15696496e-04, -2.93337792e-01,
         4.05070841e-01, -1.59719273e-01, -9.88474414e-02,
         3.60783637e-01,  4.89859998e-01,  3.21554691e-01,
         4.32156146e-01, -2.58780301e-01,  2.45087460e-01},
       { 9.26383659e-02, -1.76022649e-01,  8.37944150e-02,
        -1.64175570e-01, -1.03328452e-01,  1.29502863e-01,
        -3.17683071e-01,  5.37707865e-01,  3.25153232e-01,
         3.85498777e-02, -1.82204917e-01, -1.31516159e-01,
        -7.78733343e-02, -4.47508574e-01,  6.41223416e-02,
         1.70128673e-01,  4.46066141e-01,  2.01761067e-01},
       {-1.67461410e-01, -7.30142444e-02,  6.54474020e-01,
         7.68763348e-02,  2.13792138e-02, -1.37476875e-02,
        -1.39929608e-01,  1.86411843e-01,  1.16555728e-01,
        -1.06276147e-01,  2.44135074e-02,  8.30842033e-02,
        -6.75624311e-01, -9.54630226e-02, -1.97626412e-01,
        -1.86013341e-01,  5.06726027e-01,  8.98086876e-02},
       {-1.93771228e-01, -8.48777220e-02, -5.50056279e-01,
        -2.35592961e-01, -1.18098743e-02,  6.81940615e-02,
        -2.25307837e-01, -1.47307575e-01, -2.59852916e-01,
         3.43248069e-01, -2.49632224e-02,  1.41005278e-01,
         1.54954612e-01, -3.91975433e-01,  2.65249908e-01,
         1.12200998e-01,  5.12274981e-01, -2.78370589e-01},
       { 4.83622998e-01, -4.82338853e-02, -5.40136516e-01,
        -3.27933699e-01,  7.72752911e-02, -2.72135288e-01,
        -7.14002326e-02, -1.51226833e-01, -1.41087234e-01,
         1.02163009e-01, -3.60363930e-01, -1.27998115e-02,
         4.05651420e-01, -3.97259928e-02,  1.23181872e-01,
         1.84298918e-01,  3.82190645e-01,  3.07319313e-01},
       { 2.09554926e-01,  2.47345597e-01, -2.09956571e-01,
        -9.68894139e-02, -6.28504753e-01, -2.49823648e-02,
        -2.95582443e-01,  2.53759980e-01, -2.31620912e-02,
         2.82195769e-02,  1.84744686e-01,  9.97119248e-02,
        -2.55822003e-01,  4.59696762e-02, -2.43943945e-01,
        -1.08946808e-01, -2.21195698e-01, -2.67112225e-01},
       {-3.89607966e-01, -6.99663997e-01, -2.03022789e-02,
        -1.92889974e-01,  2.15432514e-02, -3.65882784e-01,
         1.94505572e-01, -1.10282347e-01, -1.10967688e-01,
         3.39605778e-01,  2.24443913e-01,  1.61196858e-01,
        -1.93142503e-01, -1.64274380e-01,  9.26360264e-02,
         2.66357541e-01,  1.53076559e-01, -3.80065590e-01},
       {-1.80903941e-01, -2.45080814e-02, -4.99236941e-01,
        -6.44990206e-02,  7.32125044e-02, -2.78661028e-02,
         2.50853747e-02,  4.68917668e-01, -2.11957693e-02,
        -8.53606090e-02,  9.47314650e-02, -2.27733657e-01,
        -3.84321511e-01, -3.90719652e-01,  1.14289455e-01,
         6.80304915e-02, -4.72483158e-01,  3.81821811e-01},
       { 8.73301998e-02, -1.21488787e-01,  1.83073774e-01,
        -5.90422973e-02, -1.46204039e-01,  1.18361311e-02,
        -2.11740330e-01, -2.13175625e-01,  1.44544452e-01,
        -1.59381509e-01,  2.10472211e-01, -7.00973382e-04,
         2.50400722e-01,  9.23278630e-02,  1.30306348e-01,
        -7.16708064e-01, -1.91715196e-01,  4.24873322e-01},
       { 6.90162182e-02, -2.46389106e-01, -7.52825141e-02,
         1.35880947e-01, -7.91323334e-02,  1.60618246e-01,
        -4.21773851e-01,  3.48812908e-01, -2.06283316e-01,
        -4.34552412e-03, -1.44485300e-02, -5.03775001e-01,
         7.95503706e-02,  1.16717396e-03, -4.87959385e-01,
        -1.39216304e-01, -2.56072462e-01, -2.31637657e-01},
       { 1.45494238e-01,  3.50594699e-01, -1.87200196e-02,
         3.03890675e-01, -2.67585754e-01, -1.54036343e-01,
        -3.30798984e-01, -1.60841987e-01,  2.19197452e-01,
         7.07034394e-02, -4.56365228e-01, -1.30843461e-01,
        -4.38221395e-01,  5.64957187e-02, -3.29452217e-01,
         5.56781627e-02,  4.71026711e-02, -4.40234780e-01},
       { 1.43887267e-01,  1.16740270e-02, -4.07691151e-01,
         3.40096653e-01,  1.16970830e-01, -1.05621494e-01,
        -2.32013166e-01,  3.69257718e-01,  6.74422264e-01,
         1.17662735e-01, -2.34920785e-01,  2.63264865e-01,
        -5.17310143e-01, -6.47313595e-01,  1.17507517e-01,
        -1.52753204e-01, -1.54844642e-01, -2.33351260e-01},
       { 1.69923127e-01,  1.26692474e-01,  4.03950185e-01,
        -5.01537099e-02,  2.81303376e-03, -5.25582917e-02,
        -2.23225266e-01, -1.00878760e-01, -1.65725425e-01,
         5.61963260e-01,  1.09395854e-01, -3.24858457e-01,
        -7.11997449e-02,  1.85322046e-01, -1.95616037e-01,
        -4.69667047e-01, -6.54216588e-01,  9.56210122e-02},
       {-9.89469886e-02,  5.80579862e-02,  1.84446633e-01,
        -3.96403104e-01,  2.12785304e-01, -1.97700754e-01,
         1.99776113e-01,  9.19564590e-02, -3.77279699e-01,
        -3.43357414e-01, -1.98896363e-01,  2.26723298e-01,
         1.26848444e-01,  4.57100511e-01, -1.18274070e-01,
        -8.15642178e-02,  3.63534063e-01,  1.64792817e-02},
       {-1.19255938e-01,  2.44795680e-01, -1.76635310e-01,
         1.27855092e-01, -5.76173887e-04,  3.25297773e-01,
        -2.98649102e-01,  1.35382518e-01,  4.12879229e-01,
         2.53896639e-02, -4.57613885e-01, -3.76402617e-01,
        -4.13219817e-02,  3.19319665e-01, -1.61469832e-01,
         4.12230700e-01,  2.85877977e-02,  8.00312981e-02},
       { 1.96595695e-02, -1.68771341e-01,  2.45760664e-01,
         7.98153505e-02, -4.84147996e-01,  7.37914369e-02,
         2.68376648e-01,  4.90948975e-01, -1.38621897e-01,
         2.16917589e-01, -1.03850462e-01, -5.31864874e-02,
        -3.69656116e-01, -1.52260154e-01, -4.17278260e-02,
        -2.46169674e-03, -2.13793591e-01, -1.43461138e-01},
       {-8.19375515e-02, -6.05780557e-02, -7.28336573e-02,
        -3.23998630e-01, -4.55528088e-02,  2.04754576e-01,
         4.16613638e-01,  1.69161722e-01,  1.17584206e-01,
        -1.06666729e-01, -3.28425676e-01, -1.61097631e-01,
         6.35678947e-01,  5.38551092e-01, -2.35137925e-01,
         4.83815819e-02,  3.70013744e-01,  1.13161922e-01},
       {-3.64214897e-01,  1.75717309e-01,  6.44808710e-02,
        -7.82750323e-02, -4.61261161e-02,  2.28789642e-01,
         6.17909990e-02, -4.85396057e-01,  5.13368905e-01,
         3.08752842e-02,  5.49700737e-01,  3.51744086e-01,
        -1.41515285e-01,  1.41263679e-01,  2.14603975e-01,
        -1.97793990e-01,  8.39575902e-02,  7.77996182e-02},
       { 2.95609683e-01, -2.61463672e-01,  1.44306540e-01,
        -6.01736307e-02, -3.89333963e-02, -1.03030600e-01,
         4.45165843e-01,  2.78682619e-01, -9.79173090e-03,
        -1.30892709e-01, -3.37759465e-01,  1.60144605e-02,
         2.70303756e-01, -2.82109320e-01, -4.49158132e-01,
         2.98482794e-02,  9.72319394e-02, -3.52721155e-01},
       { 1.81833357e-01, -1.21829405e-01,  4.09795493e-01,
         8.89499336e-02, -2.94061363e-01,  2.46005915e-02,
         2.26649165e-01, -1.27257675e-01,  5.11492193e-01,
         3.19254935e-01,  3.40082556e-01, -1.66884184e-01,
         1.79441065e-01,  4.30473655e-01,  2.93327600e-01,
         2.03773499e-01, -6.04717433e-02,  2.27779016e-01},
       { 7.52494410e-02,  8.26404691e-02,  2.56090164e-01,
         4.39704321e-02,  2.99163491e-01,  8.18698108e-02,
        -9.72641185e-02,  2.97760308e-01,  1.05260340e-02,
        -2.70638764e-01,  5.24160385e-01,  4.65135694e-01,
        -4.01133150e-01, -1.53238133e-01, -1.62363306e-01,
        -3.83006841e-01,  3.58405620e-01,  1.34068042e-01},
       { 2.07488984e-01,  2.54910976e-01,  1.24150842e-01,
        -1.53185576e-01, -4.19264793e-01, -2.03920290e-01,
         1.50686512e-02, -2.24828627e-02, -8.10244679e-02,
        -8.58717039e-02,  8.52055326e-02, -2.55548924e-01,
         1.29813388e-01, -7.09120482e-02, -1.11019656e-01,
         6.09344721e-01, -3.25303912e-01,  5.62924325e-01},
       {-1.75512195e-01,  4.15498972e-01, -9.10661966e-02,
         2.07788542e-01, -4.80215967e-01,  9.92694497e-02,
         1.83403105e-01,  3.46451402e-01, -7.71425813e-02,
        -5.98042905e-02, -3.00175715e-02,  2.98384689e-02,
         5.04896939e-02, -4.90810238e-02,  1.72164053e-01,
         2.43945003e-01, -3.27498987e-02, -3.61082971e-01},
       {-8.74943957e-02, -8.00684467e-03, -1.35764748e-01,
         2.23819479e-01, -3.89316142e-01, -5.51092476e-02,
         5.89704439e-02, -5.05913854e-01, -1.08612724e-01,
        -5.43792881e-02, -2.34409273e-01,  2.89447784e-01,
         1.82713624e-02, -2.95745134e-01, -2.42751673e-01,
        -1.68045059e-01, -1.92359701e-01,  5.60144603e-01},
       { 7.60947913e-02,  3.35411906e-01, -7.39853922e-03,
        -2.16624007e-01,  2.16072917e-01, -1.74558610e-01,
         3.99700738e-02, -1.13279290e-01, -4.17871594e-01,
         3.75947237e-01,  3.54830027e-01, -1.18177831e-01,
         4.54216331e-01, -2.14056820e-02,  1.23525992e-01,
        -2.70759732e-01, -1.88910365e-01,  3.39978367e-01},
       { 2.83765227e-01, -5.10920025e-02, -1.15811527e-01,
        -5.53325610e-03,  2.93911636e-01, -4.65583235e-01,
        -1.33866832e-01, -3.29073668e-01, -4.03234102e-02,
        -4.76050854e-01, -2.05254734e-01,  2.95779288e-01,
         7.02220351e-02, -2.40788653e-01, -4.80996817e-01,
         2.86278278e-01,  2.32143611e-01, -1.14267178e-01},
       {-4.26433921e-01,  2.23975733e-01,  1.51196644e-01,
        -2.65860349e-01,  1.55460099e-02,  3.72882247e-01,
        -8.42953771e-02,  4.24802676e-02, -3.42443198e-01,
         1.20861769e-01,  1.01759829e-01, -3.92759919e-01,
        -3.04542065e-01, -2.68136770e-01, -8.48841146e-02,
        -2.13183641e-01,  1.09619908e-01, -5.92013001e-02},
       {-1.99046746e-01,  1.42140970e-01,  7.18754008e-02,
        -8.47758278e-02,  8.47546160e-02, -1.49746224e-01,
        -3.47281903e-01, -2.36616686e-01, -4.96996522e-01,
         2.34906226e-01, -1.67046825e-03, -3.42060357e-01,
        -1.90336555e-01,  2.55482733e-01,  4.37979043e-01,
         4.72381413e-02,  3.95804614e-01,  1.73279256e-01},
       { 3.11769933e-01,  1.16419710e-01,  2.50531793e-01,
         4.92903799e-01, -2.75481105e-01,  8.76767635e-02,
        -1.61881045e-01,  1.33398861e-01,  2.80594349e-01,
        -1.39893532e-01,  1.89767018e-01,  2.19038595e-02,
        -4.03855354e-01, -4.02095973e-01,  2.15551585e-01,
         3.26918334e-01,  5.52955866e-02,  2.77249187e-01},
       {-4.86289449e-02, -1.41261652e-01, -2.54540667e-02,
        -2.89457262e-01, -1.80951193e-01,  1.55852780e-01,
         5.29006012e-02,  2.52030611e-01, -4.39532310e-01,
         6.98128045e-01, -3.41121018e-01, -5.06572068e-01,
         2.66007900e-01, -2.46400818e-01, -1.72063500e-01,
        -1.78396404e-01,  9.10236090e-02, -1.66051432e-01},
       { 2.16758907e-01, -2.45366558e-01,  8.07302073e-03,
         4.93218563e-02,  4.72030669e-01,  1.39886022e-01,
         2.88903385e-01,  2.88924009e-01,  2.57365286e-01,
        -3.93909425e-01,  8.43016803e-02, -1.28107861e-01,
        -1.54737219e-01, -3.58771414e-01, -2.62569100e-01,
         9.80817364e-04,  4.64022130e-01,  2.54149050e-01},
       { 1.39377654e-01, -4.25539702e-01,  4.70225960e-01,
         4.09108549e-02, -1.22575916e-01, -5.60688600e-02,
         3.42350215e-01, -3.40976000e-01, -1.37531519e-01,
         1.28063694e-01, -1.58448458e-01, -5.75394869e-01,
        -3.43022257e-01,  1.75454766e-01, -3.50026637e-02,
        -1.06093749e-01,  1.47516832e-01,  4.20470208e-01},
       { 5.47436289e-02, -2.40572274e-01,  2.46320337e-01,
        -2.04837620e-01, -2.43937567e-01,  2.24653423e-01,
        -1.29811987e-01, -8.09872746e-02,  1.65962338e-01,
        -7.96377137e-02, -1.50148690e-01,  2.21127227e-01,
         1.71577111e-01,  1.95871189e-01, -3.92636389e-01,
         6.74626887e-01,  1.80792913e-01, -2.29141802e-01},
       {-6.77451715e-02, -2.59561568e-01, -2.87601709e-01,
        -1.07574031e-01, -2.29208276e-01, -1.88743532e-01,
         2.42773667e-01, -1.25470921e-01,  2.28857309e-01,
        -2.17477962e-01, -1.00407645e-01, -2.81239301e-01,
        -1.95188507e-01, -5.34817949e-02,  3.45029742e-01,
         2.68790573e-01, -2.59979784e-01, -3.34883958e-01},
       {-4.72620904e-01,  1.80647656e-01, -5.21977127e-01,
         1.49753392e-01, -5.00962734e-01,  9.05982032e-03,
        -1.08344154e-02, -1.75501928e-01,  1.78280681e-01,
         1.37740597e-01,  1.53024450e-01, -1.78348407e-01,
        -3.54054153e-01, -2.58612223e-02,  1.08269446e-01,
        -2.34739825e-01,  8.15507248e-02, -6.63740337e-02},
       { 1.44787744e-01, -1.56587496e-01, -2.72573799e-01,
         2.79930383e-01,  9.86652523e-02, -3.82402897e-01,
         1.42532021e-01,  2.68796027e-01, -3.50563154e-02,
        -1.36637062e-01, -3.98773670e-01,  2.88379461e-01,
        -2.30910137e-01,  2.02218756e-01,  2.62135834e-01,
        -1.34133562e-01,  2.60941803e-01, -3.91905636e-01}}, dtype=float32), '_hidden_layers.0._model.0.bias': array({ 0.06353965,  0.00994455,  0.11820409,  0.1235376 ,  0.05236159,
       -0.00571496,  0.00557547, -0.04342565,  0.08455552,  0.06679415,
        0.02544999, -0.06236246,  0.00736475, -0.06023501, -0.09620374,
       -0.09452838,  0.08976519, -0.06324199, -0.05248442,  0.05690984,
       -0.0963278 ,  0.00720054,  0.02761643,  0.07600674, -0.00505881,
        0.07255632,  0.05343764, -0.00035042, -0.06300481, -0.11018627,
        0.00797114, -0.01062153,  0.01034181,  0.00142953,  0.04372523,
       -0.02802402,  0.04542246, -0.02650855, -0.08788607, -0.02507329,
       -0.03672553,  0.12141984, -0.05000572,  0.03221453,  0.03343036,
        0.02667616, -0.01978348, -0.02388069,  0.13478294, -0.032243  ,
        0.00425204,  0.02947946,  0.06440647, -0.04175116,  0.03426687,
       -0.01848709,  0.03641184, -0.01971592,  0.04039303,  0.01338465,
        0.05209342,  0.01168891,  0.08774652,  0.02055753}, dtype=float32), '_hidden_layers.1._model.0.weight': array({{ 2.04670709e-02,  1.31066948e-01, -1.24613598e-01,
        -9.22989622e-02, -1.25824928e-01, -8.49137306e-02,
        -4.21818793e-01,  3.37615572e-02, -2.04315051e-01,
        -1.83016464e-01,  2.32180837e-03,  5.25194183e-02,
         6.14466146e-02, -2.32470706e-01,  6.43400848e-02,
        -2.39934355e-01, -3.00098330e-01,  5.15156649e-02,
        -1.94600567e-01, -2.16366217e-01,  1.61510631e-01,
         1.64435714e-01, -1.70190185e-01,  1.48806376e-02,
        -2.15383798e-01, -2.50555817e-02,  2.36505762e-01,
        -1.04489915e-01,  1.04826270e-02, -8.30418989e-02,
        -1.52164474e-01,  1.77527033e-02,  2.49924764e-01,
         3.06641340e-01,  5.21139391e-02,  8.52470770e-02,
        -1.85588393e-02, -5.31708337e-02, -2.30231345e-01,
         1.97023168e-01, -1.15992337e-01,  2.04810277e-02,
         8.25348794e-02, -1.76351339e-01, -3.14776823e-02,
         1.71632823e-02, -9.68578458e-03, -3.39718401e-01,
        -1.14946783e-01, -8.25101510e-02,  1.95220183e-03,
         9.79665108e-03,  2.33760685e-01, -1.78288639e-01,
        -8.41451883e-02,  6.86373785e-02, -1.76312953e-01,
         3.09428543e-01, -5.84602430e-02,  5.30098602e-02,
         3.32368612e-02,  1.73137397e-01,  1.61628440e-01,
         1.04101546e-01},
       { 4.14654873e-02,  2.30382800e-01, -6.07328862e-03,
        -1.07491285e-01,  9.10996646e-02, -5.54786948e-03,
        -2.37646937e-01, -8.95331502e-02,  5.96081279e-02,
         1.56555250e-01,  1.31295249e-01, -1.13273546e-01,
        -7.38816857e-02, -2.09060669e-01,  6.10847659e-02,
        -3.90743345e-01,  1.88659415e-01, -9.79234576e-02,
         2.45520398e-01,  2.94412300e-03, -1.89558193e-01,
        -6.36368841e-02,  3.37951183e-02,  8.15855488e-02,
        -3.90739106e-02, -1.97073027e-01,  1.31505400e-01,
         1.20381847e-01, -2.70226508e-01,  3.34496871e-02,
         1.65537179e-01, -1.08225651e-01, -1.67233348e-02,
        -1.30965322e-01, -1.34759054e-01, -4.66409838e-03,
         6.59392476e-02, -7.77485594e-02,  2.98672151e-02,
        -3.51593643e-01,  2.35395864e-01, -1.36410117e-01,
        -1.99784227e-02, -2.90436484e-02,  2.59099692e-01,
         1.98918208e-01, -1.79576933e-01, -9.62134004e-02,
         1.29870042e-01, -1.75072610e-01,  5.41573241e-02,
         1.29426569e-01,  2.28846595e-01,  1.90013751e-01,
        -9.11125839e-02,  1.25138357e-01, -1.89810116e-02,
         8.30597878e-02,  1.00321442e-01,  6.13185093e-02,
        -1.99439108e-01,  1.01519637e-01, -7.68371448e-02,
        -2.44621988e-02},
       { 1.47546723e-01, -1.01995163e-01, -4.05799337e-02,
        -1.31397724e-01, -5.84988156e-03,  1.25342101e-01,
        -6.20571487e-02, -4.21680719e-01, -9.92073044e-02,
         4.14123619e-03,  1.83151197e-02, -3.28334011e-02,
         1.91031247e-01,  1.24545060e-01, -4.89111990e-02,
        -8.35837573e-02,  1.84088066e-01, -1.21197745e-01,
         1.44992933e-01,  1.55935273e-01,  1.76180340e-02,
        -2.17171032e-02, -2.56027710e-02, -2.36458145e-02,
        -5.95716424e-02, -4.90633957e-02, -1.69753619e-02,
        -1.40980035e-01, -5.88903949e-02,  2.75229663e-01,
         1.72017664e-01, -9.15682688e-02,  1.14593334e-01,
        -6.92114010e-02,  3.22343916e-01,  1.45210430e-01,
         8.45421180e-02,  8.60226676e-02, -1.30232364e-01,
         1.39027108e-02,  1.53956115e-01, -1.67571992e-01,
         1.45222843e-01, -1.62662163e-01,  1.29342163e-02,
        -1.56453535e-01,  2.32082620e-01,  5.03053032e-02,
         1.02061123e-01, -1.72513798e-02, -3.27123672e-01,
         2.57979363e-01, -2.01709032e-01, -9.35088620e-02,
        -2.74964392e-01,  2.32741404e-02, -2.29178686e-02,
        -4.41284776e-02, -8.56463537e-02,  2.07739219e-01,
         3.74745354e-02, -7.56558850e-02, -1.37561960e-02,
        -1.00458730e-02},
       { 1.26757532e-01,  6.00888655e-02,  3.19824785e-01,
         1.76776871e-02,  9.60972160e-02, -4.72977385e-02,
         1.29696466e-02, -1.54599994e-01, -1.81315795e-01,
        -2.58938015e-01, -8.72443765e-02, -2.64279097e-01,
        -8.80031362e-02,  5.88783994e-02, -1.05157085e-01,
         2.23764591e-02, -2.30054408e-01, -1.16953857e-01,
         1.91194922e-01,  6.09481297e-02, -9.38664451e-02,
         2.44950894e-02, -2.19747275e-02, -1.60684332e-01,
         2.62936711e-01,  1.78111628e-01,  5.11107482e-02,
         1.39067501e-01, -5.67534976e-02,  1.87992305e-02,
        -5.88944778e-02, -2.69142557e-02,  4.37818691e-02,
         2.66888756e-02, -9.54371467e-02,  1.56017780e-01,
         2.02584326e-01, -8.13573375e-02, -6.31961226e-02,
        -3.77920777e-01,  1.82211459e-01, -4.81911339e-02,
         1.80455670e-01, -1.20437779e-02,  1.38457015e-01,
        -2.01485250e-02, -2.69992631e-02, -2.52690837e-02,
        -2.50889640e-02, -8.04677233e-02, -2.16687471e-01,
        -1.02433503e-01,  1.34794667e-01,  9.14990902e-02,
         1.37152955e-01,  1.87947974e-01, -2.77222931e-01,
         1.96088657e-01, -8.32521915e-02, -2.17654146e-02,
         1.30079702e-01,  2.54901070e-02, -8.03524256e-02,
         6.47324556e-03},
       { 1.97325144e-02,  1.32469997e-01,  3.48176174e-02,
        -2.00862467e-01,  2.11511925e-01,  1.03774697e-01,
         6.67667538e-02, -3.49023461e-01, -9.37375128e-02,
         2.97340542e-01, -6.83646724e-02, -1.85834039e-02,
        -1.89755917e-01,  1.89391840e-02, -3.68230529e-02,
         2.56850123e-01,  1.13083117e-01,  5.33190966e-02,
         5.42869307e-02,  3.19398493e-01,  1.82285588e-02,
        -5.57153411e-02,  1.58902735e-01, -1.92234479e-02,
         2.11606398e-01, -1.39903918e-01, -1.51470691e-01,
         1.10848859e-01, -6.03128262e-02, -1.37976095e-01,
         5.58239855e-02,  1.84622034e-01, -4.62972857e-02,
        -4.76640649e-02, -2.91605830e-01, -2.69297004e-01,
         1.83299035e-01, -7.31737241e-02, -8.35870802e-02,
        -9.23166722e-02,  9.32391286e-02, -2.00763643e-01,
         8.05723518e-02,  1.74824819e-01,  3.85158807e-02,
         1.56551751e-03,  9.12120342e-02,  1.22935236e-01,
         7.65066817e-02,  7.81855136e-02, -5.16083762e-02,
        -1.13468794e-02, -4.03701439e-02,  3.77849378e-02,
         1.77968144e-01, -2.16691270e-01,  2.91174743e-02,
         2.95424461e-01,  6.90874318e-03,  1.70408010e-01,
         2.62765974e-01,  4.73696329e-02, -7.99899623e-02,
        -3.55938703e-01},
       { 3.95015888e-02,  6.87584281e-02,  3.64719890e-02,
        -5.66418655e-02, -3.50394566e-03,  5.03121056e-02,
         1.91310436e-01, -3.57569605e-01,  6.78939000e-02,
        -5.35637978e-03,  6.06039055e-02, -9.44417343e-02,
        -3.35567864e-03, -1.64027810e-01, -1.01308979e-01,
        -1.20780244e-02,  1.17814682e-01, -9.63069946e-02,
        -2.05099210e-01,  1.85980126e-01, -6.12328807e-03,
        -3.17089483e-02, -2.28445902e-01,  2.02997863e-01,
         1.27316406e-02,  2.84436196e-01, -1.31715253e-01,
        -7.10639134e-02, -1.11669540e-01, -2.76713341e-01,
        -3.76364626e-02,  1.42857075e-01, -1.66865453e-01,
         1.58720259e-02,  3.28093730e-02,  4.17398959e-02,
         1.95463672e-01, -2.56168067e-01, -2.31863752e-01,
         7.43670613e-02, -6.76828697e-02,  1.43648088e-01,
        -7.90241957e-02,  1.91137001e-01,  6.16111010e-02,
         2.56218284e-01, -2.50894483e-02, -2.16829374e-01,
         1.17606029e-01, -1.98216185e-01,  1.18656762e-01,
         7.91192055e-02,  1.69540048e-01,  2.83112824e-01,
        -3.68576758e-02, -9.37165786e-03, -4.06932719e-02,
         1.24446355e-01, -6.44820035e-02,  1.15676243e-02,
         7.85889756e-03,  1.31282777e-01, -3.56454663e-02,
        -8.72211903e-02},
       {-1.79076195e-01,  1.75886583e-02, -9.37692672e-02,
        -1.06196657e-01, -1.06882878e-01,  5.62997442e-03,
        -3.21245268e-02, -9.79669690e-02,  9.00417641e-02,
         2.37815276e-01, -3.89046296e-02,  1.23403594e-02,
        -1.44420922e-01,  9.16309208e-02, -7.63596371e-02,
        -8.25726837e-02,  1.49730474e-01, -5.91035262e-02,
         3.55664976e-02,  4.12213579e-02, -8.38494822e-02,
        -1.84892729e-01, -3.82592201e-01, -2.52237648e-01,
         7.40383416e-02,  1.21788219e-01,  2.89567448e-02,
         2.76328415e-01, -2.80100312e-02,  9.43848416e-02,
         7.25756884e-02, -6.12952933e-02,  1.63976140e-02,
        -2.24158645e-01,  2.33174503e-01,  2.63834391e-02,
        -5.78495935e-02,  3.06209981e-01, -1.56932205e-01,
        -1.73732862e-01,  1.27797136e-02,  3.40150267e-01,
        -3.22363302e-02,  3.83656502e-01,  2.35650931e-02,
        -8.62354636e-02, -4.85946098e-03,  2.62711227e-01,
         1.61304902e-02, -6.23257123e-02, -1.19955666e-01,
         1.01023614e-01,  1.16777848e-02, -1.13940381e-01,
        -2.82498095e-02, -4.11357768e-02, -1.95150733e-01,
         9.57034454e-02,  8.88932422e-02, -4.37348075e-02,
         1.42499041e-02,  1.29886061e-01, -1.70334950e-01,
        -1.15589820e-01},
       {-1.11470383e-03, -1.63372025e-01,  1.72702253e-01,
         3.15742642e-01, -1.89824313e-01,  2.06979170e-01,
        -1.08002335e-01,  1.15617163e-01, -1.90219358e-02,
         1.93481117e-01, -2.21022770e-01, -5.60947992e-02,
        -1.29207596e-01, -8.37610140e-02,  8.15769583e-02,
        -2.24611778e-02, -2.02339664e-02, -5.60245030e-02,
         1.28172133e-02,  5.65664470e-02, -2.74251550e-01,
         3.43796611e-02, -2.16209069e-01, -2.72002332e-02,
        -1.41771242e-01,  2.45774329e-01,  7.54705667e-02,
        -5.50121814e-02,  9.70874354e-02, -2.07244515e-01,
         7.83774033e-02, -8.27404018e-03,  8.49724188e-02,
         1.09721340e-01,  1.71779826e-01, -3.12971562e-01,
        -1.08469266e-03,  1.69993222e-01,  6.06795177e-02,
         6.05568737e-02, -2.11575270e-01, -4.92224395e-02,
        -6.73964433e-03,  1.26650974e-01, -1.23177573e-01,
         2.34407987e-02,  1.12669528e-01,  1.35940447e-01,
        -3.67472887e-01, -6.94329739e-02, -9.72586423e-02,
        -1.96030334e-01, -1.22096188e-01, -1.38709277e-01,
         1.90177843e-01, -2.50890329e-02,  1.13001667e-01,
         1.22139659e-02, -6.57010972e-02, -1.18039669e-02,
        -7.60922506e-02,  1.07801862e-01,  9.95793417e-02,
        -6.87095225e-02},
       {-1.22272454e-01, -1.48620680e-01,  1.04254209e-01,
         1.13869458e-01,  8.45468566e-02,  1.03926376e-01,
         1.91924825e-01, -1.38416752e-01, -1.20964400e-01,
        -2.03656271e-01,  4.30794843e-02,  7.93521479e-02,
        -1.01903610e-01,  3.04203369e-02, -8.52896422e-02,
         3.29141654e-02,  6.00632094e-02,  2.71339510e-02,
        -6.23606332e-02, -2.87096240e-02,  2.42183078e-03,
        -1.25368442e-02, -1.21037178e-01, -1.18374921e-01,
        -9.94591266e-02,  1.39037371e-01,  7.26164691e-03,
         1.02975562e-01, -7.88123310e-02, -1.77159816e-01,
         4.95702773e-02,  4.01226319e-02,  8.92858505e-02,
        -3.73964012e-01,  2.88962990e-01,  2.45618541e-02,
        -1.27376057e-02, -3.57453793e-01, -1.20102547e-01,
        -1.46428630e-01, -3.19632649e-01,  1.20081969e-01,
         6.00014701e-02, -7.99494758e-02,  7.94795826e-02,
         2.45024581e-02, -1.79438874e-01, -1.24220299e-02,
        -5.28970473e-02,  3.47646743e-01,  1.40686631e-01,
         2.11038917e-01,  2.60672569e-01,  1.58800744e-02,
        -3.67719121e-02,  7.04918355e-02, -1.83007866e-01,
        -9.90285203e-02, -2.06059501e-01,  9.17028189e-02,
        -5.39814606e-02,  7.44716004e-02, -2.38457948e-01,
         4.42212187e-02},
       { 4.37370352e-02, -1.21756114e-01, -8.07981491e-02,
        -2.69061953e-01,  2.72664707e-03, -7.36957267e-02,
         1.31299794e-01, -2.98682135e-02,  4.17800993e-02,
        -8.43940601e-02, -3.89797986e-03,  1.30608693e-01,
        -3.79474647e-02,  6.96205795e-02, -1.61985591e-01,
         1.73894972e-01,  8.78348127e-02,  2.59875327e-01,
        -5.95284700e-02,  2.09088013e-01, -8.67885128e-02,
        -1.63869664e-01,  7.97715932e-02, -1.23920348e-02,
         7.45126531e-02,  8.02026242e-02,  2.16161788e-01,
        -7.55200908e-02, -1.76627383e-01, -5.12082092e-02,
         1.71190292e-01, -1.43681154e-01,  2.06706032e-01,
        -2.76373699e-02,  1.98761567e-01,  5.62877394e-02,
        -4.28807825e-01, -7.64040928e-03, -9.57465917e-03,
        -9.96792223e-03,  6.09147698e-02,  7.38575831e-02,
         3.05495828e-01, -1.94360130e-02,  2.20506206e-01,
        -1.03877172e-01,  1.23996496e-01, -7.06334552e-03,
        -4.24451977e-02, -2.47492306e-02,  1.59857795e-01,
        -1.67279646e-01, -1.08829159e-02, -4.80482094e-02,
        -1.52240366e-01, -3.34354341e-01, -4.40582074e-02,
         2.15919137e-01, -2.21018150e-01, -1.46710083e-01,
         2.04021245e-01,  1.64882526e-01,  1.53173804e-01,
        -5.60665503e-02},
       { 1.27217956e-02, -1.11402467e-01,  2.71328930e-02,
         9.52115506e-02, -2.39409525e-02, -1.97629973e-01,
         1.90756127e-01, -2.60609505e-03, -1.10453172e-02,
        -1.15509517e-01,  1.11535592e-02, -2.69792732e-02,
        -7.22035021e-03,  2.49513745e-01,  3.90587181e-01,
        -1.52589202e-01,  1.12229973e-01,  4.04996872e-02,
         1.07926950e-02,  1.80385813e-01,  2.42336914e-01,
         1.14136590e-02, -1.36514843e-01, -5.00557274e-02,
        -3.99018563e-02, -7.34369084e-02,  1.08889855e-01,
         6.50791526e-02, -8.34013298e-02,  2.45471179e-01,
         4.17955443e-02, -1.72720850e-02,  5.57297282e-02,
         3.17763910e-02, -6.06820211e-02,  1.41332343e-01,
        -4.36482459e-01,  2.67359287e-01, -5.46228886e-02,
         1.79535076e-01, -2.09986884e-02,  3.22502889e-02,
         1.57941476e-01, -2.95893192e-01, -1.90010145e-01,
        -1.28746524e-01,  8.29348639e-02,  1.29482895e-01,
        -1.49597123e-01, -1.88402429e-01,  1.22691333e-01,
         6.63208887e-02, -1.26037493e-01,  2.92395744e-02,
        -8.97039622e-02, -4.61331978e-02,  1.86753407e-01,
        -1.35170370e-01,  3.77046727e-02,  1.08289182e-01,
         1.46053545e-02,  6.66919574e-02, -7.12415054e-02,
         3.90946716e-02},
       { 1.46703064e-01, -1.33902580e-01, -1.32496312e-01,
         7.41782039e-02, -2.84976572e-01,  1.69563740e-02,
         8.22180286e-02,  2.50171889e-02,  1.58987958e-02,
         3.02947879e-01,  5.62957563e-02,  1.09801993e-01,
        -1.21185772e-01,  1.88079625e-01, -4.36662622e-02,
        -2.83469744e-02, -5.41106164e-02, -1.33232862e-01,
        -1.59854963e-01,  1.49085894e-01, -8.04871172e-02,
        -9.18199420e-02, -1.07753895e-01, -1.87490895e-01,
        -7.09220394e-02, -8.69116932e-02,  1.15334116e-01,
         4.95861359e-02, -8.79353061e-02,  1.94453269e-01,
         9.85493436e-02,  3.27617228e-02, -1.77090570e-01,
         1.61948860e-01,  2.46063843e-02, -2.19724953e-01,
        -5.13303913e-02, -1.71069987e-02,  3.36619347e-01,
        -5.92667274e-02, -6.68505579e-02, -2.32115373e-01,
         1.64734945e-01,  1.11755468e-01,  1.64708063e-01,
        -3.39061767e-02,  1.24703571e-01,  1.50085822e-01,
        -1.81721866e-01,  4.82691750e-02,  2.25559071e-01,
        -6.66124150e-02,  7.25069493e-02,  1.13187323e-03,
         5.32070957e-02,  1.11137196e-01,  6.98439330e-02,
        -1.92222655e-01, -1.74600512e-01, -3.11827883e-02,
         1.78812191e-01, -2.83762574e-01,  6.71229849e-04,
        -2.57865399e-01},
       { 7.52405673e-02, -1.12456508e-01, -1.05070129e-01,
         1.10635199e-01, -2.39934921e-02, -2.10735112e-01,
         1.44033477e-01, -4.71235998e-02, -1.17193773e-01,
        -3.59505527e-02, -6.03320375e-02,  1.45379184e-02,
        -4.26126942e-02, -8.97155479e-02,  2.18610421e-01,
        -4.51774411e-02, -8.33099857e-02, -4.21411246e-02,
        -2.63914406e-01, -1.42362952e-01,  1.76926181e-02,
        -1.59897193e-01, -6.00791126e-02,  9.11036730e-02,
         8.33872333e-02,  9.11053345e-02,  3.65272909e-01,
        -9.45023820e-03, -9.06161740e-02,  1.87500846e-02,
        -1.20679259e-01,  9.23945233e-02, -9.17606521e-03,
        -3.00192803e-01, -4.77225371e-02,  1.59431502e-01,
         1.97834626e-01, -8.89907703e-02, -3.66481125e-01,
         1.54047370e-01, -2.18719587e-01, -2.25781307e-01,
         1.60277173e-01,  9.58628356e-02, -6.03042319e-02,
         2.07763668e-02, -1.23239316e-01, -9.78167951e-02,
         8.60507041e-02, -9.60822478e-02, -1.93892330e-01,
        -1.20186873e-01,  1.18400499e-01, -7.53247365e-02,
        -2.41452724e-01, -1.92118630e-01,  1.98425487e-01,
        -7.96303600e-02,  2.49462605e-01, -1.50312781e-02,
        -3.87237743e-02,  3.67118837e-03,  5.41695207e-02,
        -1.19982781e-02},
       {-2.27210060e-01,  2.97832582e-02,  1.18365074e-02,
         8.52501765e-02, -3.22322816e-01, -2.66420934e-02,
         1.36173880e-02,  2.38856804e-02,  1.35794759e-01,
        -1.56674072e-01, -2.20398113e-01, -1.19436057e-02,
        -2.37627432e-01, -1.06278308e-01,  2.32180990e-02,
         1.21987119e-01, -1.32851437e-01, -5.63573055e-02,
         3.25503573e-02,  1.47874337e-02, -1.29645482e-01,
         1.57640517e-01, -6.57464117e-02, -6.28953874e-02,
        -8.22757930e-02,  7.12966099e-02,  5.04191890e-02,
         4.34672609e-02,  3.32985848e-01,  2.26775303e-01,
         7.36117139e-02,  1.01066148e-02, -4.75848764e-02,
        -4.50057955e-03,  1.45682499e-01, -9.62226745e-03,
        -3.13464910e-01,  2.53474861e-01,  1.29040450e-01,
        -2.90242761e-01, -5.06978780e-02, -8.07179958e-02,
        -1.19607843e-01,  1.46306276e-01, -8.35846290e-02,
         8.80493075e-02,  2.48970926e-01, -1.17859524e-03,
        -8.65570307e-02,  8.62189606e-02,  1.08935490e-01,
        -1.91536024e-02, -4.40950133e-02,  3.54225412e-02,
         7.51491189e-02, -1.54222906e-01, -3.07616591e-02,
         9.71006826e-02, -1.53432310e-01, -4.64843959e-02,
         2.64456570e-01,  1.62838042e-01,  2.77289540e-01,
         1.79616451e-01},
       { 3.06623697e-01, -2.48559520e-01,  1.09327897e-01,
        -4.18143310e-02, -1.02461778e-01, -1.59656167e-01,
         7.75664002e-02, -1.29466504e-02, -1.88609064e-01,
        -2.20471874e-01,  1.57700986e-01, -3.13762248e-01,
         1.45124480e-01, -1.68865416e-02,  5.99990077e-02,
        -1.24509044e-01, -1.46893173e-01, -3.11094485e-02,
         2.44521592e-02, -3.03215146e-01,  8.86262059e-02,
         4.56555150e-02, -1.72427427e-02, -5.39348423e-02,
        -2.74438877e-02, -3.95313576e-02, -2.04618320e-01,
        -8.94999653e-02, -2.78669540e-02,  6.94302768e-02,
         6.96647838e-02, -1.06077634e-01,  1.88591525e-01,
         2.19336133e-02, -1.00721620e-01,  3.90167609e-02,
         1.41659141e-01, -1.69570714e-01,  1.47626102e-01,
        -4.63545546e-02, -1.79527849e-01, -2.53911316e-02,
         1.92010358e-01,  6.04087673e-02,  3.95466909e-02,
         1.42733142e-01, -1.70216918e-01, -1.12848275e-03,
         1.00273713e-01, -1.10248193e-01,  6.60937279e-02,
        -1.19893543e-01,  2.10926577e-01, -4.55932319e-02,
        -5.24466783e-02,  2.07363427e-01, -3.08187693e-01,
        -1.32807698e-02,  1.27758101e-01, -1.99768823e-02,
        -2.59729236e-01, -2.53181607e-01, -1.61501132e-02,
        -4.57524098e-02},
       {-2.72711873e-01,  3.31493504e-02,  1.40391082e-01,
         4.50933725e-02, -2.32132658e-01,  2.04676256e-01,
         1.54207855e-01,  1.98500127e-01, -1.70532435e-01,
        -7.31685832e-02, -1.59444451e-01,  8.88459906e-02,
        -2.21390021e-03, -1.96442187e-01, -7.36582652e-02,
        -2.46625975e-01,  3.18166852e-01,  5.30054644e-02,
         6.11085817e-02, -6.61603501e-03,  1.60147905e-01,
        -1.64713100e-01, -1.65548623e-01,  7.21227080e-02,
         9.96319056e-02, -5.58146723e-02,  6.96794614e-02,
         1.47175968e-01, -1.58017203e-01,  1.07829623e-01,
        -1.45170197e-01, -1.64217442e-01, -6.80270493e-02,
         2.28598297e-01,  1.33659691e-01, -2.16212988e-01,
        -1.07976295e-01, -4.30398062e-02, -8.96489620e-02,
        -1.76237356e-02, -3.33853215e-02, -1.08576387e-01,
        -1.27689153e-01,  2.59473562e-01,  1.80792622e-02,
        -1.62192322e-02,  1.31502713e-03, -2.14661747e-01,
         1.82399318e-01,  8.86356309e-02, -3.79577205e-02,
        -2.44858906e-01, -5.75179309e-02,  3.03173978e-02,
         1.13540627e-01,  1.22578233e-01, -1.47784933e-01,
         4.21601487e-03, -2.19039679e-01, -1.03675961e-01,
         2.18450636e-01,  1.92739531e-01,  1.98291600e-01,
         7.69957379e-02},
       {-2.44652301e-01,  4.25124690e-02, -5.85118085e-02,
         8.65918174e-02,  1.06335141e-01, -2.87030786e-01,
         2.82099042e-02, -6.40681088e-02,  2.03068405e-01,
         2.27775648e-02,  8.13181251e-02, -7.08950758e-02,
         1.41135439e-01, -7.83899520e-03, -4.65285778e-03,
        -2.68125236e-02, -9.25351381e-02, -2.36284104e-05,
        -1.65576160e-01,  1.58066377e-01, -8.83647650e-02,
         7.47410208e-02,  1.82923883e-01,  2.13962004e-01,
        -8.21024105e-02, -4.86529619e-02,  1.04515389e-01,
         2.97800060e-02, -1.23573355e-01, -1.62633985e-01,
        -1.06920972e-01,  7.48944506e-02, -1.18447907e-01,
        -4.08521816e-02,  2.80302703e-01,  1.33494943e-01,
        -8.01124796e-02, -9.35760215e-02, -1.15631051e-01,
        -2.31131777e-01, -6.41137213e-02,  1.79433957e-01,
        -3.16911489e-01,  1.30284086e-01, -1.68179139e-01,
         1.32594526e-01, -3.51543188e-01, -5.13463374e-03,
         1.14197597e-01, -7.09277466e-02,  7.75656626e-02,
        -2.78454751e-01,  7.60477185e-02, -3.00446153e-01,
        -1.80558115e-01, -2.23223761e-01,  4.90308367e-02,
         4.75896448e-02, -4.83814627e-02,  5.84234437e-03,
        -1.10585964e-03,  1.25711067e-02, -2.40880661e-02,
         1.65496498e-01},
       { 3.66167128e-01, -2.96442886e-03,  3.13747495e-01,
        -1.46874547e-01, -8.76143798e-02, -1.14885740e-01,
         3.43354826e-04, -6.02476932e-02, -1.00127593e-01,
         2.33335719e-02,  1.16799705e-01, -2.36800052e-02,
        -1.37027293e-01,  2.17619091e-01,  1.64551497e-01,
         2.66320944e-01, -1.22154966e-01, -1.11500258e-02,
         2.43826091e-01,  4.66179885e-02, -4.56474833e-02,
        -7.37969354e-02, -1.50198624e-01,  3.78672332e-02,
         2.90727228e-01,  9.37573984e-02, -1.76402077e-01,
         3.05955950e-02, -6.03811033e-02,  1.23551697e-01,
         4.34988141e-02,  9.30393785e-02, -1.72626480e-01,
        -1.23126563e-02,  1.19258892e-02, -2.95799170e-02,
         2.67523050e-01, -3.21898945e-02, -1.97350830e-02,
         8.53836983e-02, -4.10853364e-02,  9.68333893e-03,
        -9.56797078e-02,  2.35202670e-01, -1.84377749e-02,
         1.11327335e-01,  2.54168272e-01, -8.99424031e-02,
         2.00692445e-01, -3.92124569e-03,  2.83354551e-01,
        -1.26883879e-01, -3.20827104e-02, -2.53993217e-02,
        -8.19097012e-02, -1.27181485e-01,  1.70653298e-01,
        -8.52714013e-03, -1.32848442e-01,  1.23551749e-01,
        -2.07085460e-01,  3.05249495e-03, -2.77978331e-02,
         1.32325724e-01},
       {-1.70095433e-02,  2.02185363e-02, -9.09903832e-03,
        -6.64889365e-02,  1.84934199e-01, -1.23105966e-01,
        -7.73454383e-02, -1.77534550e-01, -2.86876202e-01,
        -2.17754766e-02, -9.11397785e-02, -1.43050641e-01,
         1.74583510e-01, -9.92193148e-02,  2.78249234e-01,
        -3.54627907e-01,  2.22592950e-02,  2.91073266e-02,
        -1.85782775e-01,  1.16620064e-01, -1.81621443e-02,
         2.22749114e-01, -5.44543415e-02, -3.51370573e-02,
        -3.23992133e-01, -1.26611039e-01, -7.66641051e-02,
        -1.51739120e-01, -1.59594178e-01,  1.28642768e-01,
        -2.44470313e-01,  1.03193253e-01, -1.06801368e-01,
        -1.60067137e-02, -8.46569389e-02,  6.41057566e-02,
        -4.74663563e-02, -1.19363189e-01, -9.18478072e-02,
         2.69353837e-01,  1.23790920e-01,  9.61141884e-02,
        -1.72097310e-01, -2.15708792e-01,  2.30674334e-02,
         1.76406614e-02, -1.47091180e-01, -9.85605046e-02,
         2.82326639e-02, -3.56331050e-01,  1.70876488e-01,
         1.62258446e-01,  1.66133970e-01, -2.45920479e-01,
        -4.77329781e-03,  1.07739381e-01,  4.47401330e-02,
        -1.27451718e-01, -5.19071221e-02, -1.39856741e-01,
        -2.63407648e-01, -1.23749003e-02,  8.03104322e-03,
         6.35730773e-02},
       { 3.75858061e-02, -1.17009595e-01, -1.37176245e-01,
        -1.04814544e-01, -1.30908564e-01, -1.35823861e-01,
         1.18434884e-01, -9.75659266e-02,  1.62157699e-01,
         1.15079001e-01, -4.38319519e-02,  1.21848183e-02,
        -1.06967188e-01, -1.59897447e-01, -1.31408051e-01,
        -2.48823445e-02,  1.70594469e-01,  3.73366177e-01,
         2.95965463e-01, -5.39667271e-02,  8.82250443e-02,
        -5.22728488e-02, -5.23917302e-02, -1.79523639e-02,
         1.37220845e-01,  1.67528540e-01, -4.22295444e-02,
        -8.48191499e-04, -1.65994987e-01, -8.87827054e-02,
        -1.00578759e-02, -2.96738986e-02, -6.65554851e-02,
        -9.09646600e-02, -2.25679696e-01, -1.55017272e-01,
         8.65340903e-02,  1.18505970e-01, -1.27148896e-01,
        -9.44508687e-02,  1.10523783e-01, -1.53376013e-01,
        -2.61427194e-01,  1.03763089e-01, -1.79917991e-01,
         5.12765422e-02,  1.36883080e-01, -5.17708957e-02,
         1.32690325e-01, -3.73647451e-01, -2.14924607e-02,
        -4.65322174e-02, -3.00742853e-02,  1.82078317e-01,
         1.90948591e-01,  6.46765530e-02,  6.72797337e-02,
         2.72597484e-02, -4.41463739e-02,  1.84062704e-01,
         3.62226546e-01,  1.08609058e-01, -1.65261403e-01,
        -9.55932494e-03},
       { 2.51355410e-01,  1.25632882e-01, -1.44731656e-01,
        -3.05627257e-01,  3.28169763e-01, -6.07933849e-03,
        -2.17724502e-01,  1.94461159e-02, -2.10571155e-01,
        -3.04532945e-01,  9.66812894e-02, -1.37093673e-02,
         8.08677599e-02, -1.78330531e-03,  1.62109092e-01,
         9.04951543e-02, -1.71899647e-01,  2.04223152e-02,
        -1.55495167e-01, -1.10810496e-01,  1.31530210e-01,
         1.30784735e-01, -1.21617593e-01,  2.10777093e-02,
         2.09101751e-01, -5.38710952e-02,  3.93027842e-01,
        -1.65604092e-02,  4.49513979e-02, -1.04189530e-01,
        -1.17715910e-01,  3.10165226e-01,  1.34825140e-01,
         1.32045001e-01,  9.05019268e-02,  2.07938805e-01,
         2.31983736e-01,  4.91454192e-02, -7.98818767e-02,
         1.47247091e-01, -3.06784641e-02, -9.76711661e-02,
        -1.35943040e-01, -4.01824042e-02, -2.08747715e-01,
        -1.87976528e-02, -9.11436081e-02, -7.52890343e-03,
        -1.26454607e-01, -1.56044476e-02, -9.40198898e-02,
         2.37240314e-01,  2.53521591e-01,  2.13828802e-01,
        -8.74643773e-02, -2.61360228e-01, -3.84721383e-02,
        -8.60401243e-02,  2.21046712e-03, -1.03931241e-01,
        -8.56121331e-02,  2.84036219e-01,  3.75661105e-01,
         1.66688114e-01},
       {-2.72800088e-01, -6.72330782e-02,  1.08937196e-01,
        -1.88152805e-01, -1.36619033e-02, -3.84183712e-02,
        -1.14623927e-01,  1.07565701e-01,  1.64541248e-02,
        -1.43620688e-02, -4.08573449e-01, -1.33253127e-01,
        -1.12362348e-01, -1.89575806e-01, -7.03779981e-02,
         2.64729857e-01,  3.07390988e-02, -5.69538660e-02,
         9.73652154e-02,  2.30961554e-02,  4.86968160e-02,
        -4.45665233e-02,  3.84081788e-02,  1.33206561e-01,
        -2.82781184e-01, -7.49058425e-02, -1.21277913e-01,
        -1.57698780e-01, -8.58862028e-02, -2.39370286e-01,
        -1.17948331e-01,  3.31198946e-02, -2.14899659e-01,
        -4.68506999e-02,  1.18825205e-01, -1.97238266e-01,
         1.96346819e-01, -4.01081108e-02,  5.51397242e-02,
        -2.53755525e-02,  1.11713871e-01,  1.60803452e-01,
        -1.54631838e-01, -1.57460198e-01,  2.18113232e-02,
         6.04063384e-02,  9.55230091e-04, -9.40725673e-04,
         2.92985946e-01,  7.14342147e-02,  9.53871980e-02,
         9.08231810e-02,  1.29609397e-02,  2.55121559e-01,
         1.01107746e-01,  2.55190015e-01, -5.63520901e-02,
        -2.06088230e-01,  1.34662585e-02,  1.40365422e-01,
        -5.32607175e-02, -4.00400124e-02, -6.26038909e-02,
         3.66134383e-03},
       {-9.93466452e-02,  1.26498669e-01,  6.64630905e-02,
         3.17594230e-01,  2.23644497e-03,  2.44068697e-01,
        -1.05172947e-01,  3.48729081e-02,  3.23219746e-01,
         8.17548037e-02, -1.68422833e-02,  1.22786023e-01,
         2.62479857e-02,  2.17546314e-01,  8.54407102e-02,
         1.31324247e-01, -8.38655280e-04, -3.29111032e-02,
        -1.71867803e-01,  1.88128725e-01, -1.62443537e-02,
         1.36427402e-01,  1.22105420e-01, -8.11686739e-02,
        -1.90548286e-01,  1.33845344e-01, -7.36605003e-02,
         1.64843976e-01,  1.22186750e-01, -1.33826420e-01,
        -3.06020919e-02, -1.49622210e-03,  3.07538938e-02,
         3.37664597e-02,  7.06924498e-02,  4.77561653e-02,
         1.23840116e-01,  1.61133960e-01, -3.01027042e-03,
        -2.51048684e-01,  5.97096682e-02,  1.31043911e-01,
        -1.91467330e-01,  3.43316495e-02, -7.90175796e-02,
        -7.50309974e-02,  1.04603574e-01, -3.84768471e-02,
        -1.86331868e-01, -8.01934823e-02,  3.15396078e-02,
        -2.75358856e-01,  4.77615744e-03,  1.85889617e-01,
        -1.41692162e-01,  2.55784653e-02, -3.59191373e-02,
         5.71309328e-02, -1.74455345e-01, -1.73218951e-01,
         2.62066871e-01,  3.19675393e-02,  1.84183866e-01,
         2.07441553e-01},
       { 2.48367842e-02,  2.36048698e-01,  1.66461021e-01,
        -1.10432483e-01, -1.63534507e-01, -6.69516250e-03,
        -9.03212577e-02, -1.55198406e-02, -1.97371952e-02,
         9.15044844e-02,  1.38730854e-01,  1.09971657e-01,
         1.43998593e-01,  3.97837907e-02,  2.71802366e-01,
        -8.35084990e-02, -1.63517743e-01,  4.44497690e-02,
         9.75962430e-02, -1.34026259e-01, -9.04666726e-03,
         3.89632396e-02,  2.25274801e-01, -2.05309808e-01,
        -1.93554163e-02,  1.39624462e-01, -9.89871621e-02,
         1.32711500e-01,  3.13918106e-02, -4.05230373e-02,
         1.75466567e-01,  2.62408927e-02, -1.30803093e-01,
        -1.44153714e-01, -3.23778838e-02,  2.92209923e-01,
         3.26101780e-01, -2.66145676e-01,  1.53115556e-01,
        -1.77170947e-01, -1.34829104e-01, -3.94653194e-02,
         1.58527002e-01, -1.09003177e-02, -1.41867578e-01,
         1.97534844e-01, -1.29271850e-01,  1.15363434e-01,
        -1.21521771e-01,  8.44991356e-02,  4.48499918e-02,
         3.94444354e-02,  2.69066662e-01, -1.48215473e-01,
         1.78237632e-01,  2.28643656e-01, -1.72288284e-01,
         3.98338735e-02,  1.62647620e-01,  1.13519534e-01,
        -6.68482706e-02, -2.25801468e-01, -6.72882888e-03,
        -1.11837037e-01},
       { 1.29279464e-01, -1.43571317e-01,  1.63884252e-01,
        -1.71471953e-01, -2.36599639e-01,  8.97487551e-02,
        -1.97294712e-01,  9.77620110e-02, -1.47453278e-01,
         9.39436406e-02, -9.90462750e-02,  2.57420450e-01,
        -3.82320322e-02, -8.13375518e-04,  1.26902880e-02,
        -2.51203720e-02, -1.60699338e-01, -1.26007885e-01,
        -4.56681699e-02, -1.22497663e-01, -6.84281886e-02,
        -2.66267538e-01, -5.30951843e-02, -1.90337673e-01,
        -1.16074607e-01, -7.70340189e-02,  1.05468951e-01,
        -3.89539339e-02,  5.24557903e-02,  1.08467072e-01,
        -1.68928847e-01,  1.11380182e-01, -3.35956663e-02,
         6.43927678e-02,  2.90018506e-02,  2.24778578e-01,
         8.72959942e-02,  8.39866772e-02,  1.43588766e-01,
        -9.89309549e-02, -1.36458486e-01, -1.16841175e-01,
        -7.92210475e-02,  2.51906782e-01,  1.19596943e-01,
         2.40036398e-01, -2.95673251e-01,  4.45271954e-02,
         4.04764190e-02, -1.18071608e-01,  2.73460090e-01,
        -2.18047783e-01, -1.76521927e-01, -8.68873745e-02,
        -6.55649975e-02,  2.56996751e-02, -3.41417678e-02,
         1.70268316e-03, -6.29185438e-02, -6.31247237e-02,
         8.38255212e-02,  1.28872702e-02,  3.92736465e-01,
         2.56671667e-01},
       { 2.01271564e-01, -2.15241387e-01, -8.01305324e-02,
        -2.55850345e-01, -1.27098992e-01,  1.86835960e-01,
         8.86189267e-02, -1.95409566e-01, -2.35886142e-01,
        -4.13769595e-02,  1.26903132e-01,  7.45150400e-03,
        -1.93025827e-01,  4.50859666e-02, -3.70649039e-03,
         1.85414210e-01,  7.11092651e-02, -2.74697859e-02,
        -3.06233615e-02, -1.44589797e-01,  2.70691127e-01,
        -1.98186696e-01, -2.06177488e-01, -1.32506356e-01,
        -1.35146841e-01, -5.41728660e-02, -2.03084156e-01,
        -2.25851554e-02,  2.58461088e-02,  1.74152285e-01,
         1.94255799e-01, -1.62806511e-01,  9.75194573e-02,
         3.32354903e-02,  1.79362502e-02,  1.71443686e-01,
        -6.93719089e-02,  9.66587514e-02,  6.27947077e-02,
         8.05509537e-02, -2.88499117e-01, -1.18963271e-01,
         3.21212739e-01, -1.26092345e-01, -2.20808890e-02,
        -3.65856774e-02, -9.82404724e-02, -9.05036286e-04,
         2.39644665e-02,  1.28595069e-01,  1.05122827e-01,
         5.16923517e-02, -2.93006480e-01,  1.29191309e-01,
        -1.29834428e-01, -1.22929551e-01,  1.03305809e-01,
         2.35821262e-01, -8.47816467e-02, -2.06044223e-02,
         7.59906098e-02, -2.24444047e-01,  8.60903005e-04,
        -6.70564547e-02},
       {-1.43825887e-02, -5.28117754e-02,  1.27515718e-01,
         1.08469613e-01,  4.20944802e-02, -6.14077449e-02,
         1.27640516e-01,  6.99352175e-02, -1.65245384e-02,
        -1.12044372e-01, -8.92604589e-02,  3.73675264e-02,
        -1.23407342e-01,  1.49574950e-01,  2.12682903e-01,
        -2.22731158e-01,  2.32104182e-01,  1.39095187e-01,
         1.86196044e-01, -5.63798659e-02, -1.28733456e-01,
        -1.71771765e-01, -1.59170806e-01,  2.56710142e-01,
         1.12344891e-01, -4.30782288e-02,  2.84810871e-01,
        -1.13980874e-01, -5.47829419e-02,  7.88613930e-02,
         6.11424111e-02, -7.83205107e-02,  1.48133993e-01,
         2.02351391e-01,  1.22110195e-01, -1.39631733e-01,
        -2.14176565e-01,  1.99497491e-01,  3.26009244e-02,
        -1.52011085e-02, -3.72026920e-01,  1.26950927e-02,
        -1.68224618e-01,  3.10679749e-02,  5.45598008e-02,
        -8.72161910e-02,  9.70001370e-02,  1.99086536e-02,
        -3.49881351e-02,  6.18027337e-02,  1.36394218e-01,
         4.98318039e-02, -1.79756768e-02,  8.36101249e-02,
         4.87820096e-02, -9.24021751e-02, -2.11670652e-01,
        -3.06987520e-02,  2.95267344e-01, -3.50218564e-02,
        -1.49248749e-01,  6.54866248e-02, -7.73097798e-02,
         3.06225777e-01},
       {-1.77751899e-01, -3.57235000e-02, -4.64638649e-03,
         4.01296914e-02, -1.74404934e-01,  1.30266473e-01,
        -1.12562917e-01, -1.62686586e-01, -1.46489486e-01,
        -1.51871249e-01, -4.18276116e-02, -2.17345878e-02,
        -3.34184282e-02, -2.33188018e-01,  1.85390919e-01,
         2.05900043e-01, -1.29373714e-01,  1.68319941e-01,
        -2.32179165e-02, -5.14660589e-02, -7.42021054e-02,
         9.00681838e-02,  5.36055267e-02,  4.13643159e-02,
         1.34256244e-01, -3.24184597e-02, -8.23989734e-02,
         5.45078851e-02,  4.76567395e-04,  9.36095715e-02,
        -7.94563517e-02,  2.16872618e-01,  5.15525974e-02,
        -1.16330823e-02, -4.31116037e-02,  5.73876910e-02,
        -1.54862344e-01, -3.81722450e-01,  2.17062347e-02,
        -2.04879165e-01,  1.08653136e-01,  2.29740426e-01,
        -1.68744460e-01, -1.28880903e-01,  3.15899968e-01,
        -1.50066331e-01, -4.43383992e-01, -9.70169455e-02,
         1.83559045e-01,  6.22954220e-02,  8.13208446e-02,
         2.54773587e-01,  2.22855791e-01,  5.16027324e-02,
         5.55749424e-02,  1.64422750e-01, -5.48358634e-02,
        -2.84695048e-02,  1.46281675e-01,  6.38891235e-02,
         2.79401941e-03, -1.28308445e-01, -1.62088759e-02,
        -2.89972752e-01},
       { 3.78959589e-02,  1.13212265e-01, -6.97311014e-02,
        -3.84721048e-02, -1.80050462e-01, -2.26143286e-01,
        -1.54165596e-01,  5.69194742e-02, -1.53732866e-01,
        -4.56701331e-02,  2.39581130e-02,  1.18505303e-02,
         5.11796102e-02, -1.81008447e-02,  3.30685973e-01,
         1.49950325e-01,  4.75351997e-02, -2.07437575e-01,
        -1.50678754e-02, -7.69639388e-03, -1.61670387e-01,
        -7.24338135e-03,  1.73876002e-01,  1.34235099e-02,
        -1.29938573e-01,  2.26608917e-01,  1.34009436e-01,
         1.59906611e-01, -5.90827502e-02,  3.05417717e-01,
         3.59212570e-02, -3.18583548e-01, -6.72402978e-02,
         1.02237768e-01, -8.55095610e-02,  2.23309278e-01,
         1.70389757e-01, -1.78238988e-01,  9.51673388e-02,
         3.17970186e-01, -1.18392035e-02, -1.47457436e-01,
         1.51393101e-01, -1.27924487e-01, -1.22719593e-01,
        -9.76114571e-02, -1.39028087e-01, -1.60117283e-01,
         7.17310533e-02,  1.28283389e-02, -1.17861629e-01,
         1.77602377e-02,  8.15932974e-02, -8.62126052e-02,
        -2.43023619e-01,  1.36388987e-01,  1.53907314e-01,
         2.49620937e-02,  7.56274834e-02, -2.40086783e-02,
        -1.44209832e-01, -1.04124844e-01, -1.06044978e-01,
         2.66168043e-02},
       {-1.57989159e-01,  1.37255803e-01, -7.43169114e-02,
        -3.75828743e-02, -2.17330363e-03,  1.47085218e-02,
        -1.03905074e-01,  2.92817891e-01, -4.27891687e-02,
         1.29131377e-01, -2.14782000e-01, -1.57854989e-01,
        -1.66491196e-01, -6.14637276e-03, -2.26401016e-02,
        -7.71587342e-02, -2.52726376e-01, -1.54487267e-01,
         1.64911952e-02, -8.58739689e-02,  2.79905617e-01,
         6.16263971e-02, -3.27059388e-01, -9.49551985e-02,
         3.02514266e-02,  2.64873002e-02, -2.26811275e-01,
         5.08488640e-02,  3.72858681e-02,  1.63898051e-01,
         2.56735831e-01, -1.59380943e-01, -2.67745983e-02,
         1.86400950e-01,  2.36515969e-01, -2.81960338e-01,
        -7.59365559e-02, -9.76286829e-02,  5.85229835e-03,
        -9.00204033e-02, -1.68427348e-01, -2.55026761e-02,
        -2.55898554e-02,  9.01010633e-02, -3.11655942e-02,
         1.97056547e-01,  1.94149032e-01,  1.65780351e-01,
        -1.06777243e-01,  9.90117118e-02,  9.19823125e-02,
        -8.37001652e-02, -3.85338694e-01,  5.54608591e-02,
        -1.30776241e-01,  9.60955769e-02,  2.83544548e-02,
         1.61260620e-01,  4.44176607e-02,  7.35123456e-02,
         3.94739434e-02,  5.30879535e-02, -2.02285856e-01,
        -3.17531191e-02},
       { 2.50585228e-02, -1.87173877e-02, -6.94938898e-02,
        -2.63566226e-01, -3.18917707e-02, -2.14026302e-01,
        -2.29907483e-02, -9.29885432e-02,  1.64560631e-01,
        -1.02274045e-02, -4.08469290e-02, -1.35548770e-01,
        -6.65400103e-02,  2.33218178e-01, -9.66775343e-02,
         1.02424152e-01, -9.06632990e-02,  2.98481006e-02,
        -4.77453843e-02, -6.81885928e-02,  5.77977449e-02,
         5.17345071e-02, -5.72423078e-02, -4.82487142e-01,
        -1.66420013e-01,  4.17922348e-01, -1.06296912e-01,
         1.29449978e-01,  2.62536913e-01, -8.03410411e-02,
        -1.18598253e-01, -1.67706847e-01,  3.82798053e-02,
         2.47495443e-01,  1.41163364e-01, -9.33514722e-03,
        -1.28777698e-01, -6.09625503e-02, -1.26851439e-01,
        -2.40742460e-01, -8.04911703e-02, -1.15659714e-01,
         2.37218767e-01,  9.31326002e-02, -7.75256604e-02,
         8.02084655e-02, -1.37913823e-01,  2.13001981e-01,
        -2.98741490e-01,  2.80893266e-01,  1.99860245e-01,
         4.80707549e-02,  8.38541612e-02,  3.67582701e-02,
        -3.26902300e-01,  1.82324424e-01,  7.70003423e-02,
        -1.12053625e-01, -7.08697066e-02,  1.10855639e-01,
         5.95937259e-02,  8.34043398e-02,  4.10428755e-02,
         1.14567757e-01},
       {-6.50979578e-02, -1.68097049e-01, -8.51565674e-02,
         4.05817688e-01,  2.26878561e-02, -1.78740308e-01,
         3.69509240e-03, -5.71139082e-02, -1.92900524e-01,
        -7.62491301e-02, -7.59971663e-02,  1.16743699e-01,
         4.55040485e-02,  2.28770301e-01,  2.24774897e-01,
        -1.63492501e-01,  3.38687887e-03, -9.54028592e-02,
        -2.92487979e-01,  1.02777652e-01, -2.65244216e-01,
        -1.46726621e-02, -1.66819140e-01,  2.05660388e-02,
        -4.94860522e-02,  4.66407724e-02, -6.22829273e-02,
         6.73412085e-02, -1.79816276e-01, -3.72808427e-01,
        -1.47618756e-01,  1.52240187e-01, -1.24476552e-01,
         6.02091011e-03,  1.09170489e-01,  3.60987000e-02,
         2.92142332e-01, -1.65232196e-01, -3.40730518e-01,
        -1.13513522e-01, -6.35446012e-02,  1.65047526e-01,
         5.87993152e-02,  3.18900007e-03,  2.25865573e-01,
         1.48701251e-01, -2.08440572e-02,  1.39927804e-01,
         1.52506813e-01,  2.93394048e-02,  8.60111713e-02,
        -1.90102935e-01,  2.56372672e-02, -1.91518366e-01,
         3.73450294e-02, -1.97649390e-01,  1.02429226e-01,
         1.91032425e-01, -1.81360114e-02, -8.18525255e-03,
         1.25404999e-01,  9.48813483e-02, -3.33530046e-02,
         4.20995336e-03},
       {-1.28307372e-01,  2.78623365e-02,  1.27982274e-01,
         3.69494081e-01,  5.06554663e-01, -9.64894705e-03,
        -1.73488423e-01,  4.44537550e-02,  5.82776703e-02,
         2.26475224e-01, -1.40737385e-01, -1.45426512e-01,
         1.59929380e-01, -1.02930821e-01,  1.87379739e-03,
        -2.13042185e-01, -7.75818676e-02, -6.71059415e-02,
         2.14212328e-01, -8.91708434e-02,  4.47065458e-02,
         1.99470222e-01,  5.17713845e-01, -2.07989644e-02,
        -9.67629030e-02, -1.13364227e-01,  2.95763165e-01,
        -5.00232987e-02, -1.50265262e-01, -1.08520322e-01,
        -3.48000340e-02, -5.21602258e-02,  7.65342191e-02,
        -1.40797332e-01,  6.11762935e-03,  6.45320192e-02,
         1.27627909e-01, -8.22432041e-02, -1.60747673e-02,
         1.96493100e-02,  3.97136480e-01,  4.21020053e-02,
        -1.52171269e-01, -1.89323500e-02, -3.84015627e-02,
         9.10958350e-02, -2.61462271e-01, -2.70922482e-01,
         9.05715376e-02, -1.20048366e-01, -1.09302998e-02,
        -9.53352526e-02,  1.59466892e-01, -2.02689856e-01,
         6.55652806e-02, -8.70634317e-02, -1.34021893e-01,
        -8.56755823e-02,  1.27322912e-01, -1.53652150e-02,
        -2.53979474e-01, -2.96788216e-01,  1.31873578e-01,
        -2.78811306e-02},
       { 2.71667037e-02, -8.20521414e-02,  9.58867371e-02,
        -1.51136607e-01,  1.35091990e-01,  1.79555155e-02,
        -1.47825051e-02, -4.89934161e-02, -2.45563343e-01,
         1.75577819e-01,  2.73414105e-01, -2.23158777e-01,
         1.90349966e-01, -2.13426724e-02,  1.25528857e-01,
         2.23305315e-01, -1.15284689e-01,  3.51323187e-02,
         4.63268831e-02, -1.85756326e-01,  9.75596756e-02,
        -2.16588881e-02,  2.10603662e-02, -2.32389927e-01,
         2.34737024e-01,  1.29897356e-01, -2.47796588e-02,
         3.59353013e-02, -1.08254492e-01,  8.69691372e-02,
         7.87071362e-02,  1.01494277e-02,  2.20673248e-01,
        -2.44782120e-03,  7.88806677e-02, -1.06924117e-01,
        -2.84652994e-03, -3.85454334e-02, -3.74086089e-02,
        -7.77209625e-02,  8.28723684e-02,  1.56944707e-01,
        -1.27596319e-01,  7.10071176e-02,  7.48061091e-02,
        -5.48547041e-03, -8.67524743e-02, -1.75031349e-01,
         2.37321809e-01,  1.34121731e-01, -2.46896073e-02,
        -9.83650982e-02,  3.14458936e-01, -1.33004159e-01,
         1.32747053e-03,  4.54758823e-01,  7.10539445e-02,
        -9.29043964e-02, -1.23576261e-01, -8.59115049e-02,
         2.21037325e-02,  6.89705610e-02, -9.72412154e-02,
        -1.09649701e-02},
       {-2.21429184e-01,  8.74963682e-03,  5.62057318e-03,
         2.01357171e-01,  6.53357208e-02, -2.19743941e-02,
         3.90661545e-02, -1.23310022e-01,  4.90144901e-02,
         1.81581929e-01, -1.01603098e-01,  3.29614848e-01,
         4.78714556e-02, -1.95614598e-03,  1.30676195e-01,
        -7.40599185e-02, -3.92612547e-01, -8.37727636e-02,
         1.50901228e-01,  5.87499328e-02, -1.31721166e-03,
        -1.29420429e-01,  1.61801428e-01, -2.21268907e-01,
        -1.86601028e-01,  2.06761912e-01,  1.14209212e-01,
         8.44267160e-02,  1.71280935e-01, -2.53180593e-01,
        -7.43009448e-02,  2.09065136e-02,  6.35432899e-02,
        -1.57165453e-01,  2.97814608e-01,  1.62208527e-01,
         4.70479950e-02, -1.60682499e-01, -3.99956889e-02,
        -1.52114183e-02,  7.75201023e-02,  1.60117224e-01,
        -1.23210743e-01, -7.31721520e-02, -1.34110242e-01,
         6.27820864e-02, -8.81034806e-02,  1.77882873e-02,
        -1.49090514e-01, -1.08682610e-01,  2.06454694e-01,
        -9.30071156e-03, -2.98538022e-02, -1.55744895e-01,
         1.17620543e-01,  1.75255030e-01, -6.47033006e-02,
        -1.80910990e-01,  6.42868280e-02, -1.38488889e-01,
        -8.89368877e-02, -2.57360023e-02,  3.30584385e-02,
         4.92182039e-02},
       {-1.03282444e-01,  7.33889043e-02, -9.40390304e-03,
        -1.44676995e-02,  3.01419199e-01, -1.17155805e-01,
        -1.52231321e-01,  2.05520332e-01, -2.23093983e-02,
        -1.91028304e-02,  1.78778931e-01, -1.97975948e-01,
        -2.88823284e-02, -8.57051164e-02, -2.38979623e-01,
        -1.95607975e-01, -2.95012109e-02,  1.00462697e-01,
        -1.16092321e-02,  6.00982904e-02, -3.50658566e-01,
         1.31187826e-01,  1.15343928e-01,  1.71729356e-01,
        -3.28496806e-02,  1.62832603e-01,  3.04644048e-01,
        -5.08515239e-02, -1.51778743e-01, -8.34828429e-03,
         9.27085578e-02,  9.50124860e-02, -8.68604928e-02,
         3.99128385e-02, -1.75086930e-01, -8.93372074e-02,
         2.84456998e-01,  5.13086980e-03,  1.39618218e-01,
         1.79550990e-01,  3.18001024e-02, -9.61309373e-02,
        -2.78718024e-01, -6.23954833e-02,  3.74468789e-02,
         1.52725115e-01, -6.47270307e-02, -1.46981165e-01,
         3.95557225e-01, -4.47427422e-01, -1.41286002e-02,
        -6.40833080e-02,  2.40979388e-01, -1.65053606e-01,
         2.62971014e-01,  2.18292233e-02, -2.26478696e-01,
        -1.43605575e-01, -7.80177787e-02, -2.28643909e-01,
        -1.75173625e-01, -4.25106958e-02,  1.84754714e-01,
         6.38695657e-02},
       {-2.54573494e-01,  2.12238520e-01,  1.19408928e-01,
        -1.96254537e-01, -7.98916668e-02, -1.67145863e-01,
         6.51344955e-02, -2.10610792e-01, -1.57844782e-01,
         1.03657648e-01, -3.22697759e-02,  7.27380812e-02,
        -4.57565635e-02,  1.72495857e-01,  2.45573521e-01,
         1.07084736e-01,  1.41196132e-01, -1.05926767e-01,
         1.56780854e-01,  1.05854578e-01,  1.27249375e-01,
        -3.09385657e-01,  1.26336515e-01, -1.34276077e-01,
         1.87819600e-01, -1.35736987e-01,  6.95679337e-02,
         2.60122567e-02,  8.41021389e-02,  2.19853237e-01,
         1.64568111e-01, -3.61070216e-01, -3.69625062e-01,
         2.32503209e-02,  4.16290462e-02,  5.61602563e-02,
        -1.00326635e-01,  1.85031533e-01, -1.17357060e-01,
        -5.94527908e-02, -6.52066022e-02, -3.32338326e-02,
         1.24848127e-01,  8.70953128e-03, -1.64010376e-01,
         4.08340432e-02, -9.44979340e-02,  8.59687328e-02,
         1.10298879e-01,  1.07838117e-01, -1.21691644e-01,
         5.53797632e-02, -1.16542697e-01, -1.49644554e-01,
        -3.03373545e-01, -2.39094738e-02, -2.15734188e-02,
         8.23895708e-02,  2.32757404e-02,  3.01802754e-01,
        -6.78303093e-03, -1.44832224e-01,  1.71619698e-01,
        -1.12795793e-01},
       { 9.67875943e-02, -3.46119851e-02,  2.26480007e-01,
         1.59142409e-02, -3.07155609e-01,  6.37219148e-03,
        -5.30780517e-02, -1.24579305e-02, -3.40425551e-01,
        -2.98281878e-01, -2.72208840e-01,  1.13996334e-01,
         1.45350695e-01, -7.51623139e-02,  3.44388127e-01,
         3.11834011e-02, -1.90310746e-01,  6.77009299e-03,
         2.28542700e-01,  4.59652245e-02, -2.22856879e-01,
        -1.40391007e-01,  2.55600512e-01, -1.23504147e-01,
        -5.83878905e-02,  1.33814067e-01, -5.49631640e-02,
         2.79789865e-02, -1.74821019e-01,  2.61819381e-02,
        -1.25477612e-01, -7.91796073e-02, -1.17007762e-01,
        -7.10263699e-02, -6.92347884e-02,  1.58068299e-01,
         1.59147337e-01, -2.69149989e-01,  2.35416275e-03,
        -1.05975218e-01, -1.74022079e-01, -1.38527378e-01,
         1.11172937e-01, -2.09627878e-02,  1.30327657e-01,
         2.31053248e-01, -2.87955433e-01,  1.75496280e-01,
         7.21239224e-02,  1.21573925e-01,  1.36198327e-01,
        -1.10256076e-01,  1.03787050e-01, -1.06736451e-01,
         1.78527221e-01, -2.54840981e-02,  9.63820610e-03,
        -1.40721157e-01,  2.21134365e-01, -1.84837803e-01,
        -1.18325032e-01, -1.77829433e-02,  1.45804957e-01,
         4.95214723e-02},
       {-6.37282729e-02, -1.50697529e-01, -1.97345287e-01,
        -1.12081319e-01, -1.01133347e-01,  3.40817213e-01,
        -8.88355076e-02, -9.32815298e-02,  1.30055413e-01,
        -1.88664451e-01, -8.31190571e-02,  4.36185747e-02,
        -4.04315256e-02, -2.09715459e-02,  1.79794416e-01,
         1.09251633e-01,  1.19401634e-01,  1.17726363e-02,
         6.08936809e-02, -1.55978471e-01, -2.50133216e-01,
         1.11549916e-02, -8.50629881e-02, -1.24607816e-01,
        -4.52811196e-02,  1.30030707e-01,  2.48659089e-01,
        -1.15248069e-01, -1.47977635e-01, -5.81405312e-02,
        -9.54740401e-03,  1.48575425e-01, -1.41516447e-01,
         1.45346925e-01,  2.88347930e-01, -2.11411700e-01,
        -3.02635059e-02, -1.76106896e-02,  3.55484262e-02,
        -1.69987947e-01,  1.08606175e-01, -1.12406947e-01,
         9.30249784e-03,  5.18850945e-02,  5.54531515e-02,
         2.32965916e-01, -2.29387239e-01, -1.20493427e-01,
        -2.28140708e-02,  2.45717719e-01,  9.85902250e-02,
         1.93440877e-02, -1.20342650e-01, -3.59887928e-02,
        -2.36537755e-01,  2.17704978e-02,  4.76371124e-02,
        -1.69397984e-02, -1.51316941e-01,  4.15934622e-02,
         2.56663471e-01,  3.28698814e-01, -9.07232463e-02,
        -2.57609859e-02},
       {-2.20092982e-02,  2.94515610e-01,  1.59321830e-01,
         3.68365422e-02,  1.90545302e-02, -6.32244498e-02,
         8.04911926e-02,  5.00491001e-02,  1.59206629e-01,
        -1.77338228e-01,  7.21687153e-02, -7.66092986e-02,
         1.28697649e-01, -5.07999994e-02, -1.78964868e-01,
        -1.83282629e-01,  9.57785174e-03,  1.22394718e-01,
         5.15082031e-02,  1.25365153e-01, -2.48235777e-01,
        -2.44763624e-02,  1.22663714e-01,  2.67511100e-01,
        -9.53476876e-02,  1.12807140e-01, -3.98974307e-03,
        -2.73280628e-02, -1.32170811e-01, -1.47827372e-01,
        -1.54479090e-02,  1.41205832e-01,  3.49148288e-02,
         2.25213230e-01, -7.06606209e-02,  4.61076386e-02,
         1.84286132e-01,  1.32427579e-02,  2.08075196e-01,
         1.41427308e-01, -4.75796796e-02,  9.60310102e-02,
        -1.62733048e-01, -6.79265484e-02,  6.58397749e-02,
        -3.54273140e-01, -3.15627828e-03, -1.49442315e-01,
        -6.60050362e-02,  2.01926872e-01,  2.60729849e-01,
        -2.63516128e-01,  9.96509343e-02,  1.45721987e-01,
        -1.79049559e-02,  6.60318583e-02, -1.47071227e-01,
        -1.85656518e-01,  1.87596455e-01, -4.15481478e-02,
        -9.48812440e-02,  4.48576100e-02, -9.95762646e-02,
        -2.44802274e-02},
       {-3.71145457e-02,  1.56792983e-01,  2.92321909e-02,
         2.09666014e-01,  7.76017904e-02,  2.64210045e-01,
        -7.67893940e-02,  2.34984785e-01,  4.68613878e-02,
         1.22048976e-02, -1.01007260e-01, -6.25697076e-02,
         2.26024706e-02,  7.62109235e-02,  1.28148243e-01,
         1.66524783e-01,  1.83023199e-01, -9.45765376e-02,
         6.41851202e-02,  1.54120117e-01,  2.21568406e-01,
         5.25257643e-03, -1.81035280e-01, -2.24421173e-01,
        -2.04900831e-01,  5.99486940e-02, -2.66431749e-01,
         3.89425009e-02,  6.64560720e-02,  7.17392787e-02,
         1.50074765e-01, -2.38014042e-01, -1.05531074e-01,
         7.54317502e-04,  4.52402830e-02,  1.66558057e-01,
        -4.82313558e-02,  6.20986298e-02, -7.53129050e-02,
         5.64235076e-02,  1.63505971e-01, -4.71667983e-02,
        -8.40620100e-02, -1.36685550e-01, -2.20770538e-01,
        -2.16898039e-01,  1.41229868e-01,  2.02212214e-01,
        -5.52345775e-02, -1.56498477e-01,  1.52663410e-01,
         1.36223599e-01, -5.50415665e-02, -8.09383541e-02,
        -1.33204564e-01, -5.19577265e-02,  4.21193130e-02,
         4.67364863e-02, -1.17643259e-01,  3.71809378e-02,
        -7.64191225e-02, -2.24961966e-01,  1.89356774e-01,
        -1.47764340e-01},
       {-3.73666734e-02, -1.60598770e-01, -6.07710555e-02,
         1.44275874e-01, -8.76741037e-02,  1.25899509e-01,
        -1.68450328e-03, -2.29437903e-01, -9.01769772e-02,
         1.82716981e-01,  1.54302344e-01,  4.60914969e-02,
        -1.41561311e-02, -8.90721902e-02,  2.29354482e-03,
        -3.60938907e-01,  1.31247744e-01,  8.28403905e-02,
         2.41406605e-01,  1.26083925e-01, -4.03239913e-02,
        -1.66668110e-02, -5.63195609e-02, -5.76697215e-02,
        -2.10688375e-02, -3.29530351e-02, -2.27959871e-01,
         2.98308227e-02, -7.13706240e-02, -1.63737580e-01,
         3.81800793e-02, -1.79185390e-01, -2.06081733e-01,
         1.16208624e-02, -1.85827911e-02,  1.04688155e-02,
         2.54941911e-01,  1.75059676e-01,  2.78354287e-02,
        -6.12010434e-02,  2.14970969e-02, -7.27754235e-02,
        -1.68536112e-01,  1.78869709e-01, -2.34931652e-02,
         1.21845435e-02, -5.98832741e-02,  1.06168903e-01,
        -2.15295956e-01,  8.57869387e-02, -1.97228745e-01,
        -2.82454133e-01,  2.45713472e-01,  7.97273889e-02,
         9.77542177e-02,  1.19558154e-02, -1.20033599e-01,
        -5.43069765e-02, -1.97425857e-01, -1.47684574e-01,
         4.32558656e-01, -5.70571572e-02, -1.63448304e-01,
        -1.30802676e-01},
       {-1.59039214e-01, -1.51801035e-01,  1.52260102e-02,
         9.34839398e-02,  1.06484026e-01,  1.38194308e-01,
        -6.97718933e-02, -2.53712893e-01, -5.33060171e-02,
        -8.69019106e-02, -1.41822984e-02,  1.64268613e-01,
        -8.53851996e-03,  7.85381868e-02,  1.04991235e-01,
         5.17765097e-02, -7.17584118e-02, -3.48465115e-01,
        -2.97203064e-01,  3.06930188e-02, -9.13745686e-02,
        -7.04748482e-02,  6.83487803e-02, -3.19728166e-01,
         4.96115396e-03, -2.16870844e-01,  1.92712873e-01,
        -2.76624978e-01,  8.23033676e-02, -1.14505887e-01,
        -7.32300580e-02, -3.37807015e-02,  1.66354641e-01,
         1.19522735e-01,  6.30045012e-02, -6.98764324e-02,
        -1.59357473e-01,  1.85909808e-01,  1.63392141e-01,
         1.15069129e-01,  1.11868694e-01, -1.25827998e-01,
         2.82774717e-01,  2.58893780e-02, -1.81597367e-01,
         2.17644218e-02, -1.02437168e-01,  1.47275612e-01,
         1.86095331e-02,  2.44359568e-01,  9.51496661e-02,
         5.14982156e-02, -1.61006171e-02, -8.81170854e-02,
        -2.12579623e-01,  9.12145972e-02,  2.87650108e-01,
         1.20515950e-01, -1.29541621e-01,  1.79660410e-01,
        -1.66513667e-01,  6.15950041e-02,  7.32440641e-03,
        -8.16173032e-02},
       {-1.01316132e-01, -2.74949651e-02,  7.45193064e-02,
        -7.73658901e-02,  7.09012300e-02, -6.04221448e-02,
         6.00288846e-02,  5.47737777e-02,  2.13859186e-01,
        -2.23772451e-01, -1.24855516e-02,  2.08455592e-01,
        -1.04888782e-01,  3.50126773e-02,  1.12638660e-01,
        -6.96545094e-02,  1.10579111e-01,  3.34844291e-01,
        -2.03689635e-01, -2.07694992e-02,  2.07575373e-02,
        -7.68605694e-02, -1.04017831e-01,  3.08351725e-01,
         8.07624906e-02, -3.79005790e-01,  2.90047601e-02,
        -8.20301753e-03,  1.03250630e-02,  3.43864970e-02,
         3.79256085e-02,  1.26682343e-02,  1.08731072e-02,
         6.64287135e-02, -1.35216996e-01, -2.32489873e-02,
        -3.51478100e-01, -3.08754817e-02, -5.03713377e-02,
         3.31211686e-02, -6.83721527e-02,  7.93856382e-02,
        -3.80037427e-01, -5.82736172e-02, -3.06898896e-02,
        -2.44512945e-01,  1.88909724e-01, -1.87692150e-01,
        -1.22677736e-01, -2.50724256e-01, -4.79706079e-02,
        -2.03103110e-01, -8.56975317e-02, -4.48253788e-02,
         4.35079969e-02, -2.45008379e-01,  1.63200483e-01,
         3.68714258e-02, -1.18893765e-01, -7.19393343e-02,
        -1.54171279e-02, -2.09008694e-01, -8.62856880e-02,
         1.96555018e-01},
       { 8.10160115e-02, -1.95795849e-01, -1.36662632e-01,
         2.98412889e-01,  1.32562682e-01,  6.12265319e-02,
        -8.05148929e-02,  6.63012788e-02,  9.64109302e-02,
        -4.09552976e-02,  1.71543464e-01, -2.83962518e-01,
         4.59405854e-02,  2.01103121e-01, -9.70976651e-02,
         1.27099946e-01, -2.13531107e-01, -8.44232589e-02,
        -6.71289787e-02,  2.80258767e-02,  9.65465512e-03,
         7.83910230e-02,  1.81224495e-01, -1.78227201e-01,
         5.83677962e-02,  3.06069642e-01,  1.87131181e-01,
        -2.34330237e-01, -3.80586609e-02,  2.87092477e-01,
        -1.25577390e-01,  9.97700989e-02, -5.61527442e-03,
         8.53744820e-02,  1.17591709e-01,  8.57969075e-02,
        -2.57545989e-02,  1.71402812e-01, -1.19777739e-01,
        -2.48680413e-01,  1.38679430e-01,  1.28374100e-01,
         1.71721831e-01,  6.20852411e-03,  3.10608536e-01,
        -8.28241259e-02,  1.06433339e-01,  1.96839809e-01,
         3.21488269e-02,  2.36126874e-02,  1.50316715e-01,
         1.01495132e-01, -1.34506011e-02, -1.01816244e-01,
         4.12132218e-02, -1.42334074e-01, -4.05258797e-02,
         6.41978532e-02, -4.83414344e-02,  1.86605453e-01,
         2.22922951e-01,  1.72234133e-01,  1.41690910e-01,
        -9.65115875e-02},
       { 9.67933796e-03, -5.53379841e-02,  2.17772871e-01,
        -2.04815149e-01, -2.83791929e-01,  9.06591117e-02,
         6.06359132e-02, -1.72328234e-01,  1.64464936e-01,
        -1.84280216e-03, -1.63750146e-02, -8.82750899e-02,
        -1.71833187e-02,  2.09180176e-01,  1.33130357e-01,
        -1.13904469e-01,  7.86370710e-02,  1.02795601e-01,
         5.71096092e-02, -1.01455986e-01, -9.34685543e-02,
        -2.14999333e-01,  1.13548405e-01, -9.13557708e-02,
         2.16758102e-01,  1.34894565e-01, -1.95400313e-01,
         6.90889284e-02, -9.98288617e-02, -1.90421030e-01,
        -3.41974129e-03,  9.33017507e-02, -5.41114714e-03,
        -1.33153826e-01,  1.11470543e-01,  7.78377801e-02,
         7.86424503e-02, -2.75715917e-01, -1.75294140e-03,
        -2.16894839e-02, -2.49589354e-01, -2.24877778e-03,
         2.29035884e-01,  1.83714896e-01,  2.35808879e-01,
        -5.34728654e-02, -1.82547390e-01,  2.14594789e-02,
         5.66685461e-02, -3.94718871e-02, -1.59537196e-01,
         1.15138985e-01, -7.98657387e-02,  2.09144294e-01,
         2.31635436e-01,  6.80680797e-02, -4.18567844e-02,
         3.30971956e-01, -9.03772265e-02,  1.21033393e-01,
        -6.67787269e-02,  4.87321205e-02, -7.38622025e-02,
         9.14994925e-02},
       {-2.06427593e-02,  1.78670451e-01,  6.61585331e-02,
        -7.56080672e-02, -8.17022771e-02, -4.82556298e-02,
         1.39385179e-01, -4.44652364e-02,  9.70620289e-02,
        -1.10586425e-02, -7.36668110e-02,  1.68807819e-01,
        -1.88921899e-01,  2.89525211e-01, -1.88877344e-01,
         1.27569482e-01,  1.38685659e-01,  6.97086453e-02,
        -8.75859186e-02, -9.45912227e-02, -1.09413953e-03,
        -4.10805941e-02, -1.34322673e-01, -2.10253268e-01,
        -1.70950264e-01, -7.19835563e-03, -3.59954894e-01,
         3.67051363e-02, -1.99019730e-01,  4.85718399e-02,
         1.29355431e-01, -6.35486022e-02,  4.48903628e-02,
         2.51785606e-01,  7.22796097e-02, -4.09977175e-02,
        -1.73406452e-02,  1.60470605e-01, -1.41025007e-01,
         2.45752841e-01, -1.86071766e-03,  8.36666450e-02,
         8.57615564e-03, -2.11691819e-02, -7.87730739e-02,
        -6.28720671e-02,  5.46019450e-02,  4.53875326e-02,
        -5.02287038e-02, -3.35337549e-01,  1.39925256e-01,
        -1.51701659e-01, -3.11829537e-01,  1.41684368e-01,
        -2.33149186e-01, -3.22872996e-01,  3.25438172e-01,
         4.24441174e-02,  3.03485096e-02,  2.76890453e-02,
         2.09824145e-01, -9.26560443e-03, -1.62755847e-01,
         9.13950652e-02},
       { 4.04279679e-02, -1.02708573e-02,  7.27691799e-02,
        -1.04116380e-01, -1.08184569e-01,  8.82687420e-02,
         9.37160477e-02,  1.58458054e-02,  9.52898189e-02,
         1.33584604e-01,  1.26560956e-01,  2.61658788e-01,
         2.38020904e-02, -1.36161759e-01, -9.60577428e-02,
        -1.99507028e-02, -1.55158773e-01, -2.65258461e-01,
         3.42288435e-01,  1.55494720e-01,  4.96641472e-02,
         4.33387756e-02,  3.49066019e-01, -1.12805024e-01,
         9.20721069e-02, -1.55434325e-01,  1.28916493e-02,
         1.36431575e-01, -1.93687052e-01, -9.77712050e-02,
         1.59877613e-01, -6.42518476e-02, -4.72146310e-02,
        -9.78296250e-02, -3.36174220e-01,  4.55232523e-02,
         1.57082275e-01, -6.78576380e-02, -1.91076159e-01,
        -3.33958156e-02, -1.88831780e-02, -5.94911017e-02,
         9.24178492e-03,  1.83123738e-01,  1.54090524e-01,
        -2.00195238e-01,  4.07810733e-02,  8.48369673e-02,
         6.84638545e-02,  4.62267026e-02, -5.07103093e-02,
         2.96433158e-02,  1.07759848e-01,  2.17320979e-01,
         5.87058179e-02, -1.68323845e-01, -2.29182079e-01,
         1.24870963e-01, -1.78067565e-01,  2.93055356e-01,
         1.93913877e-02,  3.16839851e-02, -9.68439728e-02,
         3.51334992e-03},
       { 2.90154129e-01, -2.19786122e-01,  2.15091527e-01,
         1.20575748e-01,  1.59177333e-01, -1.69670999e-01,
        -1.08630911e-01, -5.51582761e-02,  1.83405191e-01,
        -1.19508028e-01, -1.47744026e-02, -4.60952558e-02,
        -1.40247434e-01,  1.94485098e-01, -5.10531329e-02,
         2.32544318e-02, -5.14178723e-02, -4.31200787e-02,
        -1.80835456e-01,  2.42524520e-01,  1.89907715e-01,
         1.99324563e-01, -4.08016518e-03,  9.67053995e-02,
         1.90575868e-02,  1.89613793e-02,  7.81783685e-02,
        -9.48323831e-02,  1.02613904e-01, -2.14818101e-02,
        -5.69158271e-02, -1.81593262e-02,  7.05507696e-02,
         2.43190572e-01,  2.75413811e-01, -4.33617570e-02,
        -1.20444611e-01, -1.37367904e-01,  5.99775538e-02,
         2.53151447e-01, -2.63217948e-02, -9.31786075e-02,
        -8.66200626e-02,  2.14401349e-01,  3.40818497e-03,
        -2.43123993e-02,  9.80460942e-02,  6.84540272e-02,
         6.47047162e-02,  8.51051286e-02, -1.87040307e-02,
        -1.45925462e-01,  1.58859134e-01,  7.60637270e-03,
        -9.84112248e-02, -4.07983840e-01,  7.64401704e-02,
         1.50223181e-01,  1.64858788e-01, -2.44483367e-01,
        -1.24035560e-01,  2.33316764e-01, -5.85189164e-02,
         2.45569631e-01},
       {-9.35840383e-02, -1.53288692e-01, -1.21627808e-01,
        -2.26863608e-01,  1.06916048e-01, -1.80915534e-01,
         2.52622589e-02, -9.08006057e-02, -1.13859564e-01,
         3.60096842e-01,  1.17536053e-01,  1.10997781e-01,
         2.75147520e-03,  1.67589352e-01, -6.19260818e-02,
         4.77519594e-02,  1.70202553e-02, -9.40880030e-02,
         2.58745463e-03,  2.52517015e-01, -1.05552906e-02,
         3.28035623e-01, -7.30945021e-02,  4.14141864e-02,
        -1.26541749e-01, -1.25970840e-01, -4.27383706e-02,
        -1.31427169e-01,  1.14716060e-01, -1.04086138e-01,
        -1.36527583e-01, -8.88277516e-02,  6.66084886e-02,
        -6.09565899e-02,  6.02846593e-02, -3.67629342e-03,
         3.07494849e-01,  1.31914154e-01,  3.00572485e-01,
         3.84549081e-01,  2.92098932e-02, -2.40223408e-01,
         1.40033513e-02,  4.91634198e-03, -1.92225844e-01,
        -8.77983645e-02,  3.94922234e-02,  5.00673205e-02,
         1.40010983e-01, -1.79628626e-01, -2.97032475e-01,
        -1.30449319e-02, -1.54386714e-01,  8.70674476e-02,
         5.04821539e-02, -2.48320952e-01, -1.25116706e-01,
         7.63968304e-02,  2.81569660e-02, -7.32211471e-02,
        -2.00233430e-01, -1.52764305e-01, -1.29467905e-01,
        -2.92288419e-02},
       {-3.16631645e-02,  2.45800942e-01, -2.69496650e-01,
        -2.57485300e-01,  2.54836511e-02,  1.53285056e-01,
        -5.96079379e-02, -1.06176801e-01,  1.73755530e-02,
         8.83805677e-02,  8.18462223e-02, -5.32350037e-03,
        -4.34326492e-02, -9.31596458e-02,  2.51435991e-02,
         1.38937667e-01,  1.04438119e-01,  1.90783605e-01,
         2.11631820e-01, -1.74249541e-02,  2.31450021e-01,
        -1.67359546e-01,  8.95052478e-02, -7.15578943e-02,
         9.90710706e-02, -2.80363075e-02,  1.05064020e-01,
        -5.58696873e-02, -7.90102705e-02,  1.57711431e-01,
         1.58650011e-01,  3.25653777e-02,  3.90812963e-01,
        -5.08257225e-02, -1.78609237e-01,  1.02159210e-01,
         1.62128940e-01,  2.38544002e-01, -2.94037126e-02,
        -1.76904984e-02,  3.44538949e-02,  1.80594157e-02,
        -3.83122414e-02, -1.95794165e-01,  1.47335678e-01,
         1.25693306e-01,  1.87218994e-01, -2.55565971e-01,
        -2.75719687e-02, -2.83387303e-01, -1.12481870e-01,
         1.32639185e-01, -1.81798726e-01,  1.25345632e-01,
        -9.27182883e-02, -1.76923066e-01,  1.55291572e-01,
        -5.40925488e-02,  7.90793374e-02,  1.57131981e-02,
         2.50059456e-01,  2.21388966e-01, -2.36103758e-01,
        -6.68829530e-02},
       { 2.13210687e-01, -3.30759063e-02, -1.15921557e-01,
         7.01404363e-03, -1.67224228e-01,  4.58430536e-02,
         1.42086986e-02,  8.72496143e-02,  2.61159334e-02,
         3.85556556e-02, -2.35326253e-02, -1.00917652e-01,
        -1.38952240e-01,  2.77484119e-01,  9.72858295e-02,
        -1.89687148e-01,  5.17242774e-02, -3.09117854e-01,
         1.14353195e-01,  4.30142581e-02, -2.20656499e-01,
        -1.58819705e-01,  4.51553874e-02, -1.85544804e-01,
        -3.52416039e-01,  6.78395899e-03,  1.86223567e-01,
         1.41201973e-01,  2.14272052e-01, -4.87337485e-02,
        -5.68093127e-03,  2.32662968e-02, -9.10298154e-02,
         2.91326214e-02, -3.25015523e-02, -1.27726361e-01,
        -8.35507587e-02,  9.16684493e-02,  4.49866988e-02,
        -2.65994407e-02, -5.05021513e-02, -1.00186430e-01,
         1.53302914e-02,  1.70411780e-01,  2.43142575e-01,
        -2.77905539e-03, -1.44826531e-01, -7.98492655e-02,
        -6.75311312e-02, -4.17501442e-02,  3.87562841e-01,
        -7.18989074e-02, -7.60326385e-02,  1.21344559e-01,
        -1.61655977e-01, -2.80798584e-01,  1.08121783e-01,
         9.20549408e-03, -1.10899776e-01,  7.97113478e-02,
         1.27934173e-01,  1.62002638e-01,  2.13550061e-01,
        -1.49784535e-02},
       { 3.59607227e-02, -9.41946078e-03, -5.84678873e-02,
        -1.75470486e-01,  1.89470604e-01, -6.30801022e-02,
        -4.34589386e-01, -1.67070463e-01,  1.44108638e-01,
        -5.45879677e-02,  1.16127715e-01, -8.05183426e-02,
         8.79564211e-02, -4.02838364e-02, -3.13718617e-02,
         6.31546229e-03,  1.77648783e-01,  1.26913726e-01,
        -4.79582511e-03,  1.74535319e-01, -2.07363799e-01,
         1.69205833e-02,  2.32171282e-01,  2.18527660e-01,
         3.26477475e-02,  1.62029624e-01,  2.27288797e-01,
         1.75746888e-01,  1.19014837e-01,  3.78139839e-02,
        -1.26098409e-01,  2.67952010e-02,  4.62474644e-01,
         1.79664612e-01,  4.44523655e-02,  1.49012759e-01,
         1.67114124e-01, -1.13789015e-01,  1.43052220e-01,
         2.46135980e-01, -9.70793590e-02, -4.45552319e-02,
        -1.44558683e-01, -1.12037966e-02,  1.16957456e-01,
         1.24234341e-01, -1.98364481e-02,  2.53942221e-01,
         3.39845158e-02, -1.74754173e-01, -7.10772574e-02,
        -6.92138672e-02,  1.34553853e-02,  4.47809584e-02,
        -8.23938400e-02, -2.00486735e-01, -5.06205000e-02,
         1.40308887e-01, -1.01339221e-02, -2.05313727e-01,
         4.16246317e-02,  1.08482145e-01, -9.52640399e-02,
        -1.02163427e-01},
       { 1.20948233e-01, -2.72805393e-02, -1.73234820e-01,
         8.82559363e-03, -1.36651337e-01, -1.44445300e-01,
        -9.98279378e-02,  1.63723066e-01,  1.44312121e-02,
        -1.01965308e-01,  1.25559196e-01, -6.04084022e-02,
        -1.44862738e-02, -8.64963084e-02,  7.23527838e-03,
         1.33957922e-01, -5.52244745e-02, -1.78632900e-01,
         9.92569420e-03, -2.56636040e-03,  3.43546495e-02,
        -2.87685171e-02, -1.34933740e-01, -1.13584965e-01,
        -9.33943838e-02, -1.44065395e-01,  1.01809949e-01,
         7.62438849e-02, -2.14605451e-01, -1.98816225e-01,
         1.13437980e-01,  1.14074104e-01,  6.44500891e-04,
         3.89686599e-02,  1.98204264e-01,  2.08998278e-01,
        -1.27875701e-01,  6.74424469e-02,  1.43548533e-01,
         2.40262613e-01,  1.13837264e-01, -9.83270556e-02,
        -1.54406652e-01, -1.74809638e-02, -7.78108761e-02,
         1.13754742e-01,  8.95417407e-02, -1.98046155e-02,
        -2.42523596e-01,  1.58307746e-01, -3.18613462e-02,
        -2.15039074e-01, -8.01518932e-02, -4.78951298e-02,
         5.61939366e-02, -3.41168791e-01, -5.57964481e-02,
         6.11864626e-02,  1.88999921e-01, -5.12046039e-01,
         4.06231992e-02,  7.59473592e-02,  2.17184216e-01,
         1.99539363e-01},
       { 3.64426896e-02, -1.16358772e-02, -1.39107192e-02,
         3.64732929e-02, -2.86539584e-01, -5.09156138e-02,
        -1.61874041e-01,  9.12885368e-02,  1.33244157e-01,
