[[-1.17727339e-01  2.59036630e-01 -2.49285042e-01 -1.69868693e-01
   4.00654912e-01 -3.79962713e-01  7.92826340e-02 -5.24790175e-02
   8.85708630e-02  2.99352016e-02  4.30867821e-02 -4.22847360e-01
   1.26872724e-03  2.14801207e-01  2.47399107e-01  4.03146863e-01
   3.91115457e-01  3.79714757e-01]
 [ 1.35037124e-01 -2.72411883e-01  2.54308581e-02 -2.87410259e-01
   1.48500130e-01 -2.45502561e-01 -5.76139987e-02  3.27307880e-01
   3.41887921e-01  6.63614348e-02 -2.03284156e-02 -1.04623362e-01
  -1.31038442e-01 -2.74505485e-02 -2.01807559e-01 -2.83206522e-01
   6.11924589e-01  1.69752702e-01]
 [-3.95560741e-01  2.89238393e-01  1.46973908e-01 -9.42457560e-03
   2.38053128e-01 -1.96651760e-02 -1.81053385e-01 -3.24830681e-01
  -3.17588776e-01  5.01170382e-02 -2.96710432e-01 -2.02568308e-01
   1.33771405e-01 -2.56971210e-01  1.71076939e-01 -6.68187365e-02
   5.03587484e-01 -2.16442093e-01]
 [ 1.87305659e-01 -2.13204026e-01  6.32534102e-02 -1.05956033e-01
   8.95885155e-02  1.27275527e-01  1.93243131e-01  3.47005986e-02
  -5.27858377e-01  6.30880296e-02  1.46125510e-01 -2.92618304e-01
   1.78559527e-01  2.63385117e-01  8.89279008e-01 -8.58403742e-03
   5.28028421e-02 -3.76215488e-01]
 [-2.32498899e-01 -3.10221463e-01 -2.71050662e-01 -1.95836485e-03
   1.77767977e-01  1.17962826e-02 -3.22713375e-01  1.91623688e-01
  -1.34185161e-02 -4.91813868e-02  1.02991134e-01 -1.92592680e-01
  -3.05598658e-02 -3.14627647e-01  2.82086730e-01 -4.18289512e-01
  -6.06982172e-01 -1.07771754e-01]
 [ 3.26416604e-02  1.45857155e-01  2.05285817e-01 -8.45418647e-02
  -4.23346996e-01  2.30491966e-01 -2.01156199e-01  5.12216128e-02
  -4.88366187e-01  3.96389008e-01  4.50652763e-02  1.62513033e-01
  -1.79173782e-01  3.37665498e-01 -3.43995869e-01 -1.75152630e-01
   3.52975160e-01  3.41615602e-02]
 [ 2.73976415e-01  2.35069141e-01  2.45623335e-01 -1.28764540e-01
  -1.43914253e-01  2.45564178e-01  1.46436673e-02 -4.50939983e-01
  -1.11518756e-01  3.82556431e-02  1.78358734e-01  3.10732812e-01
   7.22005740e-02 -4.00923729e-01 -2.67010510e-01  1.47620067e-01
   1.16138808e-01 -1.46113724e-01]
 [ 1.70132250e-01  2.29085907e-01 -2.04346865e-01 -1.34384930e-01
  -3.23826522e-01 -1.17607690e-01 -4.08461504e-02 -4.14539039e-01
   4.07680422e-01  7.65217841e-02  2.48825297e-01 -4.57613543e-02
   1.99932922e-02  3.31193358e-01 -6.20317413e-03 -1.77156642e-01
  -2.10544333e-01 -4.61752325e-01]
 [ 2.88748145e-01 -4.46021229e-01  1.57421798e-01 -1.01347670e-01
   8.25733170e-02 -8.62876698e-02 -2.57605910e-01  1.83874995e-01
   2.48325020e-01  4.24642444e-01 -1.82374924e-01  2.37664118e-01
  -2.62621939e-01  1.01364009e-01  2.64585689e-02  1.30153790e-01
  -2.49126017e-01 -3.80840063e-01]
 [-4.20592636e-01  1.40013024e-01  4.24073428e-01  2.81681448e-01
   5.35835791e-03  2.93607473e-01 -4.02169153e-02  2.42606625e-02
  -2.02433899e-01 -2.28196140e-02 -2.54951924e-01  9.40605700e-02
  -7.14702964e-01 -1.79855004e-01 -1.42200157e-01 -3.14687818e-01
   5.49229458e-02 -3.69888902e-01]
 [ 3.44922811e-01 -1.97699249e-01  2.33750001e-01  4.74874556e-01
   4.37323123e-01 -2.98467219e-01 -2.21194938e-01  1.99012365e-02
  -8.15246627e-03  3.91784579e-01  9.95291173e-02 -1.85303614e-02
   3.33098263e-01 -1.62406445e-01 -2.52700388e-01 -2.41202619e-02
   5.34001216e-02  2.74390876e-01]
 [-2.67760098e-01  1.29618496e-01 -6.64267689e-02  3.77457201e-01
   2.59809326e-02  4.07201201e-01 -2.03335702e-01 -5.96098661e-01
   3.60800534e-01 -1.12681054e-01  1.70544147e-01  2.82084965e-03
   2.42464114e-02  4.08448614e-02  2.27910995e-01  3.10625702e-01
   2.45380420e-02 -3.69219571e-01]
 [-7.88424686e-02  3.61645460e-01 -2.02815846e-01 -1.16876520e-01
   3.94163519e-01 -4.31495517e-01 -2.98094183e-01  3.46773595e-01
   3.57423946e-02 -3.75146508e-01  1.89827546e-01  8.18985701e-02
  -9.23288465e-02 -4.70147692e-02  1.25667363e-01 -1.65618494e-01
  -4.85437065e-02  3.19490790e-01]
 [-3.45545232e-01 -2.05326766e-01 -6.90076649e-02 -1.48653701e-01
   3.38359848e-02 -3.30602616e-01 -1.86271928e-02  4.16922905e-02
  -1.48866877e-01 -2.02229843e-01 -9.90147144e-02  3.79718602e-01
  -4.22312140e-01 -1.86878350e-03 -4.58327048e-02  4.71972704e-01
  -3.49515416e-02  2.76777297e-01]
 [-2.91136175e-01 -1.36940300e-01 -9.32090208e-02  2.15427488e-01
   2.68023044e-01 -5.28883226e-02  4.52834889e-02 -5.82066737e-03
   1.60934508e-01 -2.38637492e-01  2.06534743e-01 -1.10186443e-01
   4.79571633e-02 -1.46305919e-01  3.85584593e-01 -1.68758761e-02
   6.60085499e-01  3.14491600e-01]
 [ 1.27271876e-01  2.39256218e-01  4.42404188e-02  1.37122437e-01
   1.21834455e-02  1.46639094e-01  1.25269875e-01 -8.65161195e-02
  -1.45896792e-01  4.96846586e-02 -1.13147587e-01  4.46425736e-01
   1.52926192e-01 -1.65267259e-01 -4.75538343e-01  6.66905701e-01
  -1.95935398e-01  9.26991627e-02]
 [-2.41324708e-01  3.05428773e-01  2.88000166e-01 -4.91163023e-02
   5.07005453e-01  3.83746028e-01  3.85531001e-02 -6.18037097e-02
   1.02802724e-01 -4.62923557e-01 -9.79966745e-02 -1.11557014e-01
  -1.57301471e-01  2.86282182e-01 -2.70037472e-01  1.21863753e-01
  -5.75229287e-01 -2.23920192e-03]
 [-4.96366709e-01  4.21076128e-03 -1.60268039e-01 -3.64139497e-01
   2.15598479e-01 -2.51886584e-02  1.20601915e-01  3.78066339e-02
  -7.46224940e-01 -6.02194428e-01 -2.70202726e-01  3.15372795e-01
   3.68783027e-01 -4.83494878e-01  5.04004918e-02  1.70210302e-01
   2.08285809e-01 -2.21192483e-02]
 [-5.66778064e-01  2.70544797e-01  3.19198400e-01 -6.50889874e-02
  -1.84195284e-02  3.60093027e-01 -3.83070946e-01 -1.87734231e-01
  -4.19072658e-02 -2.32526455e-02  3.03607970e-01 -3.59557718e-01
  -4.49854881e-02  2.11898595e-01 -3.46686125e-01 -1.93382144e-01
   1.11629525e-02  5.77177629e-02]
 [ 2.68390983e-01  1.31498754e-01  1.20992795e-01  4.00387019e-01
   1.12861380e-01 -3.33777554e-02  3.26309234e-01  3.37182611e-01
  -4.72183749e-02  8.16520378e-02 -9.37235653e-02 -3.30574274e-01
   3.71605933e-01  1.77921385e-01 -1.75230309e-01 -5.33050187e-02
  -4.60077375e-01 -3.40954334e-01]
 [-9.00505930e-02  2.32354291e-02  9.99960955e-03  1.46937802e-01
  -1.05983891e-01 -2.33219311e-01 -3.26524585e-01 -3.39579463e-01
   4.53710228e-01 -2.63288081e-01 -5.57765901e-01  4.90901023e-01
  -2.74345160e-01  1.84863925e-01 -1.71448618e-01 -1.22424282e-01
   5.08580148e-01  9.94449183e-02]
 [-6.28465340e-02 -1.93103373e-01 -2.54598260e-01 -2.52237856e-01
   8.96467343e-02 -2.06391886e-01  4.59008098e-01  4.80167307e-02
  -7.11202174e-02 -3.11867535e-01  1.09486297e-01 -3.28555964e-02
   2.38710120e-01 -1.66780293e-01 -5.18273413e-01 -3.16699892e-01
  -4.90204722e-01 -1.44121367e-02]
 [ 6.53851032e-02  4.80401106e-02  6.49113879e-02 -2.55053520e-01
   2.84140378e-01  6.22850694e-02  3.74540389e-01  3.59695882e-01
   5.98871112e-01 -7.76395807e-03 -1.24917194e-01 -2.04837248e-01
   6.97404742e-02  8.57288018e-02 -4.90782261e-02 -2.24725857e-01
  -4.50760365e-01  4.43053216e-01]
 [ 9.42182988e-02  1.19868210e-02 -8.79068673e-02  8.87435079e-02
   4.90772396e-01  1.36660159e-01 -1.39549464e-01  4.70803410e-01
   7.00485483e-02  3.76403093e-01 -2.45719254e-01  1.08362243e-01
   4.95668501e-01 -4.59874511e-01  1.69048056e-01 -2.06586912e-01
  -1.20811891e-02 -2.43319020e-01]
 [-2.96378471e-02  1.08620264e-02  1.26601964e-01 -3.90754670e-01
   4.95788939e-02 -2.18087390e-01  5.23408055e-01  2.68956739e-02
   4.07817721e-01  3.16272229e-01 -3.36067170e-01 -3.15824598e-02
   2.26359725e-01 -1.42208457e-01 -1.16294555e-01  3.73657942e-02
   1.50206849e-01  1.98918000e-01]
 [-4.49770063e-01 -1.47300228e-01 -2.97996607e-02 -5.18620193e-01
  -3.40351850e-01 -1.21268742e-01  1.04926147e-01 -1.30557656e-01
  -7.84803033e-01  2.83767693e-02 -1.51599526e-01 -1.23129345e-01
   3.22628528e-01  3.82981032e-01  1.71611622e-01  1.34556010e-01
   1.38630301e-01  2.46327773e-01]
 [-2.08763152e-01 -4.17713344e-01 -2.40383551e-01  2.59379987e-02
   2.09719203e-02 -6.20060787e-02 -3.18605341e-02  3.45970303e-01
  -1.68281525e-01  8.73123631e-02  4.07369643e-01  1.58680066e-01
   4.22553308e-02  3.45715433e-01 -3.80094588e-01 -1.07273333e-01
  -2.33400077e-01 -1.25009701e-01]
 [ 2.01539040e-01  6.90695494e-02  5.37890494e-01  3.44968498e-01
   4.81120981e-02  4.21805471e-01 -2.82238740e-02  2.02650893e-02
   5.54987311e-01  4.21477156e-03 -2.15750292e-01 -1.95053741e-01
   3.46134156e-02 -4.90124188e-02 -1.67929322e-01  4.73746993e-02
  -3.62315029e-01  3.47052589e-02]
 [ 1.99412912e-01 -5.78920357e-03 -2.97048867e-01  3.15623909e-01
   1.03700116e-01  5.04162312e-02 -2.51270056e-01 -3.15696496e-04
  -2.93337792e-01  4.05070841e-01 -1.59719273e-01 -9.88474414e-02
   3.60783637e-01  4.89859998e-01  3.21554691e-01  4.32156146e-01
  -2.58780301e-01  2.45087460e-01]
 [ 9.26383659e-02 -1.76022649e-01  8.37944150e-02 -1.64175570e-01
  -1.03328452e-01  1.29502863e-01 -3.17683071e-01  5.37707865e-01
   3.25153232e-01  3.85498777e-02 -1.82204917e-01 -1.31516159e-01
  -7.78733343e-02 -4.47508574e-01  6.41223416e-02  1.70128673e-01
   4.46066141e-01  2.01761067e-01]
 [-1.67461410e-01 -7.30142444e-02  6.54474020e-01  7.68763348e-02
   2.13792138e-02 -1.37476875e-02 -1.39929608e-01  1.86411843e-01
   1.16555728e-01 -1.06276147e-01  2.44135074e-02  8.30842033e-02
  -6.75624311e-01 -9.54630226e-02 -1.97626412e-01 -1.86013341e-01
   5.06726027e-01  8.98086876e-02]
 [-1.93771228e-01 -8.48777220e-02 -5.50056279e-01 -2.35592961e-01
  -1.18098743e-02  6.81940615e-02 -2.25307837e-01 -1.47307575e-01
  -2.59852916e-01  3.43248069e-01 -2.49632224e-02  1.41005278e-01
   1.54954612e-01 -3.91975433e-01  2.65249908e-01  1.12200998e-01
   5.12274981e-01 -2.78370589e-01]
 [ 4.83622998e-01 -4.82338853e-02 -5.40136516e-01 -3.27933699e-01
   7.72752911e-02 -2.72135288e-01 -7.14002326e-02 -1.51226833e-01
  -1.41087234e-01  1.02163009e-01 -3.60363930e-01 -1.27998115e-02
   4.05651420e-01 -3.97259928e-02  1.23181872e-01  1.84298918e-01
   3.82190645e-01  3.07319313e-01]
 [ 2.09554926e-01  2.47345597e-01 -2.09956571e-01 -9.68894139e-02
  -6.28504753e-01 -2.49823648e-02 -2.95582443e-01  2.53759980e-01
  -2.31620912e-02  2.82195769e-02  1.84744686e-01  9.97119248e-02
  -2.55822003e-01  4.59696762e-02 -2.43943945e-01 -1.08946808e-01
  -2.21195698e-01 -2.67112225e-01]
 [-3.89607966e-01 -6.99663997e-01 -2.03022789e-02 -1.92889974e-01
   2.15432514e-02 -3.65882784e-01  1.94505572e-01 -1.10282347e-01
  -1.10967688e-01  3.39605778e-01  2.24443913e-01  1.61196858e-01
  -1.93142503e-01 -1.64274380e-01  9.26360264e-02  2.66357541e-01
   1.53076559e-01 -3.80065590e-01]
 [-1.80903941e-01 -2.45080814e-02 -4.99236941e-01 -6.44990206e-02
   7.32125044e-02 -2.78661028e-02  2.50853747e-02  4.68917668e-01
  -2.11957693e-02 -8.53606090e-02  9.47314650e-02 -2.27733657e-01
  -3.84321511e-01 -3.90719652e-01  1.14289455e-01  6.80304915e-02
  -4.72483158e-01  3.81821811e-01]
 [ 8.73301998e-02 -1.21488787e-01  1.83073774e-01 -5.90422973e-02
  -1.46204039e-01  1.18361311e-02 -2.11740330e-01 -2.13175625e-01
   1.44544452e-01 -1.59381509e-01  2.10472211e-01 -7.00973382e-04
   2.50400722e-01  9.23278630e-02  1.30306348e-01 -7.16708064e-01
  -1.91715196e-01  4.24873322e-01]
 [ 6.90162182e-02 -2.46389106e-01 -7.52825141e-02  1.35880947e-01
  -7.91323334e-02  1.60618246e-01 -4.21773851e-01  3.48812908e-01
  -2.06283316e-01 -4.34552412e-03 -1.44485300e-02 -5.03775001e-01
   7.95503706e-02  1.16717396e-03 -4.87959385e-01 -1.39216304e-01
  -2.56072462e-01 -2.31637657e-01]
 [ 1.45494238e-01  3.50594699e-01 -1.87200196e-02  3.03890675e-01
  -2.67585754e-01 -1.54036343e-01 -3.30798984e-01 -1.60841987e-01
   2.19197452e-01  7.07034394e-02 -4.56365228e-01 -1.30843461e-01
  -4.38221395e-01  5.64957187e-02 -3.29452217e-01  5.56781627e-02
   4.71026711e-02 -4.40234780e-01]
 [ 1.43887267e-01  1.16740270e-02 -4.07691151e-01  3.40096653e-01
   1.16970830e-01 -1.05621494e-01 -2.32013166e-01  3.69257718e-01
   6.74422264e-01  1.17662735e-01 -2.34920785e-01  2.63264865e-01
  -5.17310143e-01 -6.47313595e-01  1.17507517e-01 -1.52753204e-01
  -1.54844642e-01 -2.33351260e-01]
 [ 1.69923127e-01  1.26692474e-01  4.03950185e-01 -5.01537099e-02
   2.81303376e-03 -5.25582917e-02 -2.23225266e-01 -1.00878760e-01
  -1.65725425e-01  5.61963260e-01  1.09395854e-01 -3.24858457e-01
  -7.11997449e-02  1.85322046e-01 -1.95616037e-01 -4.69667047e-01
  -6.54216588e-01  9.56210122e-02]
 [-9.89469886e-02  5.80579862e-02  1.84446633e-01 -3.96403104e-01
   2.12785304e-01 -1.97700754e-01  1.99776113e-01  9.19564590e-02
  -3.77279699e-01 -3.43357414e-01 -1.98896363e-01  2.26723298e-01
   1.26848444e-01  4.57100511e-01 -1.18274070e-01 -8.15642178e-02
   3.63534063e-01  1.64792817e-02]
 [-1.19255938e-01  2.44795680e-01 -1.76635310e-01  1.27855092e-01
  -5.76173887e-04  3.25297773e-01 -2.98649102e-01  1.35382518e-01
   4.12879229e-01  2.53896639e-02 -4.57613885e-01 -3.76402617e-01
  -4.13219817e-02  3.19319665e-01 -1.61469832e-01  4.12230700e-01
   2.85877977e-02  8.00312981e-02]
 [ 1.96595695e-02 -1.68771341e-01  2.45760664e-01  7.98153505e-02
  -4.84147996e-01  7.37914369e-02  2.68376648e-01  4.90948975e-01
  -1.38621897e-01  2.16917589e-01 -1.03850462e-01 -5.31864874e-02
  -3.69656116e-01 -1.52260154e-01 -4.17278260e-02 -2.46169674e-03
  -2.13793591e-01 -1.43461138e-01]
 [-8.19375515e-02 -6.05780557e-02 -7.28336573e-02 -3.23998630e-01
  -4.55528088e-02  2.04754576e-01  4.16613638e-01  1.69161722e-01
   1.17584206e-01 -1.06666729e-01 -3.28425676e-01 -1.61097631e-01
   6.35678947e-01  5.38551092e-01 -2.35137925e-01  4.83815819e-02
   3.70013744e-01  1.13161922e-01]
 [-3.64214897e-01  1.75717309e-01  6.44808710e-02 -7.82750323e-02
  -4.61261161e-02  2.28789642e-01  6.17909990e-02 -4.85396057e-01
   5.13368905e-01  3.08752842e-02  5.49700737e-01  3.51744086e-01
  -1.41515285e-01  1.41263679e-01  2.14603975e-01 -1.97793990e-01
   8.39575902e-02  7.77996182e-02]
 [ 2.95609683e-01 -2.61463672e-01  1.44306540e-01 -6.01736307e-02
  -3.89333963e-02 -1.03030600e-01  4.45165843e-01  2.78682619e-01
  -9.79173090e-03 -1.30892709e-01 -3.37759465e-01  1.60144605e-02
   2.70303756e-01 -2.82109320e-01 -4.49158132e-01  2.98482794e-02
   9.72319394e-02 -3.52721155e-01]
 [ 1.81833357e-01 -1.21829405e-01  4.09795493e-01  8.89499336e-02
  -2.94061363e-01  2.46005915e-02  2.26649165e-01 -1.27257675e-01
   5.11492193e-01  3.19254935e-01  3.40082556e-01 -1.66884184e-01
   1.79441065e-01  4.30473655e-01  2.93327600e-01  2.03773499e-01
  -6.04717433e-02  2.27779016e-01]
 [ 7.52494410e-02  8.26404691e-02  2.56090164e-01  4.39704321e-02
   2.99163491e-01  8.18698108e-02 -9.72641185e-02  2.97760308e-01
   1.05260340e-02 -2.70638764e-01  5.24160385e-01  4.65135694e-01
  -4.01133150e-01 -1.53238133e-01 -1.62363306e-01 -3.83006841e-01
   3.58405620e-01  1.34068042e-01]
 [ 2.07488984e-01  2.54910976e-01  1.24150842e-01 -1.53185576e-01
  -4.19264793e-01 -2.03920290e-01  1.50686512e-02 -2.24828627e-02
  -8.10244679e-02 -8.58717039e-02  8.52055326e-02 -2.55548924e-01
   1.29813388e-01 -7.09120482e-02 -1.11019656e-01  6.09344721e-01
  -3.25303912e-01  5.62924325e-01]
 [-1.75512195e-01  4.15498972e-01 -9.10661966e-02  2.07788542e-01
  -4.80215967e-01  9.92694497e-02  1.83403105e-01  3.46451402e-01
  -7.71425813e-02 -5.98042905e-02 -3.00175715e-02  2.98384689e-02
   5.04896939e-02 -4.90810238e-02  1.72164053e-01  2.43945003e-01
  -3.27498987e-02 -3.61082971e-01]
 [-8.74943957e-02 -8.00684467e-03 -1.35764748e-01  2.23819479e-01
  -3.89316142e-01 -5.51092476e-02  5.89704439e-02 -5.05913854e-01
  -1.08612724e-01 -5.43792881e-02 -2.34409273e-01  2.89447784e-01
   1.82713624e-02 -2.95745134e-01 -2.42751673e-01 -1.68045059e-01
  -1.92359701e-01  5.60144603e-01]
 [ 7.60947913e-02  3.35411906e-01 -7.39853922e-03 -2.16624007e-01
   2.16072917e-01 -1.74558610e-01  3.99700738e-02 -1.13279290e-01
  -4.17871594e-01  3.75947237e-01  3.54830027e-01 -1.18177831e-01
   4.54216331e-01 -2.14056820e-02  1.23525992e-01 -2.70759732e-01
  -1.88910365e-01  3.39978367e-01]
 [ 2.83765227e-01 -5.10920025e-02 -1.15811527e-01 -5.53325610e-03
   2.93911636e-01 -4.65583235e-01 -1.33866832e-01 -3.29073668e-01
  -4.03234102e-02 -4.76050854e-01 -2.05254734e-01  2.95779288e-01
   7.02220351e-02 -2.40788653e-01 -4.80996817e-01  2.86278278e-01
   2.32143611e-01 -1.14267178e-01]
 [-4.26433921e-01  2.23975733e-01  1.51196644e-01 -2.65860349e-01
   1.55460099e-02  3.72882247e-01 -8.42953771e-02  4.24802676e-02
  -3.42443198e-01  1.20861769e-01  1.01759829e-01 -3.92759919e-01
  -3.04542065e-01 -2.68136770e-01 -8.48841146e-02 -2.13183641e-01
   1.09619908e-01 -5.92013001e-02]
 [-1.99046746e-01  1.42140970e-01  7.18754008e-02 -8.47758278e-02
   8.47546160e-02 -1.49746224e-01 -3.47281903e-01 -2.36616686e-01
  -4.96996522e-01  2.34906226e-01 -1.67046825e-03 -3.42060357e-01
  -1.90336555e-01  2.55482733e-01  4.37979043e-01  4.72381413e-02
   3.95804614e-01  1.73279256e-01]
 [ 3.11769933e-01  1.16419710e-01  2.50531793e-01  4.92903799e-01
  -2.75481105e-01  8.76767635e-02 -1.61881045e-01  1.33398861e-01
   2.80594349e-01 -1.39893532e-01  1.89767018e-01  2.19038595e-02
  -4.03855354e-01 -4.02095973e-01  2.15551585e-01  3.26918334e-01
   5.52955866e-02  2.77249187e-01]
 [-4.86289449e-02 -1.41261652e-01 -2.54540667e-02 -2.89457262e-01
  -1.80951193e-01  1.55852780e-01  5.29006012e-02  2.52030611e-01
  -4.39532310e-01  6.98128045e-01 -3.41121018e-01 -5.06572068e-01
   2.66007900e-01 -2.46400818e-01 -1.72063500e-01 -1.78396404e-01
   9.10236090e-02 -1.66051432e-01]
 [ 2.16758907e-01 -2.45366558e-01  8.07302073e-03  4.93218563e-02
   4.72030669e-01  1.39886022e-01  2.88903385e-01  2.88924009e-01
   2.57365286e-01 -3.93909425e-01  8.43016803e-02 -1.28107861e-01
  -1.54737219e-01 -3.58771414e-01 -2.62569100e-01  9.80817364e-04
   4.64022130e-01  2.54149050e-01]
 [ 1.39377654e-01 -4.25539702e-01  4.70225960e-01  4.09108549e-02
  -1.22575916e-01 -5.60688600e-02  3.42350215e-01 -3.40976000e-01
  -1.37531519e-01  1.28063694e-01 -1.58448458e-01 -5.75394869e-01
  -3.43022257e-01  1.75454766e-01 -3.50026637e-02 -1.06093749e-01
   1.47516832e-01  4.20470208e-01]
 [ 5.47436289e-02 -2.40572274e-01  2.46320337e-01 -2.04837620e-01
  -2.43937567e-01  2.24653423e-01 -1.29811987e-01 -8.09872746e-02
   1.65962338e-01 -7.96377137e-02 -1.50148690e-01  2.21127227e-01
   1.71577111e-01  1.95871189e-01 -3.92636389e-01  6.74626887e-01
   1.80792913e-01 -2.29141802e-01]
 [-6.77451715e-02 -2.59561568e-01 -2.87601709e-01 -1.07574031e-01
  -2.29208276e-01 -1.88743532e-01  2.42773667e-01 -1.25470921e-01
   2.28857309e-01 -2.17477962e-01 -1.00407645e-01 -2.81239301e-01
  -1.95188507e-01 -5.34817949e-02  3.45029742e-01  2.68790573e-01
  -2.59979784e-01 -3.34883958e-01]
 [-4.72620904e-01  1.80647656e-01 -5.21977127e-01  1.49753392e-01
  -5.00962734e-01  9.05982032e-03 -1.08344154e-02 -1.75501928e-01
   1.78280681e-01  1.37740597e-01  1.53024450e-01 -1.78348407e-01
  -3.54054153e-01 -2.58612223e-02  1.08269446e-01 -2.34739825e-01
   8.15507248e-02 -6.63740337e-02]
 [ 1.44787744e-01 -1.56587496e-01 -2.72573799e-01  2.79930383e-01
   9.86652523e-02 -3.82402897e-01  1.42532021e-01  2.68796027e-01
  -3.50563154e-02 -1.36637062e-01 -3.98773670e-01  2.88379461e-01
  -2.30910137e-01  2.02218756e-01  2.62135834e-01 -1.34133562e-01
   2.60941803e-01 -3.91905636e-01]]